{"learner":{"attributes":{"niter":"49"},"feature_names":[],"feature_types":[],"gradient_booster":{"model":{"gbtree_model_param":{"num_parallel_tree":"1","num_trees":"50","size_leaf_vector":"0"},"tree_info":[0,0,0,0,0,0,0,0,0,0,0,0,0,0,0,0,0,0,0,0,0,0,0,0,0,0,0,0,0,0,0,0,0,0,0,0,0,0,0,0,0,0,0,0,0,0,0,0,0,0],"trees":[{"base_weights":[-4.9986333E-1,-1.345596E0,1.8456742E-2,-2.091418E0,-1.033593E0,-2.3200005E-1,4.7953746E-1,-2.477974E0,-1.7480681E0,-1.2590356E0,-8.7516725E-1,-5.1087534E-1,-8.4800206E-2,1.6564924E-1,5.609663E-1],"categories":[],"categories_nodes":[],"categories_segments":[],"categories_sizes":[],"default_left":[1,1,1,1,1,1,1,0,0,0,0,0,0,0,0],"id":0,"left_children":[1,3,5,7,9,11,13,-1,-1,-1,-1,-1,-1,-1,-1],"loss_changes":[1.6035466E3,3.212893E2,2.6213718E2,4.9952515E1,3.397119E1,6.0341797E1,2.0329163E1,0E0,0E0,0E0,0E0,0E0,0E0,0E0,0E0],"parents":[2147483647,0,0,1,1,2,2,3,3,4,4,5,5,6,6],"right_children":[2,4,6,8,10,12,14,-1,-1,-1,-1,-1,-1,-1,-1],"split_conditions":[-4.8423917E-3,-9.608197E-3,8.263573E-3,-1.0799648E-2,-7.7018747E-3,-1.7446182E-3,1.1361347E-2,-2.477974E-1,-1.7480682E-1,-1.2590356E-1,-8.7516725E-2,-5.1087536E-2,-8.480021E-3,1.6564924E-2,5.6096632E-2],"split_indices":[2062,2062,2062,2062,2062,2062,2062,0,0,0,0,0,0,0,0],"split_type":[0,0,0,0,0,0,0,0,0,0,0,0,0,0,0],"sum_hessian":[3.657E3,1.389E3,2.268E3,4.08E2,9.81E2,1.47E3,7.98E2,1.89E2,2.19E2,4.02E2,5.79E2,5.07E2,9.63E2,1.65E2,6.33E2],"tree_param":{"num_deleted":"0","num_feature":"2066","num_nodes":"15","size_leaf_vector":"0"}},{"base_weights":[-4.5004728E-1,-1.2114938E0,1.661684E-2,-1.8833096E0,-9.3045104E-1,-2.591189E-1,3.599746E-1,-2.2803273E0,-1.6082433E0,-1.0780067E0,-7.345298E-1,-4.7032824E-1,-1.2924902E-1,1.0832159E-1,5.013863E-1],"categories":[],"categories_nodes":[],"categories_segments":[],"categories_sizes":[],"default_left":[1,1,1,1,1,1,1,0,0,0,0,0,0,0,0],"id":1,"left_children":[1,3,5,7,9,11,13,-1,-1,-1,-1,-1,-1,-1,-1],"loss_changes":[1.2998531E3,2.6069226E2,2.1491315E2,4.0997925E1,2.7597107E1,3.4473244E1,3.5923813E1,0E0,0E0,0E0,0E0,0E0,0E0,0E0,0E0],"parents":[2147483647,0,0,1,1,2,2,3,3,4,4,5,5,6,6],"right_children":[2,4,6,8,10,12,14,-1,-1,-1,-1,-1,-1,-1,-1],"split_conditions":[-4.8423917E-3,-9.608197E-3,5.1657995E-3,-1.1037938E-2,-6.987004E-3,-1.9829085E-3,1.1123056E-2,-2.2803274E-1,-1.6082434E-1,-1.0780068E-1,-7.345298E-2,-4.7032826E-2,-1.2924902E-2,1.083216E-2,5.013863E-2],"split_indices":[2062,2062,2062,2062,2062,2062,2062,0,0,0,0,0,0,0,0],"split_type":[0,0,0,0,0,0,0,0,0,0,0,0,0,0,0],"sum_hessian":[3.657E3,1.389E3,2.268E3,4.08E2,9.81E2,1.258E3,1.01E3,1.64E2,2.44E2,5.57E2,4.24E2,4.78E2,7.8E2,3.64E2,6.46E2],"tree_param":{"num_deleted":"0","num_feature":"2066","num_nodes":"15","size_leaf_vector":"0"}},{"base_weights":[-4.0519813E-1,-1.0907546E0,1.4955605E-2,-1.6959294E0,-8.375905E-1,-2.1222611E-1,3.5322073E-1,-2.0134914E0,-1.4139626E0,-1.0259112E0,-7.052959E-1,-3.6581975E-1,-4.2373948E-2,1.20901756E-1,4.5489863E-1],"categories":[],"categories_nodes":[],"categories_segments":[],"categories_sizes":[],"default_left":[1,1,1,1,1,1,1,0,0,0,0,0,0,0,0],"id":2,"left_children":[1,3,5,7,9,11,13,-1,-1,-1,-1,-1,-1,-1,-1],"loss_changes":[1.0536636E3,2.1153943E2,1.7444229E2,3.3775635E1,2.3741821E1,3.5412292E1,2.1487976E1,0E0,0E0,0E0,0E0,0E0,0E0,0E0,0E0],"parents":[2147483647,0,0,1,1,2,2,3,3,4,4,5,5,6,6],"right_children":[2,4,6,8,10,12,14,-1,-1,-1,-1,-1,-1,-1,-1],"split_conditions":[-4.8423917E-3,-9.608197E-3,6.595541E-3,-1.0799648E-2,-7.7018747E-3,-3.1487664E-4,1.1361347E-2,-2.0134914E-1,-1.4139627E-1,-1.0259112E-1,-7.0529595E-2,-3.6581974E-2,-4.237395E-3,1.2090175E-2,4.5489863E-2],"split_indices":[2062,2062,2062,2062,2062,2062,2062,0,0,0,0,0,0,0,0],"split_type":[0,0,0,0,0,0,0,0,0,0,0,0,0,0,0],"sum_hessian":[3.657E3,1.389E3,2.268E3,4.08E2,9.81E2,1.357E3,9.11E2,1.89E2,2.19E2,4.02E2,5.79E2,7.12E2,6.45E2,2.78E2,6.33E2],"tree_param":{"num_deleted":"0","num_feature":"2066","num_nodes":"15","size_leaf_vector":"0"}},{"base_weights":[-3.6481476E-1,-9.820503E-1,1.3467432E-2,-1.5271745E0,-7.5400776E-1,-2.1072885E-1,2.926461E-1,-2.1737509E0,-1.4053833E0,-9.235747E-1,-6.3488793E-1,-4.0973413E-1,-1.1449016E-1,1.3724165E-1,4.4205076E-1],"categories":[],"categories_nodes":[],"categories_segments":[],"categories_sizes":[],"default_left":[1,1,1,1,1,1,1,0,0,0,0,0,0,0,0],"id":3,"left_children":[1,3,5,7,9,11,13,-1,-1,-1,-1,-1,-1,-1,-1],"loss_changes":[8.541167E2,1.7164148E2,1.4208025E2,2.9152649E1,1.924878E1,2.4065472E1,2.3412888E1,0E0,0E0,0E0,0E0,0E0,0E0,0E0,0E0],"parents":[2147483647,0,0,1,1,2,2,3,3,4,4,5,5,6,6],"right_children":[2,4,6,8,10,12,14,-1,-1,-1,-1,-1,-1,-1,-1],"split_conditions":[-4.8423917E-3,-9.608197E-3,5.1657995E-3,-1.1991099E-2,-7.7018747E-3,-2.4594888E-3,1.422083E-2,-2.1737508E-1,-1.4053833E-1,-9.235747E-2,-6.34888E-2,-4.0973414E-2,-1.1449016E-2,1.3724165E-2,4.4205077E-2],"split_indices":[2062,2062,2062,2062,2062,2062,2062,0,0,0,0,0,0,0,0],"split_type":[0,0,0,0,0,0,0,0,0,0,0,0,0,0,0],"sum_hessian":[3.657E3,1.389E3,2.268E3,4.08E2,9.81E2,1.258E3,1.01E3,6.2E1,3.46E2,4.02E2,5.79E2,4.09E2,8.49E2,4.96E2,5.14E2],"tree_param":{"num_deleted":"0","num_feature":"2066","num_nodes":"15","size_leaf_vector":"0"}},{"base_weights":[-3.2847223E-1,-9.461451E-1,-2.127049E-2,-1.5265975E0,-7.7550685E-1,-2.552998E-1,2.296349E-1,-1.9598261E0,-1.3912925E0,-1.0266044E0,-6.8999535E-1,-3.944022E-1,-1.3543166E-1,6.076225E-2,3.6865863E-1],"categories":[],"categories_nodes":[],"categories_segments":[],"categories_sizes":[],"default_left":[1,1,1,1,1,1,1,0,0,0,0,0,0,0,0],"id":4,"left_children":[1,3,5,7,9,11,13,-1,-1,-1,-1,-1,-1,-1,-1],"loss_changes":[6.94086E2,1.1915869E2,1.4356839E2,1.33932495E1,1.9496521E1,2.1039131E1,2.768082E1,0E0,0E0,0E0,0E0,0E0,0E0,0E0,0E0],"parents":[2147483647,0,0,1,1,2,2,3,3,4,4,5,5,6,6],"right_children":[2,4,6,8,10,12,14,-1,-1,-1,-1,-1,-1,-1,-1],"split_conditions":[-5.7955524E-3,-1.0323068E-2,3.0211871E-3,-1.1991099E-2,-9.131616E-3,-2.4594888E-3,1.1123056E-2,-1.9598262E-1,-1.3912925E-1,-1.0266044E-1,-6.899954E-2,-3.9440222E-2,-1.3543166E-2,6.076225E-3,3.6865864E-2],"split_indices":[2062,2062,2062,2062,2062,2062,2062,0,0,0,0,0,0,0,0],"split_type":[0,0,0,0,0,0,0,0,0,0,0,0,0,0,0],"sum_hessian":[3.657E3,1.214E3,2.443E3,2.74E2,9.4E2,1.264E3,1.179E3,6.2E1,2.12E2,2.36E2,7.04E2,5.84E2,6.8E2,5.33E2,6.46E2],"tree_param":{"num_deleted":"0","num_feature":"2066","num_nodes":"15","size_leaf_vector":"0"}},{"base_weights":[-2.9576626E-1,-8.7200314E-1,-2.8504571E-2,-1.4282634E0,-7.2822666E-1,-2.6828963E-1,1.79605E-1,-7.8854096E-1,-1.4966427E0,-9.40898E-1,-6.369896E-1,-7.731872E-1,-2.332385E-1,3.7206843E-2,3.3184972E-1],"categories":[],"categories_nodes":[],"categories_segments":[],"categories_sizes":[],"default_left":[1,1,1,0,1,0,1,0,0,0,0,0,0,0,0],"id":5,"left_children":[1,3,5,7,9,11,13,-1,-1,-1,-1,-1,-1,-1,-1],"loss_changes":[5.633292E2,9.165338E1,1.2480212E2,9.187103E0,1.731012E1,2.0383827E1,2.9016323E1,0E0,0E0,0E0,0E0,0E0,0E0,0E0,0E0],"parents":[2147483647,0,0,1,1,2,2,3,3,4,4,5,5,6,6],"right_children":[2,4,6,8,10,12,14,-1,-1,-1,-1,-1,-1,-1,-1],"split_conditions":[-6.033843E-3,-1.0561358E-2,1.5914454E-3,2.000001E0,-9.131616E-3,1.6E1,1.1123056E-2,-7.88541E-2,-1.4966427E-1,-9.40898E-2,-6.369896E-2,-7.731872E-2,-2.332385E-2,3.7206844E-3,3.318497E-2],"split_indices":[2062,2062,2062,32,2062,2,2062,0,0,0,0,0,0,0,0],"split_type":[0,0,0,0,0,0,0,0,0,0,0,0,0,0,0],"sum_hessian":[3.657E3,1.158E3,2.499E3,2.36E2,9.22E2,1.161E3,1.338E3,2.4E1,2.12E2,2.74E2,6.48E2,7.4E1,1.087E3,6.92E2,6.46E2],"tree_param":{"num_deleted":"0","num_feature":"2066","num_nodes":"15","size_leaf_vector":"0"}},{"base_weights":[-2.663127E-1,-7.0885324E-1,1.934921E-2,-1.2398955E0,-5.824575E-1,-1.301825E-1,2.3460774E-1,-1.6241616E0,-1.1204183E0,-7.2910017E-1,-4.5553017E-1,-5.945433E-1,-9.796049E-2,1.6533606E-1,4.3810856E-1],"categories":[],"categories_nodes":[],"categories_segments":[],"categories_sizes":[],"default_left":[1,1,1,1,1,0,1,0,0,0,0,0,0,0,0],"id":6,"left_children":[1,3,5,7,9,11,13,-1,-1,-1,-1,-1,-1,-1,-1],"loss_changes":[4.62447E2,9.559711E1,7.16166E1,1.0805786E1,2.1277496E1,1.9587704E1,1.278389E1,0E0,0E0,0E0,0E0,0E0,0E0,0E0,0E0],"parents":[2147483647,0,0,1,1,2,2,3,3,4,4,5,5,6,6],"right_children":[2,4,6,8,10,12,14,-1,-1,-1,-1,-1,-1,-1,-1],"split_conditions":[-4.604101E-3,-1.0323068E-2,6.595541E-3,-1.1991099E-2,-7.7018747E-3,1.6E1,2.4467312E-2,-1.6241616E-1,-1.1204183E-1,-7.291002E-2,-4.5553017E-2,-5.945433E-2,-9.7960485E-3,1.6533606E-2,4.3810856E-2],"split_indices":[2062,2062,2062,2062,2062,2,2062,0,0,0,0,0,0,0,0],"split_type":[0,0,0,0,0,0,0,0,0,0,0,0,0,0,0],"sum_hessian":[3.657E3,1.434E3,2.223E3,2.74E2,1.16E3,1.312E3,9.11E2,6.2E1,2.12E2,5.36E2,6.24E2,8.4E1,1.228E3,6.81E2,2.3E2],"tree_param":{"num_deleted":"0","num_feature":"2066","num_nodes":"15","size_leaf_vector":"0"}},{"base_weights":[-2.3979124E-1,-5.6608415E-1,7.5929545E-2,-9.5266926E-1,-4.123905E-1,-4.4164024E-2,2.509723E-1,-1.253587E0,-8.068362E-1,-5.5355334E-1,-3.3471346E-1,-4.9797854E-1,-7.2650346E-3,1.582662E-1,3.7437811E-1],"categories":[],"categories_nodes":[],"categories_segments":[],"categories_sizes":[],"default_left":[1,1,1,1,1,0,1,0,0,0,0,0,0,0,0],"id":7,"left_children":[1,3,5,7,9,11,13,-1,-1,-1,-1,-1,-1,-1,-1],"loss_changes":[3.7688083E2,1.0649585E2,3.9111095E1,2.1413208E1,1.394873E1,1.848319E1,8.601185E0,0E0,0E0,0E0,0E0,0E0,0E0,0E0,0E0],"parents":[2147483647,0,0,1,1,2,2,3,3,4,4,5,5,6,6],"right_children":[2,4,6,8,10,12,14,-1,-1,-1,-1,-1,-1,-1,-1],"split_conditions":[-2.4594888E-3,-9.131616E-3,4.5E0,-1.1037938E-2,-6.987004E-3,8.000001E0,1.8271763E-2,-1.253587E-1,-8.068362E-2,-5.5355337E-2,-3.3471346E-2,-4.9797855E-2,-7.265035E-4,1.582662E-2,3.743781E-2],"split_indices":[2062,2062,88,2062,2062,2,2062,0,0,0,0,0,0,0,0],"split_type":[0,0,0,0,0,0,0,0,0,0,0,0,0,0,0],"sum_hessian":[3.657E3,1.798E3,1.859E3,5.1E2,1.288E3,1.103E3,7.56E2,1.64E2,3.46E2,4.55E2,8.33E2,8.2E1,1.021E3,4.33E2,3.23E2],"tree_param":{"num_deleted":"0","num_feature":"2066","num_nodes":"15","size_leaf_vector":"0"}},{"base_weights":[-2.1589199E-1,-5.3377813E-1,4.7611814E-2,-9.131173E-1,-4.0923133E-1,-4.9757343E-2,2.5145662E-1,-1.2671314E0,-8.149367E-1,-3.676028E-1,-6.865413E-1,-4.6184757E-1,-1.9023396E-2,2.5996706E-1,-8.9327514E-1],"categories":[],"categories_nodes":[],"categories_segments":[],"categories_sizes":[],"default_left":[1,1,1,1,1,0,1,0,0,0,0,0,0,0,0],"id":8,"left_children":[1,3,5,7,9,11,13,-1,-1,-1,-1,-1,-1,-1,-1],"loss_changes":[3.0643488E2,7.795932E1,3.9728752E1,1.3183105E1,1.4177628E1,1.7152504E1,6.5354004E0,0E0,0E0,0E0,0E0,0E0,0E0,0E0,0E0],"parents":[2147483647,0,0,1,1,2,2,3,3,4,4,5,5,6,6],"right_children":[2,4,6,8,10,12,14,-1,-1,-1,-1,-1,-1,-1,-1],"split_conditions":[-3.41265E-3,-9.608197E-3,1.1123056E-2,-1.1752809E-2,1.1562668E-4,1.6E1,1.5E0,-1.2671314E-1,-8.149367E-2,-3.676028E-2,-6.8654135E-2,-4.618476E-2,-1.9023396E-3,2.5996706E-2,-8.9327514E-2],"split_indices":[2062,2062,2062,2062,2063,2,1651,0,0,0,0,0,0,0,0],"split_type":[0,0,0,0,0,0,0,0,0,0,0,0,0,0,0],"sum_hessian":[3.657E3,1.657E3,2E3,4.08E2,1.249E3,1.354E3,6.46E2,8.6E1,3.22E2,1.088E3,1.61E2,9.3E1,1.261E3,6.42E2,4E0],"tree_param":{"num_deleted":"0","num_feature":"2066","num_nodes":"15","size_leaf_vector":"0"}},{"base_weights":[-1.9441898E-1,-5.7966053E-1,-1.5743235E-2,-9.5283794E-1,-4.8321122E-1,-1.8269677E-1,1.2915277E-1,1.24877825E-1,-9.861809E-1,-4.6509382E-1,-1.277957E0,-5.5846876E-1,-1.5662546E-1,3.5502963E-2,2.589639E-1],"categories":[],"categories_nodes":[],"categories_segments":[],"categories_sizes":[],"default_left":[1,1,1,0,1,0,1,0,0,0,0,0,0,0,0],"id":9,"left_children":[1,3,5,7,9,11,13,-1,-1,-1,-1,-1,-1,-1,-1],"loss_changes":[2.5178317E2,4.1255127E1,6.0500854E1,8.639572E0,1.2695648E1,1.1296494E1,1.6268745E1,0E0,0E0,0E0,0E0,0E0,0E0,0E0,0E0],"parents":[2147483647,0,0,1,1,2,2,3,3,4,4,5,5,6,6],"right_children":[2,4,6,8,10,12,14,-1,-1,-1,-1,-1,-1,-1,-1],"split_conditions":[-6.033843E-3,-1.0561358E-2,1.5914454E-3,2.000001E0,2.120438E-4,1.6E1,5.5E0,1.2487783E-2,-9.861809E-2,-4.650938E-2,-1.277957E-1,-5.5846877E-2,-1.5662547E-2,3.5502964E-3,2.589639E-2],"split_indices":[2062,2062,2062,263,2063,2,88,0,0,0,0,0,0,0,0],"split_type":[0,0,0,0,0,0,0,0,0,0,0,0,0,0,0],"sum_hessian":[3.657E3,1.158E3,2.499E3,2.36E2,9.22E2,1.161E3,1.338E3,7E0,2.29E2,9.03E2,1.9E1,7.4E1,1.087E3,7.78E2,5.6E2],"tree_param":{"num_deleted":"0","num_feature":"2066","num_nodes":"15","size_leaf_vector":"0"}},{"base_weights":[-1.7505977E-1,-4.1630223E-1,5.8365084E-2,-7.0469433E-1,-3.016516E-1,-3.382901E-2,1.9274278E-1,-6.146935E-1,-1.0309845E0,-2.7186203E-1,-5.501604E-1,-2.0141354E-2,-1.0980722E0,2.5443715E-1,4.4807345E-2],"categories":[],"categories_nodes":[],"categories_segments":[],"categories_sizes":[],"default_left":[1,1,1,1,1,1,0,0,0,0,0,0,0,0,0],"id":10,"left_children":[1,3,5,7,9,11,13,-1,-1,-1,-1,-1,-1,-1,-1],"loss_changes":[2.0601355E2,5.927014E1,2.3049744E1,1.4372482E1,9.392853E0,1.6059847E1,6.8975773E0,0E0,0E0,0E0,0E0,0E0,0E0,0E0,0E0],"parents":[2147483647,0,0,1,1,2,2,3,3,4,4,5,5,6,6],"right_children":[2,4,6,8,10,12,14,-1,-1,-1,-1,-1,-1,-1,-1],"split_conditions":[-2.4594888E-3,-9.131616E-3,4.5E0,2.186793E-2,1.1463644E-4,2.5E0,5.6E1,-6.1469354E-2,-1.0309845E-1,-2.7186204E-2,-5.501604E-2,-2.0141355E-3,-1.09807216E-1,2.5443716E-2,4.4807345E-3],"split_indices":[2062,2062,88,2059,2063,302,23,0,0,0,0,0,0,0,0],"split_type":[0,0,0,0,0,0,0,0,0,0,0,0,0,0,0],"sum_hessian":[3.657E3,1.798E3,1.859E3,5.1E2,1.288E3,1.103E3,7.56E2,4.02E2,1.08E2,1.152E3,1.36E2,1.09E3,1.3E1,5.33E2,2.23E2],"tree_param":{"num_deleted":"0","num_feature":"2066","num_nodes":"15","size_leaf_vector":"0"}},{"base_weights":[-1.5764365E-1,-4.322893E-1,1.0675054E-2,-7.8247994E-1,-3.5999516E-1,-1.1254303E-1,1.244861E-1,-1.4800887E0,-7.2867715E-1,-3.2089263E-1,-6.298817E-1,-3.219E-2,-2.0942202E-1,7.8094244E-2,2.9501608E-1],"categories":[],"categories_nodes":[],"categories_segments":[],"categories_sizes":[],"default_left":[1,1,1,1,1,1,1,0,0,0,0,0,0,0,0],"id":11,"left_children":[1,3,5,7,9,11,13,-1,-1,-1,-1,-1,-1,-1,-1],"loss_changes":[1.6910663E2,3.49086E1,3.1833511E1,7.8168793E0,1.1976318E1,8.478386E0,9.31218E0,0E0,0E0,0E0,0E0,0E0,0E0,0E0,0E0],"parents":[2147483647,0,0,1,1,2,2,3,3,4,4,5,5,6,6],"right_children":[2,4,6,8,10,12,14,-1,-1,-1,-1,-1,-1,-1,-1],"split_conditions":[-4.8423917E-3,-1.0561358E-2,3.0211871E-3,-1.24676805E-2,1.39844E-4,1.5E0,8.5E0,-1.4800887E-1,-7.2867714E-2,-3.2089263E-2,-6.298817E-2,-3.2189998E-3,-2.0942202E-2,7.8094243E-3,2.9501608E-2],"split_indices":[2062,2062,2062,2062,2063,22,88,0,0,0,0,0,0,0,0],"split_type":[0,0,0,0,0,0,0,0,0,0,0,0,0,0,0],"sum_hessian":[3.657E3,1.389E3,2.268E3,2.36E2,1.153E3,1.089E3,1.179E3,1.5E1,2.21E2,1.009E3,1.44E2,5.96E2,4.93E2,9.28E2,2.51E2],"tree_param":{"num_deleted":"0","num_feature":"2066","num_nodes":"15","size_leaf_vector":"0"}},{"base_weights":[-1.4196205E-1,-3.29809E-1,6.0357835E-2,-5.7755125E-1,-2.3829776E-1,-8.102762E-3,1.7835115E-1,-5.0087357E-1,-8.55749E-1,-8.797911E-1,-2.2826876E-1,-3.7031958E-1,1.9097444E-2,1.8311495E-1,-1.4495344E0],"categories":[],"categories_nodes":[],"categories_segments":[],"categories_sizes":[],"default_left":[1,1,1,1,0,0,1,0,0,0,0,0,0,0,0],"id":12,"left_children":[1,3,5,7,9,11,13,-1,-1,-1,-1,-1,-1,-1,-1],"loss_changes":[1.3904283E2,4.2869644E1,1.4234692E1,1.04717865E1,8.722504E0,1.1002318E1,5.282873E0,0E0,0E0,0E0,0E0,0E0,0E0,0E0,0E0],"parents":[2147483647,0,0,1,1,2,2,3,3,4,4,5,5,6,6],"right_children":[2,4,6,8,10,12,14,-1,-1,-1,-1,-1,-1,-1,-1],"split_conditions":[-1.7446182E-3,-9.131616E-3,1.1123056E-2,2.186793E-2,4.000001E0,1.0000001E1,8E0,-5.008736E-2,-8.55749E-2,-8.797911E-2,-2.2826876E-2,-3.703196E-2,1.9097443E-3,1.8311495E-2,-1.4495344E-1],"split_indices":[2062,2062,2062,2059,624,2,302,0,0,0,0,0,0,0,0],"split_type":[0,0,0,0,0,0,0,0,0,0,0,0,0,0,0],"sum_hessian":[3.657E3,1.896E3,1.761E3,5.1E2,1.386E3,1.115E3,6.46E2,4.02E2,1.08E2,2E1,1.366E3,7.7E1,1.038E3,6.45E2,1E0],"tree_param":{"num_deleted":"0","num_feature":"2066","num_nodes":"15","size_leaf_vector":"0"}},{"base_weights":[-1.2787744E-1,-3.894624E-1,-6.555507E-3,-6.881577E-1,-3.3055356E-1,-9.641276E-2,1.1600647E-1,-6.230049E-2,-7.6555824E-1,-3.0026615E-1,-6.8287843E-1,-3.7416142E-1,-7.1623355E-2,1.7963754E-1,-2.1858891E-2],"categories":[],"categories_nodes":[],"categories_segments":[],"categories_sizes":[],"default_left":[1,1,1,0,1,0,0,0,0,0,0,0,0,0,0],"id":13,"left_children":[1,3,5,7,9,11,13,-1,-1,-1,-1,-1,-1,-1,-1],"loss_changes":[1.1608771E2,2.0166046E1,2.7543892E1,9.156235E0,1.01458435E1,9.908584E0,9.285252E0,0E0,0E0,0E0,0E0,0E0,0E0,0E0,0E0],"parents":[2147483647,0,0,1,1,2,2,3,3,4,4,5,5,6,6],"right_children":[2,4,6,8,10,12,14,-1,-1,-1,-1,-1,-1,-1,-1],"split_conditions":[-6.033843E-3,-1.0799648E-2,3.5E0,4.000001E0,1.7745317E-4,1.6E1,5.6E1,-6.230049E-3,-7.6555826E-2,-3.0026615E-2,-6.828784E-2,-3.741614E-2,-7.162336E-3,1.7963754E-2,-2.1858893E-3],"split_indices":[2062,2062,88,94,2063,2,23,0,0,0,0,0,0,0,0],"split_type":[0,0,0,0,0,0,0,0,0,0,0,0,0,0,0],"sum_hessian":[3.657E3,1.158E3,2.499E3,1.89E2,9.69E2,1.442E3,1.057E3,2.1E1,1.68E2,8.94E2,7.5E1,1.17E2,1.325E3,7.23E2,3.34E2],"tree_param":{"num_deleted":"0","num_feature":"2066","num_nodes":"15","size_leaf_vector":"0"}},{"base_weights":[-1.15147084E-1,-3.8414294E-1,-1.8613432E-2,-6.411314E-1,-3.3079225E-1,-1.4252631E-1,7.1885966E-2,7.5744656E-3,-7.156961E-1,-6.624616E-1,-2.9965714E-1,-1.3243213E-1,-1.1637642E0,8.063581E-2,-6.807059E-1],"categories":[],"categories_nodes":[],"categories_segments":[],"categories_sizes":[],"default_left":[1,1,1,0,0,1,1,0,0,0,0,0,0,0,0],"id":14,"left_children":[1,3,5,7,9,11,13,-1,-1,-1,-1,-1,-1,-1,-1],"loss_changes":[9.4980675E1,1.3032288E1,3.0209656E1,7.986557E0,8.083389E0,1.1566717E1,1.0307835E1,0E0,0E0,0E0,0E0,0E0,0E0,0E0,0E0],"parents":[2147483647,0,0,1,1,2,2,3,3,4,4,5,5,6,6],"right_children":[2,4,6,8,10,12,14,-1,-1,-1,-1,-1,-1,-1,-1],"split_conditions":[-6.987004E-3,-1.1037938E-2,-3.1487664E-4,4.000001E0,2.5E0,5.5E0,2.5E0,7.5744657E-4,-7.1569614E-2,-6.624616E-2,-2.9965714E-2,-1.3243213E-2,-1.1637642E-1,8.063581E-3,-6.807059E-2],"split_indices":[2062,2062,2062,94,2,22,302,0,0,0,0,0,0,0,0],"split_type":[0,0,0,0,0,0,0,0,0,0,0,0,0,0,0],"sum_hessian":[3.657E3,9.65E2,2.692E3,1.64E2,8.01E2,1.136E3,1.556E3,1.7E1,1.47E2,6.7E1,7.34E2,1.126E3,1E1,1.539E3,1.7E1],"tree_param":{"num_deleted":"0","num_feature":"2066","num_nodes":"15","size_leaf_vector":"0"}},{"base_weights":[-1.03729874E-1,-2.4402902E-1,4.7377516E-2,-4.0074724E-1,-1.6182652E-1,-2.2312177E-3,1.6883105E-1,-7.685755E-1,-3.594044E-1,-7.627353E-1,-1.5140164E-1,7.7873217E-3,-9.5767415E-1,-3.461779E-1,1.829702E-1],"categories":[],"categories_nodes":[],"categories_segments":[],"categories_sizes":[],"default_left":[1,1,1,0,0,1,0,0,0,0,0,0,0,0,0],"id":15,"left_children":[1,3,5,7,9,11,13,-1,-1,-1,-1,-1,-1,-1,-1],"loss_changes":[7.756204E1,2.4373505E1,1.0616701E1,9.638771E0,7.6899757E0,1.1991779E1,3.7843332E0,0E0,0E0,0E0,0E0,0E0,0E0,0E0,0E0],"parents":[2147483647,0,0,1,1,2,2,3,3,4,4,5,5,6,6],"right_children":[2,4,6,8,10,12,14,-1,-1,-1,-1,-1,-1,-1,-1],"split_conditions":[-1.7446182E-3,-8.416746E-3,2.5E0,4.000001E0,4.000001E0,2.5E0,4.000001E0,-7.685755E-2,-3.5940442E-2,-7.627353E-2,-1.5140164E-2,7.787322E-4,-9.5767416E-2,-3.4617793E-2,1.829702E-2],"split_indices":[2062,2062,42,2,624,302,151,0,0,0,0,0,0,0,0],"split_type":[0,0,0,0,0,0,0,0,0,0,0,0,0,0,0],"sum_hessian":[3.657E3,1.896E3,1.761E3,6.51E2,1.245E3,1.251E3,5.1E2,6.4E1,5.87E2,2E1,1.225E3,1.239E3,1.2E1,1.3E1,4.97E2],"tree_param":{"num_deleted":"0","num_feature":"2066","num_nodes":"15","size_leaf_vector":"0"}},{"base_weights":[-9.344314E-2,-2.8091606E-1,-2.0539154E-4,-5.176034E-1,-2.3681128E-1,-7.242672E-2,9.479047E-2,-1.7183907E-2,-5.79684E-1,3.9513677E-1,-2.4912722E-1,-2.3457622E-2,-2.0052694E-1,1.50491E-1,-2.6066637E-2],"categories":[],"categories_nodes":[],"categories_segments":[],"categories_sizes":[],"default_left":[1,1,1,0,0,1,0,0,0,0,0,0,0,0,0],"id":16,"left_children":[1,3,5,7,9,11,13,-1,-1,-1,-1,-1,-1,-1,-1],"loss_changes":[6.3940155E1,1.256086E1,1.6774483E1,5.892647E0,8.083828E0,8.7084255E0,7.112708E0,0E0,0E0,0E0,0E0,0E0,0E0,0E0,0E0],"parents":[2147483647,0,0,1,1,2,2,3,3,4,4,5,5,6,6],"right_children":[2,4,6,8,10,12,14,-1,-1,-1,-1,-1,-1,-1,-1],"split_conditions":[-5.7955524E-3,-1.0799648E-2,3.5E0,4.000001E0,4.000001E0,4.666803E-3,5.6E1,-1.7183907E-3,-5.7968404E-2,3.9513677E-2,-2.4912722E-2,-2.3457622E-3,-2.0052694E-2,1.50491E-2,-2.6066636E-3],"split_indices":[2062,2062,88,94,313,2059,23,0,0,0,0,0,0,0,0],"split_type":[0,0,0,0,0,0,0,0,0,0,0,0,0,0,0],"sum_hessian":[3.657E3,1.214E3,2.443E3,1.89E2,1.025E3,1.388E3,1.055E3,2.1E1,1.68E2,1.9E1,1.006E3,1.005E3,3.83E2,7.22E2,3.33E2],"tree_param":{"num_deleted":"0","num_feature":"2066","num_nodes":"15","size_leaf_vector":"0"}},{"base_weights":[-8.411387E-2,-1.8806851E-1,5.6282237E-2,-3.202721E-1,-1.2011942E-1,3.7318785E-2,3.0061147E-1,-6.646972E-1,-2.817426E-1,-1.1270164E-1,-1.0397942E0,4.5385182E-2,-7.352413E-1,3.2041988E-1,-9.4906205E-1],"categories":[],"categories_nodes":[],"categories_segments":[],"categories_sizes":[],"default_left":[1,1,1,0,1,1,1,0,0,0,0,0,0,0,0],"id":17,"left_children":[1,3,5,7,9,11,13,-1,-1,-1,-1,-1,-1,-1,-1],"loss_changes":[5.3398457E1,1.8844025E1,7.2028704E0,9.274612E0,9.36532E0,9.044519E0,3.0765533E0,0E0,0E0,0E0,0E0,0E0,0E0,0E0,0E0],"parents":[2147483647,0,0,1,1,2,2,3,3,4,4,5,5,6,6],"right_children":[2,4,6,8,10,12,14,-1,-1,-1,-1,-1,-1,-1,-1],"split_conditions":[-3.1487664E-4,-8.178456E-3,3.6381826E-2,4.000001E0,5.5E0,2.5E0,2.5E0,-6.646972E-2,-2.817426E-2,-1.12701645E-2,-1.0397942E-1,4.5385184E-3,-7.352413E-2,3.204199E-2,-9.49062E-2],"split_indices":[2062,2062,2062,2,22,302,28,0,0,0,0,0,0,0,0],"split_type":[0,0,0,0,0,0,0,0,0,0,0,0,0,0,0],"sum_hessian":[3.657E3,2.101E3,1.556E3,7.12E2,1.389E3,1.445E3,1.11E2,7E1,6.42E2,1.379E3,1E1,1.431E3,1.4E1,1.1E2,1E0],"tree_param":{"num_deleted":"0","num_feature":"2066","num_nodes":"15","size_leaf_vector":"0"}},{"base_weights":[-7.579591E-2,-2.5777134E-1,-1.0491772E-2,-9.869507E-1,-2.4523228E-1,-7.041416E-2,8.1316486E-2,-1.0500182E0,-2.046901E-2,3.7032878E-1,-2.588537E-1,-3.181278E-1,-4.962856E-2,1.2908398E-1,-2.2113917E-2],"categories":[],"categories_nodes":[],"categories_segments":[],"categories_sizes":[],"default_left":[1,1,1,1,0,0,0,0,0,0,0,0,0,0,0],"id":18,"left_children":[1,3,5,7,9,11,13,-1,-1,-1,-1,-1,-1,-1,-1],"loss_changes":[4.3468044E1,8.590324E0,1.4820917E1,9.5376396E-1,8.069828E0,8.376882E0,5.259663E0,0E0,0E0,0E0,0E0,0E0,0E0,0E0,0E0],"parents":[2147483647,0,0,1,1,2,2,3,3,4,4,5,5,6,6],"right_children":[2,4,6,8,10,12,14,-1,-1,-1,-1,-1,-1,-1,-1],"split_conditions":[-6.987004E-3,-1.24676805E-2,3.5E0,1.5E0,1.5E0,1.6E1,5.6E1,-1.0500182E-1,-2.046901E-3,3.703288E-2,-2.5885371E-2,-3.1812783E-2,-4.962856E-3,1.2908398E-2,-2.2113917E-3],"split_indices":[2062,2062,88,2,263,2,23,0,0,0,0,0,0,0,0],"split_type":[0,0,0,0,0,0,0,0,0,0,0,0,0,0,0],"sum_hessian":[3.657E3,9.65E2,2.692E3,1.5E1,9.5E2,1.629E3,1.063E3,1.4E1,1E0,2E1,9.3E2,1.25E2,1.504E3,7.27E2,3.36E2],"tree_param":{"num_deleted":"0","num_feature":"2066","num_nodes":"15","size_leaf_vector":"0"}},{"base_weights":[-6.8249665E-2,-1.5465449E-1,4.8443444E-2,-1.2735358E-1,-4.0531057E-1,-1.8192776E-2,1.0713426E-1,1.4797747E-1,-1.4685942E-1,-3.5151416E-1,-1.0668838E0,-5.0398414E-3,-8.047567E-1,8.703555E-2,3.304869E-1],"categories":[],"categories_nodes":[],"categories_segments":[],"categories_sizes":[],"default_left":[1,1,1,0,1,1,1,0,0,0,0,0,0,0,0],"id":19,"left_children":[1,3,5,7,9,11,13,-1,-1,-1,-1,-1,-1,-1,-1],"loss_changes":[3.689055E1,1.4332657E1,6.0912733E0,1.0209696E1,6.9565697E0,7.5482492E0,3.6882095E0,0E0,0E0,0E0,0E0,0E0,0E0,0E0,0E0],"parents":[2147483647,0,0,1,1,2,2,3,3,4,4,5,5,6,6],"right_children":[2,4,6,8,10,12,14,-1,-1,-1,-1,-1,-1,-1,-1],"split_conditions":[-3.1487664E-4,1.4308996E-4,1.5E0,3.5E0,-1.4060354E-2,2.5E0,-3.7329118E-3,1.4797747E-2,-1.4685943E-2,-3.515142E-2,-1.0668838E-1,-5.0398416E-4,-8.047567E-2,8.703555E-3,3.304869E-2],"split_indices":[2062,2063,42,162,2057,302,2065,0,0,0,0,0,0,0,0],"split_type":[0,0,0,0,0,0,0,0,0,0,0,0,0,0,0],"sum_hessian":[3.657E3,2.101E3,1.556E3,1.896E3,2.05E2,7.29E2,8.27E2,1.25E2,1.771E3,1.91E2,1.4E1,7.18E2,1.1E1,7.6E2,6.7E1],"tree_param":{"num_deleted":"0","num_feature":"2066","num_nodes":"15","size_leaf_vector":"0"}},{"base_weights":[-6.147417E-2,-1.6231358E-1,2.1834554E-2,-4.3387958E-1,-1.3790877E-1,-9.543587E-3,1.3339128E-1,-1.5372809E0,-3.8879713E-1,1.9426806E-1,-1.569858E-1,-2.7157238E-1,8.145843E-3,1.419612E-1,-6.405847E-1],"categories":[],"categories_nodes":[],"categories_segments":[],"categories_sizes":[],"default_left":[1,0,0,0,0,0,1,0,0,0,0,0,0,0,0],"id":20,"left_children":[1,3,5,7,9,11,13,-1,-1,-1,-1,-1,-1,-1,-1],"loss_changes":[3.0733677E1,1.0908699E1,7.0161595E0,6.1675014E0,9.662659E0,7.256206E0,3.0094223E0,0E0,0E0,0E0,0E0,0E0,0E0,0E0,0E0],"parents":[2147483647,0,0,1,1,2,2,3,3,4,4,5,5,6,6],"right_children":[2,4,6,8,10,12,14,-1,-1,-1,-1,-1,-1,-1,-1],"split_conditions":[1.5E0,9.5E0,6.5E0,4.000001E0,6.000001E0,1.6E1,4.5E0,-1.537281E-1,-3.8879715E-2,1.9426806E-2,-1.569858E-2,-2.7157238E-2,8.1458426E-4,1.419612E-2,-6.4058475E-2],"split_indices":[88,302,88,1390,162,2,120,0,0,0,0,0,0,0,0],"split_type":[0,0,0,0,0,0,0,0,0,0,0,0,0,0,0],"sum_hessian":[3.657E3,1.654E3,2.003E3,1.35E2,1.519E3,1.564E3,4.39E2,4E0,1.31E2,8.2E1,1.437E3,9.8E1,1.466E3,4.35E2,4E0],"tree_param":{"num_deleted":"0","num_feature":"2066","num_nodes":"15","size_leaf_vector":"0"}},{"base_weights":[-5.5399224E-2,-1.9939974E-1,-3.724546E-3,7.343473E-2,-2.2648738E-1,-3.2804262E-2,1.144598E-1,-6.381421E-1,1.4280732E-1,-1.8975021E-1,-4.7384074E-1,-2.489813E-1,-1.6332675E-2,-3.2106847E-1,1.2685065E-1],"categories":[],"categories_nodes":[],"categories_segments":[],"categories_sizes":[],"default_left":[1,0,1,0,1,0,0,0,0,0,0,0,0,0,0],"id":21,"left_children":[1,3,5,7,9,11,13,-1,-1,-1,-1,-1,-1,-1,-1],"loss_changes":[2.7219093E1,7.1558E0,9.258969E0,4.4351573E0,7.8976173E0,7.694338E0,2.9117017E0,0E0,0E0,0E0,0E0,0E0,0E0,0E0,0E0],"parents":[2147483647,0,0,1,1,2,2,3,3,4,4,5,5,6,6],"right_children":[2,4,6,8,10,12,14,-1,-1,-1,-1,-1,-1,-1,-1],"split_conditions":[-6.987004E-3,1.5E0,2.5E0,2.000001E0,2.165816E-2,1.6E1,4.000001E0,-6.3814215E-2,1.4280732E-2,-1.8975021E-2,-4.7384076E-2,-2.489813E-2,-1.6332675E-3,-3.2106847E-2,1.2685065E-2],"split_indices":[2062,20,42,90,2059,2,151,0,0,0,0,0,0,0,0],"split_type":[0,0,0,0,0,0,0,0,0,0,0,0,0,0,0],"sum_hessian":[3.657E3,9.65E2,2.692E3,8.7E1,8.78E2,2.161E3,5.31E2,7E0,8E1,7.66E2,1.12E2,1.52E2,2.009E3,1.4E1,5.17E2],"tree_param":{"num_deleted":"0","num_feature":"2066","num_nodes":"15","size_leaf_vector":"0"}},{"base_weights":[-4.9903546E-2,-1.4821787E-1,1.3554619E-2,-4.1653663E-1,-1.2452605E-1,1.3537814E-1,-1.5049654E-2,-1.4216433E0,-3.7727147E-1,-4.381281E-1,-1.047469E-1,1.8677124E-1,1.939674E-2,-6.364194E-1,-9.126734E-3],"categories":[],"categories_nodes":[],"categories_segments":[],"categories_sizes":[],"default_left":[1,0,0,0,0,0,0,0,0,0,0,0,0,0,0],"id":22,"left_children":[1,3,5,7,9,11,13,-1,-1,-1,-1,-1,-1,-1,-1],"loss_changes":[2.2823708E1,9.070368E0,7.7519503E0,4.0416718E0,8.141783E0,2.5177302E0,6.626135E0,0E0,0E0,0E0,0E0,0E0,0E0,0E0,0E0],"parents":[2147483647,0,0,1,1,2,2,3,3,4,4,5,5,6,6],"right_children":[2,4,6,8,10,12,14,-1,-1,-1,-1,-1,-1,-1,-1],"split_conditions":[-4.604101E-3,1.2000001E1,1.2000001E1,2.000001E0,2.5E0,1.05E1,6.000001E0,-1.4216433E-1,-3.7727147E-2,-4.381281E-2,-1.047469E-2,1.8677125E-2,1.9396739E-3,-6.364194E-2,-9.126734E-4],"split_indices":[2062,2,106,999,302,23,679,0,0,0,0,0,0,0,0],"split_type":[0,0,0,0,0,0,0,0,0,0,0,0,0,0,0],"sum_hessian":[3.657E3,1.434E3,2.223E3,1.15E2,1.319E3,4.22E2,1.801E3,3E0,1.12E2,7.7E1,1.242E3,2.92E2,1.3E2,1.6E1,1.785E3],"tree_param":{"num_deleted":"0","num_feature":"2066","num_nodes":"15","size_leaf_vector":"0"}},{"base_weights":[-4.4989225E-2,-2.1841577E-3,-1.7424871E-1,-2.2779107E-2,1.3112931E-1,-1.0916976E-1,-3.0298182E-1,-4.0373325E-1,-1.4771596E-2,-2.6422983E-1,1.5461038E-1,-7.786033E-2,-4.6348587E-1,2.1826828E-1,-3.3450794E-1],"categories":[],"categories_nodes":[],"categories_segments":[],"categories_sizes":[],"default_left":[0,1,1,0,0,1,0,0,0,0,0,0,0,0,0],"id":23,"left_children":[1,3,5,7,9,11,13,-1,-1,-1,-1,-1,-1,-1,-1],"loss_changes":[2.0239193E1,7.550597E0,7.5907383E0,7.260314E0,3.4571643E0,6.686533E0,5.0850754E0,0E0,0E0,0E0,0E0,0E0,0E0,0E0,0E0],"parents":[2147483647,0,0,1,1,2,2,3,3,4,4,5,5,6,6],"right_children":[2,4,6,8,10,12,14,-1,-1,-1,-1,-1,-1,-1,-1],"split_conditions":[9.8E1,4.5E0,9.701279E-3,2.5E0,6.000001E0,2.0260618E-4,1.5E0,-4.0373325E-2,-1.4771596E-3,-2.6422983E-2,1.5461038E-2,-7.786033E-3,-4.6348587E-2,2.1826828E-2,-3.3450793E-2],"split_indices":[88,46,2059,1463,1388,2064,154,0,0,0,0,0,0,0,0],"split_type":[0,0,0,0,0,0,0,0,0,0,0,0,0,0,0],"sum_hessian":[3.657E3,2.748E3,9.09E2,2.381E3,3.67E2,6.05E2,3.04E2,4.8E1,2.333E3,2E1,3.47E2,5.57E2,4.8E1,1.7E1,2.87E2],"tree_param":{"num_deleted":"0","num_feature":"2066","num_nodes":"15","size_leaf_vector":"0"}},{"base_weights":[-4.0522713E-2,-9.6592575E-2,4.40518E-2,-8.70535E-2,-5.4137766E-1,9.096113E-2,-8.793853E-3,2.2246141E-2,-1.2271568E-1,-7.771679E-2,-7.216769E-1,9.6514195E-2,-5.304907E-1,-9.009353E-1,3.8938303E-4],"categories":[],"categories_nodes":[],"categories_segments":[],"categories_sizes":[],"default_left":[1,1,0,0,0,1,0,0,0,0,0,0,0,0,0],"id":24,"left_children":[1,3,5,7,9,11,13,-1,-1,-1,-1,-1,-1,-1,-1],"loss_changes":[1.7350788E1,9.287113E0,3.6175935E0,8.402628E0,3.7894068E0,2.7187948E0,5.6287675E0,0E0,0E0,0E0,0E0,0E0,0E0,0E0,0E0],"parents":[2147483647,0,0,1,1,2,2,3,3,4,4,5,5,6,6],"right_children":[2,4,6,8,10,12,14,-1,-1,-1,-1,-1,-1,-1,-1],"split_conditions":[2.5E0,1.5E0,5.5E0,4.5E0,1.5E0,1.5E0,4.000001E0,2.2246141E-3,-1.2271568E-2,-7.771679E-3,-7.216769E-2,9.65142E-3,-5.304907E-2,-9.009353E-2,3.8938302E-5],"split_indices":[88,302,49,24,85,304,687,0,0,0,0,0,0,0,0],"split_type":[0,0,0,0,0,0,0,0,0,0,0,0,0,0,0],"sum_hessian":[3.657E3,2.199E3,1.458E3,2.154E3,4.5E1,7.72E2,6.86E2,5.3E2,1.624E3,1.3E1,3.2E1,7.66E2,6E0,6E0,6.8E2],"tree_param":{"num_deleted":"0","num_feature":"2066","num_nodes":"15","size_leaf_vector":"0"}},{"base_weights":[-3.6531527E-2,9.411127E-3,-1.2812376E-1,6.0667194E-2,-4.399922E-2,7.245997E-2,-1.6397762E-1,-7.2303987E-1,6.441342E-2,-3.507586E-1,-2.7459256E-2,-9.6641535E-1,1.00602366E-1,-1.0972905E-1,-3.0742636E-1],"categories":[],"categories_nodes":[],"categories_segments":[],"categories_sizes":[],"default_left":[0,0,0,0,0,0,0,0,0,0,0,0,0,0,0],"id":25,"left_children":[1,3,5,7,9,11,13,-1,-1,-1,-1,-1,-1,-1,-1],"loss_changes":[1.5394035E1,6.6742115E0,8.80014E0,3.6988888E0,6.0484734E0,5.5352025E0,8.036087E0,0E0,0E0,0E0,0E0,0E0,0E0,0E0,0E0],"parents":[2147483647,0,0,1,1,2,2,3,3,4,4,5,5,6,6],"right_children":[2,4,6,8,10,12,14,-1,-1,-1,-1,-1,-1,-1,-1],"split_conditions":[4.2E1,2.2E1,6.000001E0,2.000001E0,6.000001E0,1.5E0,2.4E1,-7.230399E-2,6.441342E-3,-3.5075862E-2,-2.7459257E-3,-9.664153E-2,1.0060237E-2,-1.0972905E-2,-3.0742636E-2],"split_indices":[60,0,168,679,5,755,1,0,0,0,0,0,0,0,0],"split_type":[0,0,0,0,0,0,0,0,0,0,0,0,0,0,0],"sum_hessian":[3.657E3,2.436E3,1.221E3,1.243E3,1.193E3,1.85E2,1.036E3,5E0,1.238E3,6E1,1.133E3,4E0,1.81E2,7.53E2,2.83E2],"tree_param":{"num_deleted":"0","num_feature":"2066","num_nodes":"15","size_leaf_vector":"0"}},{"base_weights":[-3.2941796E-2,1.4842077E-3,-1.3690239E-1,-1.6769582E-1,1.4609663E-2,-9.4538736E-1,-1.2868369E-1,-3.233589E-1,-3.7628185E-2,4.0266537E-3,2.1016262E-1,-1.6038156E-1,-1.0234654E0,-3.792555E-1,-1.0350029E-1],"categories":[],"categories_nodes":[],"categories_segments":[],"categories_sizes":[],"default_left":[0,0,1,1,1,0,0,0,0,0,0,0,0,0,0],"id":26,"left_children":[1,3,5,7,9,11,13,-1,-1,-1,-1,-1,-1,-1,-1],"loss_changes":[1.3091995E1,6.1067824E0,5.9250145E0,3.9966855E0,5.2806168E0,3.8747978E-1,5.6525946E0,0E0,0E0,0E0,0E0,0E0,0E0,0E0,0E0],"parents":[2147483647,0,0,1,1,2,2,3,3,4,4,5,5,6,6],"right_children":[2,4,6,8,10,12,14,-1,-1,-1,-1,-1,-1,-1,-1],"split_conditions":[9.8E1,1.6E1,-1.2705971E-2,1.5E0,6.5E0,2.000001E0,1.0000001E1,-3.233589E-2,-3.7628186E-3,4.0266538E-4,2.1016262E-2,-1.6038155E-2,-1.0234654E-1,-3.7925553E-2,-1.0350029E-2],"split_indices":[88,2,2062,46,46,32,302,0,0,0,0,0,0,0,0],"split_type":[0,0,0,0,0,0,0,0,0,0,0,0,0,0,0],"sum_hessian":[3.657E3,2.748E3,9.09E2,1.97E2,2.551E3,8E0,9.01E2,8.9E1,1.08E2,2.421E3,1.3E2,1E0,7E0,8.1E1,8.2E2],"tree_param":{"num_deleted":"0","num_feature":"2066","num_nodes":"15","size_leaf_vector":"0"}},{"base_weights":[-2.9697197E-2,-7.956289E-2,3.343294E-2,1.7188998E-1,-9.575268E-2,-5.5926925E-1,3.8218774E-2,-1.5743073E-2,2.71692E-1,-6.529685E-1,-8.835882E-2,-8.096924E-2,-8.4808564E-1,5.720143E-2,-1.02413215E-1],"categories":[],"categories_nodes":[],"categories_segments":[],"categories_sizes":[],"default_left":[1,0,0,0,0,0,1,0,0,0,0,0,0,0,0],"id":27,"left_children":[1,3,5,7,9,11,13,-1,-1,-1,-1,-1,-1,-1,-1],"loss_changes":[1.1518146E1,8.337521E0,4.6024446E0,2.3263206E0,7.856779E0,1.7271624E0,4.2851768E0,0E0,0E0,0E0,0E0,0E0,0E0,0E0,0E0],"parents":[2147483647,0,0,1,1,2,2,3,3,4,4,5,5,6,6],"right_children":[2,4,6,8,10,12,14,-1,-1,-1,-1,-1,-1,-1,-1],"split_conditions":[-7.9145713E-4,3.5E0,2.000001E0,1.5E0,4.000001E0,1.5E0,7.393811E-3,-1.5743073E-3,2.7169202E-2,-6.529685E-2,-8.835882E-3,-8.096924E-3,-8.4808566E-2,5.720143E-3,-1.0241321E-2],"split_indices":[2062,162,679,40,624,122,2059,0,0,0,0,0,0,0,0],"split_type":[0,0,0,0,0,0,0,0,0,0,0,0,0,0,0],"sum_hessian":[3.657E3,2.043E3,1.614E3,1.23E2,1.92E3,1.2E1,1.602E3,4.3E1,8E1,2.4E1,1.896E3,5E0,7E0,1.412E3,1.9E2],"tree_param":{"num_deleted":"0","num_feature":"2066","num_nodes":"15","size_leaf_vector":"0"}},{"base_weights":[-2.6767377E-2,1.1041968E-2,-1.0214758E-1,-5.475554E-1,1.4495504E-2,1.6537163E-1,-1.2279916E-1,-3.3375476E-2,-8.0130774E-1,5.64849E-2,-2.9419566E-2,-2.3222768E-1,2.3738521E-1,1.8204798E-1,-1.4361857E-1],"categories":[],"categories_nodes":[],"categories_segments":[],"categories_sizes":[],"default_left":[0,0,0,1,0,0,0,0,0,0,0,0,0,0,0],"id":28,"left_children":[1,3,5,7,9,11,13,-1,-1,-1,-1,-1,-1,-1,-1],"loss_changes":[1.0426706E1,4.709242E0,6.7714834E0,1.9303713E0,4.4695945E0,2.5747924E0,7.2296963E0,0E0,0E0,0E0,0E0,0E0,0E0,0E0,0E0],"parents":[2147483647,0,0,1,1,2,2,3,3,4,4,5,5,6,6],"right_children":[2,4,6,8,10,12,14,-1,-1,-1,-1,-1,-1,-1,-1],"split_conditions":[4.2E1,2.000001E0,2.5E0,-9.9960845E-3,2.2E1,1.5E0,1.0000001E1,-3.3375476E-3,-8.013078E-2,5.64849E-3,-2.9419565E-3,-2.3222769E-2,2.3738522E-2,1.8204799E-2,-1.4361857E-2],"split_indices":[60,679,50,2061,0,519,162,0,0,0,0,0,0,0,0],"split_type":[0,0,0,0,0,0,0,0,0,0,0,0,0,0,0],"sum_hessian":[3.657E3,2.436E3,1.221E3,1.4E1,2.422E3,8.7E1,1.134E3,5E0,9E0,1.238E3,1.184E3,1.3E1,7.4E1,7.2E1,1.062E3],"tree_param":{"num_deleted":"0","num_feature":"2066","num_nodes":"15","size_leaf_vector":"0"}},{"base_weights":[-2.4111524E-2,-1.6694717E-1,-6.128789E-3,6.250094E-1,-1.8836215E-1,1.8316735E-2,-9.4722055E-2,1.560623E-1,6.562979E-1,-8.4907115E-1,-1.6568106E-1,-5.889652E-1,2.142255E-2,-1.1315665E0,-8.7169915E-2],"categories":[],"categories_nodes":[],"categories_segments":[],"categories_sizes":[],"default_left":[1,0,1,0,0,0,0,0,0,0,0,0,0,0,0],"id":29,"left_children":[1,3,5,7,9,11,13,-1,-1,-1,-1,-1,-1,-1,-1],"loss_changes":[9.394827E0,7.0542583E0,7.040289E0,5.8975697E-2,5.8385773E0,4.8184147E0,5.4061265E0,0E0,0E0,0E0,0E0,0E0,0E0,0E0,0E0],"parents":[2147483647,0,0,1,1,2,2,3,3,4,4,5,5,6,6],"right_children":[2,4,6,8,10,12,14,-1,-1,-1,-1,-1,-1,-1,-1],"split_conditions":[-9.608197E-3,1.5E0,6.135192E-3,1.5E0,2.000001E0,2.000001E0,4.000001E0,1.5606231E-2,6.5629795E-2,-8.4907115E-2,-1.6568108E-2,-5.889652E-2,2.142255E-3,-1.13156654E-1,-8.716992E-3],"split_indices":[2062,263,2059,24,181,679,1370,0,0,0,0,0,0,0,0],"split_type":[0,0,0,0,0,0,0,0,0,0,0,0,0,0,0],"sum_hessian":[3.657E3,4.08E2,3.249E3,1E1,3.98E2,2.547E3,7.02E2,1E0,9E0,1.2E1,3.86E2,1.2E1,2.535E3,4E0,6.98E2],"tree_param":{"num_deleted":"0","num_feature":"2066","num_nodes":"15","size_leaf_vector":"0"}},{"base_weights":[-2.1754742E-2,-1.8820184E-1,-7.74208E-3,-3.0495602E-1,-2.3753151E-2,-4.410161E-2,4.730384E-2,-2.8229448E-1,-1.1521746E0,-2.2193596E-1,9.129681E-2,-4.8140624E-1,-3.597724E-2,-4.4839948E-1,5.210988E-2],"categories":[],"categories_nodes":[],"categories_segments":[],"categories_sizes":[],"default_left":[0,1,1,1,0,0,0,0,0,0,0,0,0,0,0],"id":30,"left_children":[1,3,5,7,9,11,13,-1,-1,-1,-1,-1,-1,-1,-1],"loss_changes":[8.530341E0,5.4455776E0,6.7569594E0,2.861827E0,2.733572E0,7.205574E0,3.222889E0,0E0,0E0,0E0,0E0,0E0,0E0,0E0,0E0],"parents":[2147483647,0,0,1,1,2,2,3,3,4,4,5,5,6,6],"right_children":[2,4,6,8,10,12,14,-1,-1,-1,-1,-1,-1,-1,-1],"split_conditions":[1.6E1,1.5E0,3.9999414E-4,8.5E0,3.5E0,2.000001E0,2.000001E0,-2.8229449E-2,-1.1521746E-1,-2.2193596E-2,9.129681E-3,-4.8140626E-2,-3.597724E-3,-4.483995E-2,5.2109878E-3],"split_indices":[2,46,2062,26,85,1463,283,0,0,0,0,0,0,0,0],"split_type":[0,0,0,0,0,0,0,0,0,0,0,0,0,0,0],"sum_hessian":[3.657E3,2.83E2,3.374E3,1.65E2,1.18E2,2.032E3,1.342E3,1.62E2,3E0,4.3E1,7.5E1,3.6E1,1.996E3,1.2E1,1.33E3],"tree_param":{"num_deleted":"0","num_feature":"2066","num_nodes":"15","size_leaf_vector":"0"}},{"base_weights":[-1.9647028E-2,3.0759098E-2,-5.9552543E-2,3.3822414E-2,-6.786353E-1,-5.0288107E-2,-4.3534288E-1,-7.345554E-3,9.005377E-2,-8.4878045E-1,1.711179E-1,3.4739676E-1,-5.7777412E-2,-3.1823513E-1,-1.4022441E0],"categories":[],"categories_nodes":[],"categories_segments":[],"categories_sizes":[],"default_left":[0,1,1,1,1,0,1,0,0,0,0,0,0,0,0],"id":31,"left_children":[1,3,5,7,9,11,13,-1,-1,-1,-1,-1,-1,-1,-1],"loss_changes":[7.3598337E0,3.5368545E0,7.087298E0,3.7300148E0,1.1573114E0,5.958965E0,5.102106E0,0E0,0E0,0E0,0E0,0E0,0E0,0E0,0E0],"parents":[2147483647,0,0,1,1,2,2,3,3,4,4,5,5,6,6],"right_children":[2,4,6,8,10,12,14,-1,-1,-1,-1,-1,-1,-1,-1],"split_conditions":[2.2E1,1.5E0,1.5E0,1.5E0,2.5E0,5.5E0,7.9532096E-5,-7.345554E-4,9.005377E-3,-8.487805E-2,1.7111791E-2,3.4739677E-2,-5.7777413E-3,-3.1823512E-2,-1.4022441E-1],"split_indices":[0,625,302,54,15,636,2064,0,0,0,0,0,0,0,0],"split_type":[0,0,0,0,0,0,0,0,0,0,0,0,0,0,0],"sum_hessian":[3.657E3,1.616E3,2.041E3,1.61E3,6E0,1.993E3,4.8E1,9.3E2,6.8E2,5E0,1E0,3.6E1,1.957E3,4.4E1,4E0],"tree_param":{"num_deleted":"0","num_feature":"2066","num_nodes":"15","size_leaf_vector":"0"}},{"base_weights":[-1.773771E-2,-1.6539033E-1,-4.927404E-3,-1.8729165E-1,3.6124825E-1,-1.3879943E-1,7.023956E-3,-1.0817304E0,-1.7374831E-1,1.0059515E0,1.3171247E-1,-7.601206E-2,-4.2812026E-1,1.2417054E-2,-2.8035268E-1],"categories":[],"categories_nodes":[],"categories_segments":[],"categories_sizes":[],"default_left":[1,1,1,0,0,1,1,0,0,0,0,0,0,0,0],"id":32,"left_children":[1,3,5,7,9,11,13,-1,-1,-1,-1,-1,-1,-1,-1],"loss_changes":[6.918201E0,3.4356112E0,5.388016E0,3.2159958E0,1.6432935E0,4.981189E0,4.7956176E0,0E0,0E0,0E0,0E0,0E0,0E0,0E0,0E0],"parents":[2147483647,0,0,1,1,2,2,3,3,4,4,5,5,6,6],"right_children":[2,4,6,8,10,12,14,-1,-1,-1,-1,-1,-1,-1,-1],"split_conditions":[-2.028098E-4,2.4905722E-4,-9.846487E-3,2.5E0,1.5E0,-5.95515E-3,1.5E0,-1.08173035E-1,-1.7374832E-2,1.00595154E-1,1.3171247E-2,-7.601206E-3,-4.2812027E-2,1.2417054E-3,-2.8035268E-2],"split_indices":[2060,2063,2062,203,26,2058,302,0,0,0,0,0,0,0,0],"split_type":[0,0,0,0,0,0,0,0,0,0,0,0,0,0,0],"sum_hessian":[3.657E3,2.91E2,3.366E3,2.8E2,1.1E1,2.75E2,3.091E3,3E0,2.77E2,2E0,9E0,2.27E2,4.8E1,3.035E3,5.6E1],"tree_param":{"num_deleted":"0","num_feature":"2066","num_nodes":"15","size_leaf_vector":"0"}},{"base_weights":[-1.5988255E-2,-1.588035E-1,-3.9658803E-3,-2.580023E-1,-1.9090854E-2,2.1490549E-1,-1.1961498E-2,-1.9429362E-1,-5.187107E-1,-1.8229847E-1,9.775873E-2,1.2517263E-1,4.4496164E-1,9.5426634E-2,-2.9166875E-2],"categories":[],"categories_nodes":[],"categories_segments":[],"categories_sizes":[],"default_left":[0,1,0,1,0,0,0,0,0,0,0,0,0,0,0],"id":33,"left_children":[1,3,5,7,9,11,13,-1,-1,-1,-1,-1,-1,-1,-1],"loss_changes":[6.2800765E0,3.9311242E0,5.9088607E0,2.656376E0,2.2872396E0,2.4008918E0,6.02059E0,0E0,0E0,0E0,0E0,0E0,0E0,0E0,0E0],"parents":[2147483647,0,0,1,1,2,2,3,3,4,4,5,5,6,6],"right_children":[2,4,6,8,10,12,14,-1,-1,-1,-1,-1,-1,-1,-1],"split_conditions":[1.6E1,1.5E0,3.5E0,4.372185E-3,1.2000001E1,2.4E1,1.2000001E1,-1.9429361E-2,-5.187107E-2,-1.8229848E-2,9.775873E-3,1.2517263E-2,4.4496164E-2,9.542664E-3,-2.9166876E-3],"split_indices":[2,46,313,2057,85,42,106,0,0,0,0,0,0,0,0],"split_type":[0,0,0,0,0,0,0,0,0,0,0,0,0,0,0],"sum_hessian":[3.657E3,2.83E2,3.374E3,1.65E2,1.18E2,1.18E2,3.256E3,1.34E2,3.1E1,4.9E1,6.9E1,8.6E1,3.2E1,4.49E2,2.807E3],"tree_param":{"num_deleted":"0","num_feature":"2066","num_nodes":"15","size_leaf_vector":"0"}},{"base_weights":[-1.4393833E-2,-2.7080998E-1,-8.144505E-3,-1.37219E0,-2.1513939E-1,1.9237947E-1,-1.53514715E-2,-7.9182756E-1,-1.4401658E-1,6.138166E-1,1.4592262E-1,7.5497426E-2,-3.1214643E-2],"categories":[],"categories_nodes":[],"categories_segments":[],"categories_sizes":[],"default_left":[1,0,0,0,1,1,0,0,0,0,0,0,0],"id":34,"left_children":[1,3,5,-1,7,9,11,-1,-1,-1,-1,-1,-1],"loss_changes":[5.859478E0,5.0391483E0,5.165099E0,0E0,3.3312807E0,2.338183E0,4.972889E0,0E0,0E0,0E0,0E0,0E0,0E0],"parents":[2147483647,0,0,1,1,2,2,4,4,5,5,6,6],"right_children":[2,4,6,-1,8,10,12,-1,-1,-1,-1,-1,-1],"split_conditions":[-1.1752809E-2,2.000001E0,3.5E0,-1.37219E-1,-1.2705971E-2,-6.7487136E-3,4.5E0,-7.918276E-2,-1.4401658E-2,6.1381664E-2,1.4592262E-2,7.5497427E-3,-3.1214643E-3],"split_indices":[2062,181,313,0,2062,2062,168,0,0,0,0,0,0],"split_type":[0,0,0,0,0,0,0,0,0,0,0,0,0],"sum_hessian":[3.657E3,8.6E1,3.571E3,3E0,8.3E1,1.23E2,3.448E3,8E0,7.5E1,1.1E1,1.12E2,5.12E2,2.936E3],"tree_param":{"num_deleted":"0","num_feature":"2066","num_nodes":"13","size_leaf_vector":"0"}},{"base_weights":[-1.299557E-2,1.4597897E-2,-6.801381E-2,-5.0205566E-2,3.640422E-2,-6.527218E-2,-1.7077663E0,-1.3824253E-1,4.1800458E-2,-1.7217709E-1,4.557147E-2,8.6085364E-2,-9.2383415E-2],"categories":[],"categories_nodes":[],"categories_segments":[],"categories_sizes":[],"default_left":[0,0,1,1,0,0,0,0,0,0,0,0,0],"id":35,"left_children":[1,3,5,7,9,11,-1,-1,-1,-1,-1,-1,-1],"loss_changes":[5.5543637E0,3.4456134E0,5.3821273E0,4.9791365E0,3.495549E0,5.018313E0,0E0,0E0,0E0,0E0,0E0,0E0,0E0],"parents":[2147483647,0,0,1,1,2,2,3,3,4,4,5,5],"right_children":[2,4,6,8,10,12,-1,-1,-1,-1,-1,-1,-1],"split_conditions":[4.2E1,4.5E0,2.5E0,2.5E0,1.5E0,6.000001E0,-1.7077664E-1,-1.3824253E-2,4.180046E-3,-1.7217709E-2,4.557147E-3,8.608537E-3,-9.238342E-3],"split_indices":[60,64,56,3,493,168,0,0,0,0,0,0,0],"split_type":[0,0,0,0,0,0,0,0,0,0,0,0,0],"sum_hessian":[3.657E3,2.436E3,1.221E3,6.13E2,1.823E3,1.22E3,1E0,3.13E2,3E2,7.6E1,1.747E3,1.85E2,1.035E3],"tree_param":{"num_deleted":"0","num_feature":"2066","num_nodes":"13","size_leaf_vector":"0"}},{"base_weights":[-1.1748965E-2,-3.5137676E-2,4.9438458E-2,-2.8022548E-2,-3.699448E-1,-4.0323088E-1,5.5732682E-2,-4.288318E-1,-2.2688353E-2,-2.6072752E-1,-1.0816166E0,-9.983714E-3,-6.2059224E-1,-1.3283938E-1,6.921457E-2],"categories":[],"categories_nodes":[],"categories_segments":[],"categories_sizes":[],"default_left":[1,1,0,0,1,0,0,0,0,0,0,0,0,0,0],"id":36,"left_children":[1,3,5,7,9,11,13,-1,-1,-1,-1,-1,-1,-1,-1],"loss_changes":[5.236683E0,6.295306E0,2.9058673E0,5.534089E0,3.992971E0,1.1904783E0,2.5489583E0,0E0,0E0,0E0,0E0,0E0,0E0,0E0,0E0],"parents":[2147483647,0,0,1,1,2,2,3,3,4,4,5,5,6,6],"right_children":[2,4,6,8,10,12,14,-1,-1,-1,-1,-1,-1,-1,-1],"split_conditions":[1.5E0,1.5E0,2.000001E0,4.000001E0,7.9532096E-5,2.5E0,2.5E0,-4.288318E-2,-2.2688354E-3,-2.6072754E-2,-1.08161665E-1,-9.983714E-4,-6.2059224E-2,-1.3283938E-2,6.9214567E-3],"split_indices":[42,302,283,624,2064,196,263,0,0,0,0,0,0,0,0],"split_type":[0,0,0,0,0,0,0,0,0,0,0,0,0,0,0],"sum_hessian":[3.657E3,2.646E3,1.011E3,2.592E3,5.4E1,1.3E1,9.98E2,3.3E1,2.559E3,4.8E1,6E0,5E0,8E0,6.6E1,9.32E2],"tree_param":{"num_deleted":"0","num_feature":"2066","num_nodes":"15","size_leaf_vector":"0"}},{"base_weights":[-1.0642088E-2,1.0142261E-2,-7.34174E-2,-2.4719226E-1,1.5780535E-2,3.8095373E-1,-8.353413E-2,-3.9792833E-1,9.109046E-2,-5.473096E-1,1.8084977E-2,6.009307E-1,1.463425E-1,-2.592113E-2,-1.6726345E-1],"categories":[],"categories_nodes":[],"categories_segments":[],"categories_sizes":[],"default_left":[0,0,0,1,0,0,0,0,0,0,0,0,0,0,0],"id":37,"left_children":[1,3,5,7,9,11,13,-1,-1,-1,-1,-1,-1,-1,-1],"loss_changes":[4.7734985E0,3.9924867E0,4.2148647E0,3.044741E0,3.5017633E0,9.442396E-1,4.293756E0,0E0,0E0,0E0,0E0,0E0,0E0,0E0,0E0],"parents":[2147483647,0,0,1,1,2,2,3,3,4,4,5,5,6,6],"right_children":[2,4,6,8,10,12,14,-1,-1,-1,-1,-1,-1,-1,-1],"split_conditions":[9.8E1,2.5E0,4.000001E0,1.3826464E-2,1.5E0,2.5E0,6.5E0,-3.9792832E-2,9.109046E-3,-5.473096E-2,1.8084977E-3,6.009307E-2,1.4634251E-2,-2.592113E-3,-1.6726345E-2],"split_indices":[88,1463,1708,2057,944,22,3,0,0,0,0,0,0,0,0],"split_type":[0,0,0,0,0,0,0,0,0,0,0,0,0,0,0],"sum_hessian":[3.657E3,2.748E3,9.09E2,5.8E1,2.69E3,1.9E1,8.9E2,4E1,1.8E1,1E1,2.68E3,9E0,1E1,5.28E2,3.62E2],"tree_param":{"num_deleted":"0","num_feature":"2066","num_nodes":"15","size_leaf_vector":"0"}},{"base_weights":[-9.5855985E-3,1.1548886E-1,-1.9706963E-2,6.543442E-2,3.2792443E-1,-1.5686724E-1,-8.14985E-3,-3.3984363E-1,8.8066034E-2,-5.0313123E-2,3.8787946E-1,2.5983697E-1,-1.8311885E-1,8.282756E-2,-2.6356181E-2],"categories":[],"categories_nodes":[],"categories_segments":[],"categories_sizes":[],"default_left":[0,1,0,0,0,0,0,0,0,0,0,0,0,0,0],"id":38,"left_children":[1,3,5,7,9,11,13,-1,-1,-1,-1,-1,-1,-1,-1],"loss_changes":[4.6330256E0,2.8920782E0,5.364545E0,2.075306E0,1.1987324E0,2.9245796E0,5.1750107E0,0E0,0E0,0E0,0E0,0E0,0E0,0E0,0E0],"parents":[2147483647,0,0,1,1,2,2,3,3,4,4,5,5,6,6],"right_children":[2,4,6,8,10,12,14,-1,-1,-1,-1,-1,-1,-1,-1],"split_conditions":[3.5E0,2.016005E-3,1.6E1,2.000001E0,1.5E0,1.5E0,2.5E0,-3.3984363E-2,8.806604E-3,-5.0313124E-3,3.8787946E-2,2.5983697E-2,-1.8311886E-2,8.282756E-3,-2.6356182E-3],"split_indices":[50,2065,2,1030,240,195,63,0,0,0,0,0,0,0,0],"split_type":[0,0,0,0,0,0,0,0,0,0,0,0,0,0,0],"sum_hessian":[3.657E3,2.73E2,3.384E3,2.22E2,5.1E1,2.62E2,3.122E3,1.1E1,2.11E2,7E0,4.4E1,1.5E1,2.47E2,5.2E2,2.602E3],"tree_param":{"num_deleted":"0","num_feature":"2066","num_nodes":"15","size_leaf_vector":"0"}},{"base_weights":[-8.62106E-3,-3.6864522E-1,-5.442291E-3,-5.7439923E-1,-2.3743235E-2,-1.628276E-1,1.9629751E-3,7.61783E-2,-6.5091777E-1,-6.289778E-1,1.4347921E-1,-6.5014464E-1,-9.401393E-2,-1.00319296E-1,1.3123388E-2],"categories":[],"categories_nodes":[],"categories_segments":[],"categories_sizes":[],"default_left":[0,0,1,0,0,0,0,0,0,0,0,0,0,0,0],"id":39,"left_children":[1,3,5,7,9,11,13,-1,-1,-1,-1,-1,-1,-1,-1],"loss_changes":[4.1843314E0,2.2572412E0,4.2275157E0,1.0452104E0,1.4059597E0,5.4049315E0,3.9566567E0,0E0,0E0,0E0,0E0,0E0,0E0,0E0,0E0],"parents":[2147483647,0,0,1,1,2,2,3,3,4,4,5,5,6,6],"right_children":[2,4,6,8,10,12,14,-1,-1,-1,-1,-1,-1,-1,-1],"split_conditions":[6.000001E0,5.5E0,-1.1037938E-2,4.000001E0,2.000001E0,4.000001E0,2.5E0,7.61783E-3,-6.509178E-2,-6.289778E-2,1.4347921E-2,-6.501447E-2,-9.401393E-3,-1.003193E-2,1.3123389E-3],"split_indices":[679,23,2062,267,224,45,470,0,0,0,0,0,0,0,0],"split_type":[0,0,0,0,0,0,0,0,0,0,0,0,0,0,0],"sum_hessian":[3.657E3,3.1E1,3.626E3,1.9E1,1.2E1,1.62E2,3.464E3,2E0,1.7E1,2E0,1E1,1.9E1,1.43E2,3.4E2,3.124E3],"tree_param":{"num_deleted":"0","num_feature":"2066","num_nodes":"15","size_leaf_vector":"0"}},{"base_weights":[-7.8106634E-3,-6.8042153E-1,-6.150031E-3,-6.280625E-2,-7.4977267E-1,1.8895803E-1,-1.169926E-2,-8.883798E-2,-8.315007E-1,-1.75957E-1,2.1800444E-1,-6.835433E-3,-2.5697675E-1],"categories":[],"categories_nodes":[],"categories_segments":[],"categories_sizes":[],"default_left":[1,0,0,0,0,1,1,0,0,0,0,0,0],"id":40,"left_children":[1,3,5,-1,7,9,11,-1,-1,-1,-1,-1,-1],"loss_changes":[4.0816526E0,3.3840036E-1,3.954064E0,0E0,3.5826683E-1,1.108906E0,4.2333493E0,0E0,0E0,0E0,0E0,0E0,0E0],"parents":[2147483647,0,0,1,1,2,2,4,4,5,5,6,6],"right_children":[2,4,6,-1,8,10,12,-1,-1,-1,-1,-1,-1],"split_conditions":[-1.2705971E-2,2.000001E0,6.000001E0,-6.280625E-3,2.000001E0,-1.6181503E-4,1.5E0,-8.8837985E-3,-8.3150074E-2,-1.7595699E-2,2.1800444E-2,-6.8354333E-4,-2.5697676E-2],"split_indices":[2062,32,71,0,271,2060,302,0,0,0,0,0,0],"split_type":[0,0,0,0,0,0,0,0,0,0,0,0,0],"sum_hessian":[3.657E3,8E0,3.649E3,1E0,7E0,1E2,3.549E3,1E0,6E0,7E0,9.3E1,3.481E3,6.8E1],"tree_param":{"num_deleted":"0","num_feature":"2066","num_nodes":"13","size_leaf_vector":"0"}},{"base_weights":[-7.0625334E-3,2.9728616E-2,-3.619291E-2,3.9903197E-2,-1.5412271E-1,-3.4622062E-2,-1.6211444E0,6.300263E-2,-4.682533E-2,-1.0919187E0,-1.18369564E-1,-3.712989E-1,-2.7877958E-2],"categories":[],"categories_nodes":[],"categories_segments":[],"categories_sizes":[],"default_left":[0,1,1,1,0,0,0,0,0,0,0,0,0],"id":41,"left_children":[1,3,5,7,9,11,-1,-1,-1,-1,-1,-1,-1],"loss_changes":[3.9215007E0,3.0309267E0,5.0278683E0,3.0741313E0,2.7207277E0,4.623911E0,0E0,0E0,0E0,0E0,0E0,0E0,0E0],"parents":[2147483647,0,0,1,1,2,2,3,3,4,4,5,5],"right_children":[2,4,6,8,10,12,-1,-1,-1,-1,-1,-1,-1],"split_conditions":[2.2E1,1.5E0,2.5E0,4.561918E-3,2.000001E0,4.000001E0,-1.6211444E-1,6.300263E-3,-4.682533E-3,-1.0919187E-1,-1.1836956E-2,-3.712989E-2,-2.7877958E-3],"split_indices":[0,93,56,2059,43,886,0,0,0,0,0,0,0],"split_type":[0,0,0,0,0,0,0,0,0,0,0,0,0],"sum_hessian":[3.657E3,1.616E3,2.041E3,1.532E3,8.4E1,2.04E3,1E0,1.21E3,3.22E2,2E0,8.2E1,3.9E1,2.001E3],"tree_param":{"num_deleted":"0","num_feature":"2066","num_nodes":"13","size_leaf_vector":"0"}},{"base_weights":[-6.4441515E-3,7.149695E-2,-1.9760665E-2,-5.8245015E-1,7.877896E-2,1.1146376E-3,-9.669111E-2,-8.6924237E-1,-5.9105554E-3,-4.5311984E-1,8.781602E-2,7.643042E-2,-1.9568512E-2,-5.6231743E-1,-8.217071E-2],"categories":[],"categories_nodes":[],"categories_segments":[],"categories_sizes":[],"default_left":[0,0,1,0,0,0,0,0,0,0,0,0,0,0,0],"id":42,"left_children":[1,3,5,7,9,11,13,-1,-1,-1,-1,-1,-1,-1,-1],"loss_changes":[3.7980642E0,2.588821E0,5.01869E0,9.869447E-1,2.58259E0,3.832046E0,4.463434E0,0E0,0E0,0E0,0E0,0E0,0E0,0E0,0E0],"parents":[2147483647,0,0,1,1,2,2,3,3,4,4,5,5,6,6],"right_children":[2,4,6,8,10,12,14,-1,-1,-1,-1,-1,-1,-1,-1],"split_conditions":[4.5E0,2.000001E0,6.9742715E-3,4.5E0,1.5E0,5.5E0,1.5E0,-8.692424E-2,-5.9105555E-4,-4.5311984E-2,8.781603E-3,7.6430417E-3,-1.9568512E-3,-5.6231745E-2,-8.217071E-3],"split_indices":[168,1804,2059,3,755,197,461,0,0,0,0,0,0,0,0],"split_type":[0,0,0,0,0,0,0,0,0,0,0,0,0,0,0],"sum_hessian":[3.657E3,5.33E2,3.124E3,5E0,5.28E2,2.458E3,6.66E2,3E0,2E0,8E0,5.2E2,5.29E2,1.929E3,1.9E1,6.47E2],"tree_param":{"num_deleted":"0","num_feature":"2066","num_nodes":"15","size_leaf_vector":"0"}},{"base_weights":[-5.849703E-3,1.8347393E-1,-1.1167633E-2,-4.72744E-1,2.0864297E-1,-2.4656403E-1,-6.4430153E-3,-5.7281953E-1,-8.625865E-2,2.3952855E-1,-2.2267558E-1,-2.039645E-1,-1.1299654E0,3.256161E-2,-3.477702E-2],"categories":[],"categories_nodes":[],"categories_segments":[],"categories_sizes":[],"default_left":[0,0,0,1,1,1,0,0,0,0,0,0,0,0,0],"id":43,"left_children":[1,3,5,7,9,11,13,-1,-1,-1,-1,-1,-1,-1,-1],"loss_changes":[3.6849597E0,1.750273E0,3.9565816E0,1.0530031E-1,1.3455238E0,2.403802E0,3.858131E0,0E0,0E0,0E0,0E0,0E0,0E0,0E0,0E0],"parents":[2147483647,0,0,1,1,2,2,3,3,4,4,5,5,6,6],"right_children":[2,4,6,8,10,12,14,-1,-1,-1,-1,-1,-1,-1,-1],"split_conditions":[1.5E0,2.000001E0,2.5E0,1.5E0,2.7899034E-2,-9.536743E-7,2.8E1,-5.7281952E-2,-8.625865E-3,2.3952855E-2,-2.2267558E-2,-2.039645E-2,-1.1299654E-1,3.2561612E-3,-3.477702E-3],"split_indices":[994,1602,1463,0,2058,1597,66,0,0,0,0,0,0,0,0],"split_type":[0,0,0,0,0,0,0,0,0,0,0,0,0,0,0],"sum_hessian":[3.657E3,9.9E1,3.558E3,3E0,9.6E1,6.9E1,3.489E3,2E0,1E0,9E1,6E0,6.7E1,2E0,1.468E3,2.021E3],"tree_param":{"num_deleted":"0","num_feature":"2066","num_nodes":"15","size_leaf_vector":"0"}},{"base_weights":[-5.318819E-3,6.8007216E-2,-1.8539444E-2,-6.44222E-1,7.5598136E-2,8.126469E-2,-3.1805854E-2,-6.483674E-2,-9.177054E-1,8.321186E-2,-5.312477E-1,7.144325E-2,7.7215517E-1,-1.1349E-2,-1.1185E-1],"categories":[],"categories_nodes":[],"categories_segments":[],"categories_sizes":[],"default_left":[0,0,0,0,1,1,1,0,0,0,0,0,0,0,0],"id":44,"left_children":[1,3,5,7,9,11,13,-1,-1,-1,-1,-1,-1,-1,-1],"loss_changes":[3.5473847E0,3.0709205E0,4.1071167E0,8.912127E-1,2.6038845E0,2.4147696E0,4.4804354E0,0E0,0E0,0E0,0E0,0E0,0E0,0E0,0E0],"parents":[2147483647,0,0,1,1,2,2,3,3,4,4,5,5,6,6],"right_children":[2,4,6,8,10,12,14,-1,-1,-1,-1,-1,-1,-1,-1],"split_conditions":[1.5E0,1.5E0,1.5E0,1.5E0,-9.536743E-7,3.8597077E-2,7.393811E-3,-6.483674E-3,-9.1770545E-2,8.3211865E-3,-5.3124767E-2,7.1443254E-3,7.7215515E-2,-1.1349E-3,-1.1185001E-2],"split_indices":[158,694,20,25,1904,2059,2059,0,0,0,0,0,0,0,0],"split_type":[0,0,0,0,0,0,0,0,0,0,0,0,0,0,0],"sum_hessian":[3.657E3,5.58E2,3.099E3,5E0,5.53E2,3.63E2,2.736E3,2E0,3E0,5.47E2,6E0,3.59E2,4E0,2.18E3,5.56E2],"tree_param":{"num_deleted":"0","num_feature":"2066","num_nodes":"15","size_leaf_vector":"0"}},{"base_weights":[-4.8063593E-3,1.6293895E-1,-1.0443898E-2,-3.334143E-1,1.9224457E-1,1.368246E-1,-1.7318854E-2,5.5401247E-2,-5.0002074E-1,9.1154225E-2,3.0907837E-1,-1.0422138E0,1.5862133E-1,1.8976636E-1,-2.2520537E-2],"categories":[],"categories_nodes":[],"categories_segments":[],"categories_sizes":[],"default_left":[0,0,0,0,1,0,0,0,0,0,0,0,0,0,0],"id":45,"left_children":[1,3,5,7,9,11,13,-1,-1,-1,-1,-1,-1,-1,-1],"loss_changes":[3.4609652E0,1.7950633E0,3.5864935E0,4.8115593E-1,1.3064432E0,4.2257886E0,3.6484127E0,0E0,0E0,0E0,0E0,0E0,0E0,0E0,0E0],"parents":[2147483647,0,0,1,1,2,2,3,3,4,4,5,5,6,6],"right_children":[2,4,6,8,10,12,14,-1,-1,-1,-1,-1,-1,-1,-1],"split_conditions":[2.5E0,2.000001E0,1.0000001E1,2.000001E0,4.108225E-6,2.000001E0,8.000001E0,5.5401246E-3,-5.0002076E-2,9.115423E-3,3.0907838E-2,-1.0422138E-1,1.5862133E-2,1.8976636E-2,-2.2520537E-3],"split_indices":[525,496,99,20,2063,1645,504,0,0,0,0,0,0,0,0],"split_type":[0,0,0,0,0,0,0,0,0,0,0,0,0,0,0],"sum_hessian":[3.657E3,1.18E2,3.539E3,6E0,1.12E2,1.57E2,3.382E3,2E0,4E0,6.1E1,5.1E1,2E0,1.55E2,8.2E1,3.3E3],"tree_param":{"num_deleted":"0","num_feature":"2066","num_nodes":"15","size_leaf_vector":"0"}},{"base_weights":[-4.346516E-3,1.4416532E-1,-1.0517419E-2,3.7921E-1,8.764923E-2,1.5333715E-1,-1.6257677E-2,-1.7660154E-1,4.287571E-1,1.8221613E-2,3.024859E-1,7.529866E-2,3.6315122E-1,4.5568366E-2,-3.1475667E-2],"categories":[],"categories_nodes":[],"categories_segments":[],"categories_sizes":[],"default_left":[0,1,0,0,1,0,0,0,0,0,0,0,0,0,0],"id":46,"left_children":[1,3,5,7,9,11,13,-1,-1,-1,-1,-1,-1,-1,-1],"loss_changes":[3.3538983E0,1.9061983E0,3.3067062E0,8.468075E-1,1.7694447E0,1.9211106E0,3.195681E0,0E0,0E0,0E0,0E0,0E0,0E0,0E0,0E0],"parents":[2147483647,0,0,1,1,2,2,3,3,4,4,5,5,6,6],"right_children":[2,4,6,8,10,12,14,-1,-1,-1,-1,-1,-1,-1,-1],"split_conditions":[6.000001E0,2.5E0,3.5E0,2.000001E0,2.9471407E-2,2.4E1,1.2000001E1,-1.7660154E-2,4.287571E-2,1.8221614E-3,3.0248592E-2,7.529866E-3,3.6315124E-2,4.5568366E-3,-3.1475667E-3],"split_indices":[114,1,313,143,2062,42,14,0,0,0,0,0,0,0,0],"split_type":[0,0,0,0,0,0,0,0,0,0,0,0,0,0,0],"sum_hessian":[3.657E3,1.45E2,3.512E3,2.7E1,1.18E2,1.18E2,3.394E3,2E0,2.5E1,9E1,2.8E1,8.7E1,3.1E1,6.7E2,2.724E3],"tree_param":{"num_deleted":"0","num_feature":"2066","num_nodes":"15","size_leaf_vector":"0"}},{"base_weights":[-3.8838335E-3,1.00830145E-1,-1.2358796E-2,5.4828633E-2,2.961668E-1,1.8321198E-1,-1.7695267E-2,-3.0299425E-1,7.482413E-2,-2.1001679E-1,3.314437E-1,-1.9987203E-1,2.0335394E-1,-9.821378E-2,-3.801536E-3],"categories":[],"categories_nodes":[],"categories_segments":[],"categories_sizes":[],"default_left":[0,1,0,0,1,0,0,0,0,0,0,0,0,0,0],"id":47,"left_children":[1,3,5,7,9,11,13,-1,-1,-1,-1,-1,-1,-1,-1],"loss_changes":[3.2475271E0,2.4458656E0,3.5360243E0,1.6182024E0,9.981513E-1,7.3509026E-1,3.6868703E0,0E0,0E0,0E0,0E0,0E0,0E0,0E0,0E0],"parents":[2147483647,0,0,1,1,2,2,3,3,4,4,5,5,6,6],"right_children":[2,4,6,8,10,12,14,-1,-1,-1,-1,-1,-1,-1,-1],"split_conditions":[3.5E0,2.016005E-3,6.000001E0,2.000001E0,-1.8442866E-4,2.000001E0,2.6E1,-3.0299425E-2,7.482413E-3,-2.100168E-2,3.314437E-2,-1.9987203E-2,2.0335395E-2,-9.821378E-3,-3.8015362E-4],"split_indices":[50,2065,71,1030,2060,296,122,0,0,0,0,0,0,0,0],"split_type":[0,0,0,0,0,0,0,0,0,0,0,0,0,0,0],"sum_hessian":[3.657E3,2.73E2,3.384E3,2.22E2,5.1E1,8.9E1,3.295E3,1.1E1,2.11E2,3E0,4.8E1,4E0,8.5E1,4.84E2,2.811E3],"tree_param":{"num_deleted":"0","num_feature":"2066","num_nodes":"15","size_leaf_vector":"0"}},{"base_weights":[-3.5010604E-3,-5.989744E-1,-2.0318108E-3,-5.209732E-2,-6.6082186E-1,-3.1311893E-1,7.1945187E-4,-6.867242E-2,-7.356043E-1,-4.960182E-1,-7.6493802E-3,4.847394E-3,-1.970968E-1],"categories":[],"categories_nodes":[],"categories_segments":[],"categories_sizes":[],"default_left":[1,0,0,0,0,0,1,0,0,0,0,0,0],"id":48,"left_children":[1,3,5,-1,7,9,11,-1,-1,-1,-1,-1,-1],"loss_changes":[3.1991632E0,2.6997972E-1,3.1241963E0,0E0,3.0374336E-1,1.784051E0,2.9561367E0,0E0,0E0,0E0,0E0,0E0,0E0],"parents":[2147483647,0,0,1,1,2,2,4,4,5,5,6,6],"right_children":[2,4,6,-1,8,10,12,-1,-1,-1,-1,-1,-1],"split_conditions":[-1.2705971E-2,2.000001E0,6.000001E0,-5.2097323E-3,2.000001E0,5.5E0,1.5E0,-6.867242E-3,-7.356043E-2,-4.960182E-2,-7.64938E-4,4.847394E-4,-1.970968E-2],"split_indices":[2062,32,679,0,271,23,302,0,0,0,0,0,0],"split_type":[0,0,0,0,0,0,0,0,0,0,0,0,0],"sum_hessian":[3.657E3,8E0,3.649E3,1E0,7E0,3.1E1,3.618E3,1E0,6E0,1.9E1,1.2E1,3.545E3,7.3E1],"tree_param":{"num_deleted":"0","num_feature":"2066","num_nodes":"13","size_leaf_vector":"0"}},{"base_weights":[-3.1933892E-3,-2.305487E-1,4.05291E-4,-6.9833326E-1,-7.646841E-2,1.1462904E-1,-6.628642E-3,-4.9992436E-1,-1.2591912E0,-1.689998E-1,3.0215368E-1,-7.0574796E-1,1.3000223E-1,1.5934664E-1,-1.2080027E-2],"categories":[],"categories_nodes":[],"categories_segments":[],"categories_sizes":[],"default_left":[0,1,0,1,1,0,0,0,0,0,0,0,0,0,0],"id":49,"left_children":[1,3,5,7,9,11,13,-1,-1,-1,-1,-1,-1,-1,-1],"loss_changes":[2.9929926E0,4.0549536E0,2.8947585E0,9.284091E-1,1.5925789E0,2.7276187E0,3.0727992E0,0E0,0E0,0E0,0E0,0E0,0E0,0E0,0E0],"parents":[2147483647,0,0,1,1,2,2,3,3,4,4,5,5,6,6],"right_children":[2,4,6,8,10,12,14,-1,-1,-1,-1,-1,-1,-1,-1],"split_conditions":[4.000001E0,-5.5572623E-3,3.5E0,1.5E0,1.5E0,2.000001E0,2.5E0,-4.999244E-2,-1.2591912E-1,-1.689998E-2,3.0215368E-2,-7.05748E-2,1.3000223E-2,1.5934665E-2,-1.2080027E-3],"split_indices":[624,2062,318,44,136,872,525,0,0,0,0,0,0,0,0],"split_type":[0,0,0,0,0,0,0,0,0,0,0,0,0,0,0],"sum_hessian":[3.657E3,5.6E1,3.601E3,1.3E1,4.3E1,2.08E2,3.393E3,1.1E1,2E0,3.5E1,8E0,3E0,2.05E2,1.07E2,3.286E3],"tree_param":{"num_deleted":"0","num_feature":"2066","num_nodes":"15","size_leaf_vector":"0"}}]},"name":"gbtree"},"learner_model_param":{"base_score":"5E-1","boost_from_average":"1","num_class":"0","num_feature":"2066","num_target":"1"},"objective":{"name":"reg:squarederror","reg_loss_param":{"scale_pos_weight":"1"}}},"version":[1,7,7]}