{"learner":{"attributes":{"niter":"49"},"feature_names":[],"feature_types":[],"gradient_booster":{"model":{"gbtree_model_param":{"num_parallel_tree":"1","num_trees":"50","size_leaf_vector":"0"},"tree_info":[0,0,0,0,0,0,0,0,0,0,0,0,0,0,0,0,0,0,0,0,0,0,0,0,0,0,0,0,0,0,0,0,0,0,0,0,0,0,0,0,0,0,0,0,0,0,0,0,0,0],"trees":[{"base_weights":[-4.9986333E-1,-7.8725797E-1,2.8305568E-2,-9.335599E-3,-8.6849123E-1,8.078184E-1,-1.5985407E-1,5.361884E-1,-2.5406218E-1,1.4566666E0,-8.866496E-1,2.3103228E0,6.956891E-1,1.8654329E0,-2.0953156E-1],"categories":[],"categories_nodes":[],"categories_segments":[],"categories_sizes":[],"default_left":[1,1,1,1,0,0,0,0,0,0,0,0,0,0,0],"id":0,"left_children":[1,3,5,7,9,11,13,-1,-1,-1,-1,-1,-1,-1,-1],"loss_changes":[5.552808E2,1.4969641E2,1.8933711E2,3.017468E1,9.185596E1,4.0679916E1,1.05026474E2,0E0,0E0,0E0,0E0,0E0,0E0,0E0,0E0],"parents":[2147483647,0,0,1,1,2,2,3,3,4,4,5,5,6,6],"right_children":[2,4,6,8,10,12,14,-1,-1,-1,-1,-1,-1,-1,-1],"split_conditions":[1.5E0,-1.7176585E-4,-2.1742782E-2,-4.155208E-4,4.000001E0,1.0000001E1,6.000001E0,5.3618845E-2,-2.5406217E-2,1.4566666E-1,-8.8664964E-2,2.3103228E-1,6.956891E-2,1.8654329E-1,-2.0953156E-2],"split_indices":[9,2020,2017,2020,585,585,585,0,0,0,0,0,0,0,0],"split_type":[0,0,0,0,0,0,0,0,0,0,0,0,0,0,0],"sum_hessian":[3.657E3,2.368E3,1.289E3,2.24E2,2.144E3,2.5E2,1.039E3,6.9E1,1.55E2,1.6E1,2.128E3,1.6E1,2.34E2,2.4E1,1.015E3],"tree_param":{"num_deleted":"0","num_feature":"2026","num_nodes":"15","size_leaf_vector":"0"}},{"base_weights":[-4.4972625E-1,-7.084962E-1,2.5836399E-2,1.4400162E0,-7.3295265E-1,5.3040737E-1,-2.2008452E-1,1.5609157E0,-4.748605E-2,6.4844545E-4,-7.9070884E-1,2.0118563E0,4.362554E-1,-3.639107E-1,3.5154665E-1],"categories":[],"categories_nodes":[],"categories_segments":[],"categories_sizes":[],"default_left":[1,0,1,1,1,0,0,0,0,0,0,0,0,0,0],"id":1,"left_children":[1,3,5,7,9,11,13,-1,-1,-1,-1,-1,-1,-1,-1],"loss_changes":[4.5017657E2,1.255343E2,1.601858E2,4.929756E0,9.927344E1,5.8122925E1,7.1491005E1,0E0,0E0,0E0,0E0,0E0,0E0,0E0,0E0],"parents":[2147483647,0,0,1,1,2,2,3,3,4,4,5,5,6,6],"right_children":[2,4,6,8,10,12,14,-1,-1,-1,-1,-1,-1,-1,-1],"split_conditions":[1.5E0,4.000001E0,-1.3888458E-2,3.5E0,-2.025857E-4,1.0000001E1,4.5E0,1.5609157E-1,-4.7486047E-3,6.484455E-5,-7.907089E-2,2.0118563E-1,4.362554E-2,-3.6391072E-2,3.5154667E-2],"split_indices":[9,585,2017,48,2020,585,9,0,0,0,0,0,0,0,0],"split_type":[0,0,0,0,0,0,0,0,0,0,0,0,0,0,0],"sum_hessian":[3.657E3,2.368E3,1.289E3,2.6E1,2.342E3,4.22E2,8.67E2,2.4E1,2E0,1.71E2,2.171E3,2.4E1,3.98E2,6.93E2,1.74E2],"tree_param":{"num_deleted":"0","num_feature":"2026","num_nodes":"15","size_leaf_vector":"0"}},{"base_weights":[-4.0466726E-1,-1.4088902E-1,-7.9585165E-1,4.1587287E-1,-3.1012437E-1,-8.4254324E-1,1.6954739E-2,1.7478384E0,3.3487105E-1,1.5674747E0,-3.417987E-1,-5.523584E-1,-9.092772E-1,-4.1712877E-1,4.102641E-1],"categories":[],"categories_nodes":[],"categories_segments":[],"categories_sizes":[],"default_left":[0,1,1,0,0,1,1,0,0,0,0,0,0,0,0],"id":2,"left_children":[1,3,5,7,9,11,13,-1,-1,-1,-1,-1,-1,-1,-1],"loss_changes":[3.7734198E2,2.0610217E2,5.5916443E1,5.4439423E1,1.00269806E2,2.647345E1,1.4000191E1,0E0,0E0,0E0,0E0,0E0,0E0,0E0,0E0],"parents":[2147483647,0,0,1,1,2,2,3,3,4,4,5,5,6,6],"right_children":[2,4,6,8,10,12,14,-1,-1,-1,-1,-1,-1,-1,-1],"split_conditions":[4E1,-1.7022254E-2,2.2759452E-2,1.0000001E1,6.000001E0,-1.3967794E-2,1.15549665E-4,1.7478384E-1,3.3487108E-2,1.5674748E-1,-3.417987E-2,-5.523584E-2,-9.092772E-2,-4.1712876E-2,4.102641E-2],"split_indices":[9,2017,2019,585,585,2017,2023,0,0,0,0,0,0,0,0],"split_type":[0,0,0,0,0,0,0,0,0,0,0,0,0,0,0],"sum_hessian":[3.657E3,2.185E3,1.472E3,5.09E2,1.676E3,1.392E3,8E1,2.8E1,4.81E2,2.7E1,1.649E3,2.62E2,1.13E3,3.8E1,4.2E1],"tree_param":{"num_deleted":"0","num_feature":"2026","num_nodes":"15","size_leaf_vector":"0"}},{"base_weights":[-3.6415023E-1,-5.8041286E-1,3.3284124E-2,1.2180039E0,-6.0088956E-1,7.393944E-1,-9.161896E-2,-1.2812066E-1,1.3308187E0,-3.182579E-1,-7.082919E-1,1.5423323E0,6.059497E-1,1.508363E0,-1.3340202E-1],"categories":[],"categories_nodes":[],"categories_segments":[],"categories_sizes":[],"default_left":[1,0,1,0,1,0,0,0,0,0,0,0,0,0,0],"id":3,"left_children":[1,3,5,7,9,11,13,-1,-1,-1,-1,-1,-1,-1,-1],"loss_changes":[3.1442514E2,8.797168E1,1.1383975E2,4.2708015E0,7.089703E1,1.9852097E1,7.3538025E1,0E0,0E0,0E0,0E0,0E0,0E0,0E0,0E0],"parents":[2147483647,0,0,1,1,2,2,3,3,4,4,5,5,6,6],"right_children":[2,4,6,8,10,12,14,-1,-1,-1,-1,-1,-1,-1,-1],"split_conditions":[1.5E0,4.000001E0,-2.3620415E-2,4.000001E0,-1.0820775E-2,2.4E1,6.000001E0,-1.2812066E-2,1.3308187E-1,-3.1825792E-2,-7.082919E-2,1.5423323E-1,6.0594972E-2,1.508363E-1,-1.3340202E-2],"split_indices":[9,585,2017,450,2017,262,585,0,0,0,0,0,0,0,0],"split_type":[0,0,0,0,0,0,0,0,0,0,0,0,0,0,0],"sum_hessian":[3.657E3,2.368E3,1.289E3,2.6E1,2.342E3,1.93E2,1.096E3,2E0,2.4E1,6.46E2,1.696E3,2.6E1,1.67E2,2.7E1,1.069E3],"tree_param":{"num_deleted":"0","num_feature":"2026","num_nodes":"15","size_leaf_vector":"0"}},{"base_weights":[-3.276341E-1,-1.05342805E-1,-6.573022E-1,2.8635007E-1,-2.7274063E-1,-6.979793E-1,5.035856E-2,1.1305408E0,1.882356E-1,-3.531054E-1,3.6060494E-1,-1.5689586E-1,-7.3082757E-1,-2.3356691E-1,5.158373E-1],"categories":[],"categories_nodes":[],"categories_segments":[],"categories_sizes":[],"default_left":[0,1,1,1,0,0,1,0,0,0,0,0,0,0,0],"id":4,"left_children":[1,3,5,7,9,11,13,-1,-1,-1,-1,-1,-1,-1,-1],"loss_changes":[2.6799762E2,1.4341095E2,4.243634E1,5.4039097E1,7.8104065E1,2.4644043E1,1.0825545E1,0E0,0E0,0E0,0E0,0E0,0E0,0E0,0E0],"parents":[2147483647,0,0,1,1,2,2,3,3,4,4,5,5,6,6],"right_children":[2,4,6,8,10,12,14,-1,-1,-1,-1,-1,-1,-1,-1],"split_conditions":[4E1,-1.3121537E-2,2.2759452E-2,-3.6823517E-4,4.5E0,1.4000001E1,1.7460919E-4,1.1305409E-1,1.882356E-2,-3.531054E-2,3.6060493E-2,-1.5689587E-2,-7.308276E-2,-2.3356691E-2,5.1583733E-2],"split_indices":[9,2017,2019,2020,9,262,2023,0,0,0,0,0,0,0,0],"split_type":[0,0,0,0,0,0,0,0,0,0,0,0,0,0,0],"sum_hessian":[3.657E3,2.185E3,1.472E3,6.54E2,1.531E3,1.392E3,8E1,6.7E1,5.87E2,1.359E3,1.72E2,8E1,1.312E3,5E1,3E1],"tree_param":{"num_deleted":"0","num_feature":"2026","num_nodes":"15","size_leaf_vector":"0"}},{"base_weights":[-2.9485098E-1,-9.474785E-2,-5.9161305E-1,1.3912427E0,-1.3375336E-1,-6.282451E-1,4.5671184E-2,4.8410258E-1,1.5323473E0,3.7236962E-1,-2.2703062E-1,-2.6684892E-1,-6.696976E-1,-2.106682E-1,4.6591756E-1],"categories":[],"categories_nodes":[],"categories_segments":[],"categories_sizes":[],"default_left":[0,0,1,0,1,0,1,0,0,0,0,0,0,0,0],"id":5,"left_children":[1,3,5,7,9,11,13,-1,-1,-1,-1,-1,-1,-1,-1],"loss_changes":[2.1716702E2,1.268906E2,3.4415894E1,6.426285E0,1.0068854E2,2.0689575E1,8.8239355E0,0E0,0E0,0E0,0E0,0E0,0E0,0E0,0E0],"parents":[2147483647,0,0,1,1,2,2,3,3,4,4,5,5,6,6],"right_children":[2,4,6,8,10,12,14,-1,-1,-1,-1,-1,-1,-1,-1],"split_conditions":[4E1,1.0000001E1,2.2759452E-2,2.000001E0,-2.0989083E-2,6.000001E0,1.7460919E-4,4.841026E-2,1.5323474E-1,3.7236962E-2,-2.2703063E-2,-2.6684893E-2,-6.696976E-2,-2.106682E-2,4.6591755E-2],"split_indices":[9,585,2019,539,2017,149,2023,0,0,0,0,0,0,0,0],"split_type":[0,0,0,0,0,0,0,0,0,0,0,0,0,0,0],"sum_hessian":[3.657E3,2.185E3,1.472E3,5.5E1,2.13E3,1.392E3,8E1,8E0,4.7E1,3.31E2,1.799E3,1.44E2,1.248E3,5E1,3E1],"tree_param":{"num_deleted":"0","num_feature":"2026","num_nodes":"15","size_leaf_vector":"0"}},{"base_weights":[-2.653254E-1,-3.5392323E-1,3.363848E-1,1.184558E0,-3.7681687E-1,7.059197E-1,6.7138344E-2,1.249929E0,-1.9085926E-1,1.3786019E0,-3.9474636E-1,1.2180845E0,5.7263345E-1,1.2610456E0,-5.830007E-2],"categories":[],"categories_nodes":[],"categories_segments":[],"categories_sizes":[],"default_left":[1,0,0,1,0,1,1,0,0,0,0,0,0,0,0],"id":6,"left_children":[1,3,5,7,9,11,13,-1,-1,-1,-1,-1,-1,-1,-1],"loss_changes":[1.9512787E2,1.1276749E2,4.6715702E1,4.464447E0,9.946628E1,1.2818855E1,4.09585E1,0E0,0E0,0E0,0E0,0E0,0E0,0E0,0E0],"parents":[2147483647,0,0,1,1,2,2,3,3,4,4,5,5,6,6],"right_children":[2,4,6,8,10,12,14,-1,-1,-1,-1,-1,-1,-1,-1],"split_conditions":[3.5E0,4.000001E0,2.2E1,1.5E0,1.5E0,-9.664735E-3,-2.1999405E-4,1.249929E-1,-1.9085927E-2,1.378602E-1,-3.9474636E-2,1.2180845E-1,5.7263345E-2,1.2610456E-1,-5.830007E-3],"split_indices":[9,585,45,666,243,2021,2020,0,0,0,0,0,0,0,0],"split_type":[0,0,0,0,0,0,0,0,0,0,0,0,0,0,0],"sum_hessian":[3.657E3,3.188E3,4.69E2,4.6E1,3.142E3,1.97E2,2.72E2,4.4E1,2E0,3.1E1,3.111E3,3.9E1,1.58E2,2.5E1,2.47E2],"tree_param":{"num_deleted":"0","num_feature":"2026","num_nodes":"15","size_leaf_vector":"0"}},{"base_weights":[-2.3865518E-1,1.2392691E-1,-3.6463633E-1,5.003538E-1,1.6865566E-2,6.4583677E-3,-4.6085545E-1,4.1355935E-1,1.5214647E0,-2.569165E-1,1.4904027E-1,7.867153E-1,-7.326623E-2,-3.1833464E-1,-6.009834E-1],"categories":[],"categories_nodes":[],"categories_segments":[],"categories_sizes":[],"default_left":[0,0,1,1,0,0,0,0,0,0,0,0,0,0,0],"id":7,"left_children":[1,3,5,7,9,11,13,-1,-1,-1,-1,-1,-1,-1,-1],"loss_changes":[1.6713718E2,3.803549E1,9.694583E1,1.7893787E1,2.667197E1,3.489282E1,4.2866486E1,0E0,0E0,0E0,0E0,0E0,0E0,0E0,0E0],"parents":[2147483647,0,0,1,1,2,2,3,3,4,4,5,5,6,6],"right_children":[2,4,6,8,10,12,14,-1,-1,-1,-1,-1,-1,-1,-1],"split_conditions":[7E0,8.000001E0,-1.5329739E-2,1.25E1,3.2E1,1.0000001E1,9.5E0,4.1355934E-2,1.5214647E-1,-2.5691649E-2,1.4904027E-2,7.867154E-2,-7.326623E-3,-3.1833466E-2,-6.009834E-2],"split_indices":[149,82,2017,9,927,262,9,0,0,0,0,0,0,0,0],"split_type":[0,0,0,0,0,0,0,0,0,0,0,0,0,0,0],"sum_hessian":[3.657E3,9.43E2,2.714E3,2.08E2,7.35E2,5.59E2,2.155E3,1.93E2,1.5E1,2.39E2,4.96E2,5.1E1,5.08E2,1.07E3,1.085E3],"tree_param":{"num_deleted":"0","num_feature":"2026","num_nodes":"15","size_leaf_vector":"0"}},{"base_weights":[-2.1474534E-1,-3.6181334E-1,5.55018E-2,-4.6087146E-1,-1.3655478E-1,3.566463E-1,-1.1696278E-1,-4.8387066E-1,2.6745364E-1,1.2832298E0,-1.6631599E-1,1.890466E-1,7.889154E-1,1.3054354E0,-1.5776153E-1],"categories":[],"categories_nodes":[],"categories_segments":[],"categories_sizes":[],"default_left":[1,1,0,1,0,0,0,0,0,0,0,0,0,0,0],"id":8,"left_children":[1,3,5,7,9,11,13,-1,-1,-1,-1,-1,-1,-1,-1],"loss_changes":[1.454062E2,5.2798187E1,6.704014E1,2.7684631E1,3.084793E1,3.3901493E1,4.7850266E1,0E0,0E0,0E0,0E0,0E0,0E0,0E0,0E0],"parents":[2147483647,0,0,1,1,2,2,3,3,4,4,5,5,6,6],"right_children":[2,4,6,8,10,12,14,-1,-1,-1,-1,-1,-1,-1,-1],"split_conditions":[1.5E0,3.303299E-3,2.2E1,1.5E0,1.5E0,4.5E0,1.0000001E1,-4.8387066E-2,2.6745364E-2,1.2832299E-1,-1.66316E-2,1.8904662E-2,7.889154E-2,1.3054354E-1,-1.5776154E-2],"split_indices":[9,2019,45,149,243,9,585,0,0,0,0,0,0,0,0],"split_type":[0,0,0,0,0,0,0,0,0,0,0,0,0,0,0],"sum_hessian":[3.657E3,2.368E3,1.289E3,1.644E3,7.24E2,4.69E2,8.2E2,1.594E3,5E1,1.4E1,7.1E2,3.39E2,1.3E2,2.2E1,7.98E2],"tree_param":{"num_deleted":"0","num_feature":"2026","num_nodes":"15","size_leaf_vector":"0"}},{"base_weights":[-1.9318807E-1,2.458099E-1,-2.7161935E-1,4.4350922E-2,5.240307E-1,1.0771204E0,-2.9405358E-1,2.5821922E-4,1.1870654E0,3.8042477E-1,1.1322373E0,1.1345098E0,-2.1928014E-1,5.4385983E-3,-3.8229117E-1],"categories":[],"categories_nodes":[],"categories_segments":[],"categories_sizes":[],"default_left":[0,1,0,1,0,1,0,0,0,0,0,0,0,0,0],"id":9,"left_children":[1,3,5,7,9,11,13,-1,-1,-1,-1,-1,-1,-1,-1],"loss_changes":[1.2601599E2,3.1084549E1,9.4237305E1,1.6274168E1,1.9919971E1,4.0431595E0,8.070856E1,0E0,0E0,0E0,0E0,0E0,0E0,0E0,0E0],"parents":[2147483647,0,0,1,1,2,2,3,3,4,4,5,5,6,6],"right_children":[2,4,6,8,10,12,14,-1,-1,-1,-1,-1,-1,-1,-1],"split_conditions":[1.8E1,2.7788742E-3,1.0000001E1,1.5E0,4.5E0,1.5E0,1.6E1,2.5821922E-5,1.1870654E-1,3.804248E-2,1.1322373E-1,1.1345098E-1,-2.1928014E-2,5.4385985E-4,-3.822912E-2],"split_indices":[1118,2019,585,200,9,666,149,0,0,0,0,0,0,0,0],"split_type":[0,0,0,0,0,0,0,0,0,0,0,0,0,0,0],"sum_hessian":[3.657E3,5.54E2,3.103E3,3.22E2,2.32E2,5E1,3.053E3,3.11E2,1.1E1,1.89E2,4.3E1,4.8E1,2E0,6.95E2,2.358E3],"tree_param":{"num_deleted":"0","num_feature":"2026","num_nodes":"15","size_leaf_vector":"0"}},{"base_weights":[-1.7378074E-1,-2.3936614E-1,2.71593E-1,2.9026791E-2,-3.2985544E-1,-5.271983E-1,3.700788E-1,7.274463E-1,-4.2670187E-2,1.2372879E0,-3.3830172E-1,3.523292E-1,-6.078325E-1,-3.104681E-1,4.447161E-1],"categories":[],"categories_nodes":[],"categories_segments":[],"categories_sizes":[],"default_left":[1,1,0,0,0,0,0,0,0,0,0,0,0,0,0],"id":10,"left_children":[1,3,5,7,9,11,13,-1,-1,-1,-1,-1,-1,-1,-1],"loss_changes":[1.0691525E2,7.745982E1,3.7169823E1,4.0341064E1,3.1987701E1,3.9019957E0,2.1420826E1,0E0,0E0,0E0,0E0,0E0,0E0,0E0,0E0],"parents":[2147483647,0,0,1,1,2,2,3,3,4,4,5,5,6,6],"right_children":[2,4,6,8,10,12,14,-1,-1,-1,-1,-1,-1,-1,-1],"split_conditions":[3.5E0,-1.2857081E-2,4.000001E0,2.4E1,2.000001E0,6.000001E0,2.5E0,7.274463E-2,-4.2670188E-3,1.2372879E-1,-3.3830173E-2,3.523292E-2,-6.078325E-2,-3.1046811E-2,4.447161E-2],"split_indices":[9,2017,1022,262,243,789,117,0,0,0,0,0,0,0,0],"split_type":[0,0,0,0,0,0,0,0,0,0,0,0,0,0,0],"sum_hessian":[3.657E3,3.188E3,4.69E2,8.04E2,2.384E3,5.1E1,4.18E2,7.4E1,7.3E2,1.2E1,2.372E3,4E0,4.7E1,4.1E1,3.77E2],"tree_param":{"num_deleted":"0","num_feature":"2026","num_nodes":"15","size_leaf_vector":"0"}},{"base_weights":[-1.5636268E-1,-2.2698337E-2,-3.5462058E-1,6.257944E-1,-7.560566E-2,-3.8286918E-1,1.3556382E-1,1.2209487E0,5.2079797E-1,1.047674E0,-9.591892E-2,5.2367926E-2,-4.094277E-1,-1.2559925E-1,3.6928E-1],"categories":[],"categories_nodes":[],"categories_segments":[],"categories_sizes":[],"default_left":[0,1,1,0,0,0,1,0,0,0,0,0,0,0,0],"id":11,"left_children":[1,3,5,7,9,11,13,-1,-1,-1,-1,-1,-1,-1,-1],"loss_changes":[9.692898E1,7.5049E1,2.0448593E1,9.674843E0,4.6237427E1,1.612349E1,4.9904623E0,0E0,0E0,0E0,0E0,0E0,0E0,0E0,0E0],"parents":[2147483647,0,0,1,1,2,2,3,3,4,4,5,5,6,6],"right_children":[2,4,6,8,10,12,14,-1,-1,-1,-1,-1,-1,-1,-1],"split_conditions":[4E1,-2.224675E-4,2.2759452E-2,6.000001E0,4.000001E0,1.4000001E1,1.15549665E-4,1.2209487E-1,5.2079797E-2,1.047674E-1,-9.591892E-3,5.236793E-3,-4.094277E-2,-1.2559925E-2,3.6928E-2],"split_indices":[9,2020,2019,16,807,262,2023,0,0,0,0,0,0,0,0],"split_type":[0,0,0,0,0,0,0,0,0,0,0,0,0,0,0],"sum_hessian":[3.657E3,2.185E3,1.472E3,1.64E2,2.021E3,1.392E3,8E1,2.3E1,1.41E2,3.5E1,1.986E3,8E1,1.312E3,3.8E1,4.2E1],"tree_param":{"num_deleted":"0","num_feature":"2026","num_nodes":"15","size_leaf_vector":"0"}},{"base_weights":[-1.4065588E-1,1.2081656E-1,-2.3151751E-1,-4.2275792E-1,1.821385E-1,9.2692965E-1,-2.505071E-1,7.1641684E-1,-4.9322265E-1,4.2017628E-2,4.113363E-1,-1.9328868E-1,9.848755E-1,2.2796704E-1,-2.886838E-1],"categories":[],"categories_nodes":[],"categories_segments":[],"categories_sizes":[],"default_left":[0,0,0,0,1,0,0,0,0,0,0,0,0,0,0],"id":12,"left_children":[1,3,5,7,9,11,13,-1,-1,-1,-1,-1,-1,-1,-1],"loss_changes":[8.693406E1,3.1543396E1,5.995793E1,8.059431E0,2.7248688E1,3.0464935E0,4.88741E1,0E0,0E0,0E0,0E0,0E0,0E0,0E0,0E0],"parents":[2147483647,0,0,1,1,2,2,3,3,4,4,5,5,6,6],"right_children":[2,4,6,8,10,12,14,-1,-1,-1,-1,-1,-1,-1,-1],"split_conditions":[7E0,2.5E0,6.000001E0,1.5E0,2.2544498E-3,4.000001E0,1.0000001E1,7.164168E-2,-4.9322266E-2,4.201763E-3,4.113363E-2,-1.9328868E-2,9.848755E-2,2.2796704E-2,-2.8868381E-2],"split_indices":[149,117,585,193,2019,450,262,0,0,0,0,0,0,0,0],"split_type":[0,0,0,0,0,0,0,0,0,0,0,0,0,0,0],"sum_hessian":[3.657E3,9.43E2,2.714E3,9.5E1,8.48E2,4.3E1,2.671E3,5E0,9E1,5.27E2,3.21E2,2E0,4.1E1,1.97E2,2.474E3],"tree_param":{"num_deleted":"0","num_feature":"2026","num_nodes":"15","size_leaf_vector":"0"}},{"base_weights":[-1.265518E-1,2.2804047E-1,-1.8991269E-1,5.849042E-2,4.6210325E-1,1.1396528E0,-2.0500875E-1,2.1391822E-2,1.0181799E0,-5.7757918E-2,5.972983E-1,1.6376134E0,8.7496406E-1,8.8766587E-1,-2.2192366E-1],"categories":[],"categories_nodes":[],"categories_segments":[],"categories_sizes":[],"default_left":[0,1,0,1,0,0,0,0,0,0,0,0,0,0,0],"id":13,"left_children":[1,3,5,7,9,11,13,-1,-1,-1,-1,-1,-1,-1,-1],"loss_changes":[8.222861E1,2.1998344E1,6.2534607E1,1.1478031E1,1.6410366E1,3.1803055E0,5.6938248E1,0E0,0E0,0E0,0E0,0E0,0E0,0E0,0E0],"parents":[2147483647,0,0,1,1,2,2,3,3,4,4,5,5,6,6],"right_children":[2,4,6,8,10,12,14,-1,-1,-1,-1,-1,-1,-1,-1],"split_conditions":[1.8E1,2.7788742E-3,8.000001E0,1.5E0,1.4000001E1,8.000001E0,1.0000001E1,2.1391823E-3,1.0181799E-1,-5.775792E-3,5.9729833E-2,1.6376135E-1,8.749641E-2,8.876659E-2,-2.2192366E-2],"split_indices":[1118,2019,243,200,166,45,585,0,0,0,0,0,0,0,0],"split_type":[0,0,0,0,0,0,0,0,0,0,0,0,0,0,0],"sum_hessian":[3.657E3,5.54E2,3.103E3,3.22E2,2.32E2,3.4E1,3.069E3,3.11E2,1.1E1,4.8E1,1.84E2,1E1,2.4E1,4.6E1,3.023E3],"tree_param":{"num_deleted":"0","num_feature":"2026","num_nodes":"15","size_leaf_vector":"0"}},{"base_weights":[-1.1376658E-1,9.0473515E-1,-1.3273257E-1,3.0474013E-1,9.9258363E-1,8.6049765E-1,-1.5042117E-1,4.6059087E-1,-2.1244188E-1,1.4593846E0,8.649296E-1,8.36628E-2,9.5610803E-1,1.5631264E-1,-2.0358324E-1],"categories":[],"categories_nodes":[],"categories_segments":[],"categories_sizes":[],"default_left":[0,0,0,1,0,0,0,0,0,0,0,0,0,0,0],"id":14,"left_children":[1,3,5,7,9,11,13,-1,-1,-1,-1,-1,-1,-1,-1],"loss_changes":[7.07813E1,3.229E0,6.323676E1,9.038808E-1,2.1938934E0,4.5992393E0,5.7594124E1,0E0,0E0,0E0,0E0,0E0,0E0,0E0,0E0],"parents":[2147483647,0,0,1,1,2,2,3,3,4,4,5,5,6,6],"right_children":[2,4,6,8,10,12,14,-1,-1,-1,-1,-1,-1,-1,-1],"split_conditions":[8.000001E0,5E0,1.0000001E1,1.5E0,1.5E0,2.000001E0,1.8E1,4.6059087E-2,-2.1244189E-2,1.4593846E-1,8.649296E-2,8.36628E-3,9.5610805E-2,1.5631264E-2,-2.0358324E-2],"split_indices":[807,1090,585,46,153,539,1118,0,0,0,0,0,0,0,0],"split_type":[0,0,0,0,0,0,0,0,0,0,0,0,0,0,0],"sum_hessian":[3.657E3,6.6E1,3.591E3,9E0,5.7E1,6.2E1,3.529E3,7E0,2E0,1E1,4.7E1,7E0,5.5E1,5.21E2,3.008E3],"tree_param":{"num_deleted":"0","num_feature":"2026","num_nodes":"15","size_leaf_vector":"0"}},{"base_weights":[-1.0229246E-1,1.2300688E-1,-1.8059091E-1,1.1072177E0,9.502811E-2,1.1386223E0,-1.9327454E-1,-8.48635E-3,1.3732656E0,-3.7877366E-1,1.488324E-1,1.35975E-1,1.2634903E0,-2.1063657E-1,6.271225E-1],"categories":[],"categories_nodes":[],"categories_segments":[],"categories_sizes":[],"default_left":[0,0,0,0,0,0,1,0,0,0,0,0,0,0,0],"id":15,"left_children":[1,3,5,7,9,11,13,-1,-1,-1,-1,-1,-1,-1,-1],"loss_changes":[6.455148E1,2.5889715E1,4.5648537E1,7.729252E0,2.3484041E1,3.0833626E0,3.8447823E1,0E0,0E0,0E0,0E0,0E0,0E0,0E0,0E0],"parents":[2147483647,0,0,1,1,2,2,3,3,4,4,5,5,6,6],"right_children":[2,4,6,8,10,12,14,-1,-1,-1,-1,-1,-1,-1,-1],"split_conditions":[7E0,4.000001E0,6.000001E0,4.000001E0,2.5E0,1.5E0,1.5E0,-8.4863504E-4,1.3732657E-1,-3.7877366E-2,1.488324E-2,1.35975005E-2,1.2634903E-1,-2.1063657E-2,6.271225E-2],"split_indices":[149,716,639,800,117,20,262,0,0,0,0,0,0,0,0],"split_type":[0,0,0,0,0,0,0,0,0,0,0,0,0,0,0],"sum_hessian":[3.657E3,9.43E2,2.714E3,2.5E1,9.18E2,2.5E1,2.689E3,5E0,2E1,9.3E1,8.25E2,3E0,2.2E1,2.634E3,5.5E1],"tree_param":{"num_deleted":"0","num_feature":"2026","num_nodes":"15","size_leaf_vector":"0"}},{"base_weights":[-9.198255E-2,1.20535776E-1,-1.6947265E-1,6.464374E-1,5.9233043E-2,-2.4956022E-1,2.2891438E-2,7.087732E-1,-1.0579829E0,7.6328284E-1,2.3791267E-2,1.3115543E0,-2.5771394E-1,-4.4601172E-2,4.0326664E-1],"categories":[],"categories_nodes":[],"categories_segments":[],"categories_sizes":[],"default_left":[1,0,1,1,0,0,1,0,0,0,0,0,0,0,0],"id":16,"left_children":[1,3,5,7,9,11,13,-1,-1,-1,-1,-1,-1,-1,-1],"loss_changes":[6.0260612E1,3.149165E1,4.1309135E1,1.1587002E1,2.1865423E1,2.4433754E1,2.02736E1,0E0,0E0,0E0,0E0,0E0,0E0,0E0,0E0],"parents":[2147483647,0,0,1,1,2,2,3,3,4,4,5,5,6,6],"right_children":[2,4,6,8,10,12,14,-1,-1,-1,-1,-1,-1,-1,-1],"split_conditions":[-1.313476E-2,2.4E1,1.5E0,1.5E0,8.000001E0,6.000001E0,4.5E0,7.087732E-2,-1.057983E-1,7.6328285E-2,2.3791266E-3,1.3115543E-1,-2.5771394E-2,-4.4601173E-3,4.0326666E-2],"split_indices":[2017,262,14,36,807,800,9,0,0,0,0,0,0,0,0],"split_type":[0,0,0,0,0,0,0,0,0,0,0,0,0,0,0],"sum_hessian":[3.657E3,9.77E2,2.68E3,1.01E2,8.76E2,1.892E3,7.88E2,9.8E1,3E0,4.1E1,8.35E2,9E0,1.883E3,6.7E2,1.18E2],"tree_param":{"num_deleted":"0","num_feature":"2026","num_nodes":"15","size_leaf_vector":"0"}},{"base_weights":[-8.273371E-2,-1.6441219E-1,9.6446685E-2,-2.2531241E-1,1.1528223E-1,4.894643E-2,7.287758E-1,1.0415553E0,-2.3385012E-1,5.9250367E-1,5.9478547E-2,-2.0448191E-1,1.35057E-1,-3.9501137E-1,8.419474E-1],"categories":[],"categories_nodes":[],"categories_segments":[],"categories_sizes":[],"default_left":[1,1,1,0,0,0,0,0,0,0,0,0,0,0,0],"id":17,"left_children":[1,3,5,7,9,11,13,-1,-1,-1,-1,-1,-1,-1,-1],"loss_changes":[5.355135E1,4.2831047E1,3.4385353E1,2.2568085E1,1.1948581E1,2.331261E1,1.0507034E1,0E0,0E0,0E0,0E0,0E0,0E0,0E0,0E0],"parents":[2147483647,0,0,1,1,2,2,3,3,4,4,5,5,6,6],"right_children":[2,4,6,8,10,12,14,-1,-1,-1,-1,-1,-1,-1,-1],"split_conditions":[3.4081838E-3,2.5E0,4.5E0,2.000001E0,2.5E0,1.6E1,2.000001E0,1.0415553E-1,-2.3385013E-2,5.9250366E-2,5.947855E-3,-2.0448191E-2,1.35057E-2,-3.9501138E-2,8.419474E-2],"split_indices":[2019,64,9,243,164,5,1022,0,0,0,0,0,0,0,0],"split_type":[0,0,0,0,0,0,0,0,0,0,0,0,0,0,0],"sum_hessian":[3.657E3,2.512E3,1.145E3,2.063E3,4.49E2,1.066E3,7.9E1,1.3E1,2.05E3,4.6E1,4.03E2,2.7E2,7.96E2,7E0,7.2E1],"tree_param":{"num_deleted":"0","num_feature":"2026","num_nodes":"15","size_leaf_vector":"0"}},{"base_weights":[-7.441012E-2,2.1690873E-2,-2.1697791E-1,-2.0129476E-1,1.1515423E-1,8.2389134E-1,-2.2465567E-1,-3.323224E-1,2.229464E-3,6.2259185E-1,7.417982E-2,-5.630343E-1,1.1946564E0,1.0343982E0,-2.3055048E-1],"categories":[],"categories_nodes":[],"categories_segments":[],"categories_sizes":[],"default_left":[0,0,0,1,1,0,0,0,0,0,0,0,0,0,0],"id":18,"left_children":[1,3,5,7,9,11,13,-1,-1,-1,-1,-1,-1,-1,-1],"loss_changes":[5.012262E1,4.5581577E1,1.1956665E1,1.7227818E1,3.199422E1,6.3290925E0,1.1096672E1,0E0,0E0,0E0,0E0,0E0,0E0,0E0,0E0],"parents":[2147483647,0,0,1,1,2,2,3,3,4,4,5,5,6,6],"right_children":[2,4,6,8,10,12,14,-1,-1,-1,-1,-1,-1,-1,-1],"split_conditions":[4E1,2.65E1,1.5E0,1.5E0,-2.643892E-4,2.000001E0,2.000001E0,-3.323224E-2,2.229464E-4,6.2259186E-2,7.417982E-3,-5.630343E-2,1.1946564E-1,1.0343982E-1,-2.3055049E-2],"split_indices":[9,927,800,14,2020,43,243,0,0,0,0,0,0,0,0],"split_type":[0,0,0,0,0,0,0,0,0,0,0,0,0,0,0],"sum_hessian":[3.657E3,2.185E3,1.472E3,6.45E2,1.54E3,1E1,1.462E3,3.92E2,2.53E2,1.14E2,1.426E3,2E0,8E0,6E0,1.456E3],"tree_param":{"num_deleted":"0","num_feature":"2026","num_nodes":"15","size_leaf_vector":"0"}},{"base_weights":[-6.691984E-2,1.9271626E-1,-1.1510667E-1,2.0174725E-2,4.462356E-1,1.1229949E0,-1.2517768E-1,-2.3178495E-2,4.8888978E-1,-2.2417133E-1,5.393511E-1,7.048804E-1,1.4011649E0,9.4009656E-1,-1.3602805E-1],"categories":[],"categories_nodes":[],"categories_segments":[],"categories_sizes":[],"default_left":[0,1,0,1,0,1,0,0,0,0,0,0,0,0,0],"id":19,"left_children":[1,3,5,7,9,11,13,-1,-1,-1,-1,-1,-1,-1,-1],"loss_changes":[4.5787567E1,2.5055513E1,3.86197E1,6.9608765E0,1.4603573E1,1.920021E0,3.552037E1,0E0,0E0,0E0,0E0,0E0,0E0,0E0,0E0],"parents":[2147483647,0,0,1,1,2,2,3,3,4,4,5,5,6,6],"right_children":[2,4,6,8,10,12,14,-1,-1,-1,-1,-1,-1,-1,-1],"split_conditions":[2.6E1,2.5E0,6.000001E0,1.5E0,6.000001E0,-5.219326E-5,1.5E0,-2.3178495E-3,4.8888978E-2,-2.2417134E-2,5.393511E-2,7.048804E-2,1.401165E-1,9.400966E-2,-1.3602805E-2],"split_indices":[82,9,639,149,117,2024,243,0,0,0,0,0,0,0,0],"split_type":[0,0,0,0,0,0,0,0,0,0,0,0,0,0,0],"sum_hessian":[3.657E3,5.72E2,3.085E3,3.41E2,2.31E2,2.4E1,3.061E3,3.13E2,2.8E1,2.8E1,2.03E2,1.1E1,1.3E1,3E1,3.031E3],"tree_param":{"num_deleted":"0","num_feature":"2026","num_nodes":"15","size_leaf_vector":"0"}},{"base_weights":[-6.0126953E-2,3.1370836E-1,-9.2771076E-2,-3.4080106E-1,4.121934E-1,9.8864216E-1,-1.034503E-1,7.7034926E-1,-4.8979968E-1,2.6268154E-1,8.962207E-1,-8.576083E-2,1.1397929E0,6.971022E-1,-1.16350584E-1],"categories":[],"categories_nodes":[],"categories_segments":[],"categories_sizes":[],"default_left":[0,0,0,0,0,0,0,0,0,0,0,0,0,0,0],"id":20,"left_children":[1,3,5,7,9,11,13,-1,-1,-1,-1,-1,-1,-1,-1],"loss_changes":[4.4669594E1,1.9091532E1,3.896351E1,6.834151E0,1.8290741E1,5.456848E0,3.4502174E1,0E0,0E0,0E0,0E0,0E0,0E0,0E0,0E0],"parents":[2147483647,0,0,1,1,2,2,3,3,4,4,5,5,6,6],"right_children":[2,4,6,8,10,12,14,-1,-1,-1,-1,-1,-1,-1,-1],"split_conditions":[2.4E1,6.000001E0,4.000001E0,2.5E0,1.5E0,4.000001E0,8.000001E0,7.703493E-2,-4.8979968E-2,2.6268154E-2,8.962207E-2,-8.576083E-3,1.13979295E-1,6.971022E-2,-1.1635059E-2],"split_indices":[262,117,716,1086,262,800,807,0,0,0,0,0,0,0,0],"split_type":[0,0,0,0,0,0,0,0,0,0,0,0,0,0,0],"sum_hessian":[3.657E3,2.93E2,3.364E3,3.8E1,2.55E2,3.2E1,3.332E3,4E0,3.4E1,1.96E2,5.9E1,4E0,2.8E1,5.2E1,3.28E3],"tree_param":{"num_deleted":"0","num_feature":"2026","num_nodes":"15","size_leaf_vector":"0"}},{"base_weights":[-5.4030214E-2,1.2349277E-1,-1.1573469E-1,-2.8196144E-1,1.6919373E-1,9.467158E-1,-1.2596071E-1,4.2851815E-1,-3.6955813E-1,1.5008864E-1,1.1544715E0,1.1312413E-1,1.0505267E0,6.555785E-1,-1.386043E-1],"categories":[],"categories_nodes":[],"categories_segments":[],"categories_sizes":[],"default_left":[0,0,0,0,1,0,0,0,0,0,0,0,0,0,0],"id":21,"left_children":[1,3,5,7,9,11,13,-1,-1,-1,-1,-1,-1,-1,-1],"loss_changes":[4.0083893E1,1.7539692E1,2.961673E1,6.1329856E0,1.5808144E1,2.131094E0,2.6672E1,0E0,0E0,0E0,0E0,0E0,0E0,0E0,0E0],"parents":[2147483647,0,0,1,1,2,2,3,3,4,4,5,5,6,6],"right_children":[2,4,6,8,10,12,14,-1,-1,-1,-1,-1,-1,-1,-1],"split_conditions":[7E0,2.5E0,6.000001E0,1.5E0,1.5E0,1.5E0,6.000001E0,4.2851817E-2,-3.6955815E-2,1.5008864E-2,1.15447156E-1,1.1312413E-2,1.0505267E-1,6.555785E-2,-1.386043E-2],"split_indices":[149,117,639,121,262,20,585,0,0,0,0,0,0,0,0],"split_type":[0,0,0,0,0,0,0,0,0,0,0,0,0,0,0],"sum_hessian":[3.657E3,9.43E2,2.714E3,9.5E1,8.48E2,2.5E1,2.689E3,1E1,8.5E1,8.33E2,1.5E1,3E0,2.2E1,4.2E1,2.647E3],"tree_param":{"num_deleted":"0","num_feature":"2026","num_nodes":"15","size_leaf_vector":"0"}},{"base_weights":[-4.854397E-2,-7.170906E-2,3.9685228E-1,8.7656116E-1,-8.188172E-2,5.425427E-1,-5.5512935E-2,-3.6673028E-2,1.0204E0,8.697558E-1,-9.191314E-2,3.3688998E-1,8.252677E-1,3.0862767E-1,-3.3348596E-1],"categories":[],"categories_nodes":[],"categories_segments":[],"categories_sizes":[],"default_left":[1,0,1,0,0,1,0,0,0,0,0,0,0,0,0],"id":22,"left_children":[1,3,5,7,9,11,13,-1,-1,-1,-1,-1,-1,-1,-1],"loss_changes":[3.77704E1,3.3622047E1,1.1958973E1,4.897686E0,3.2938248E1,7.6875877E0,4.6578803E0,0E0,0E0,0E0,0E0,0E0,0E0,0E0,0E0],"parents":[2147483647,0,0,1,1,2,2,3,3,4,4,5,5,6,6],"right_children":[2,4,6,8,10,12,14,-1,-1,-1,-1,-1,-1,-1,-1],"split_conditions":[5.5E0,2.000001E0,1.5E0,4.000001E0,8.000001E0,9.7568245E-6,4.000001E0,-3.667303E-3,1.0204001E-1,8.697558E-2,-9.191315E-3,3.3689E-2,8.2526766E-2,3.0862767E-2,-3.3348598E-2],"split_indices":[9,716,927,800,243,2024,8,0,0,0,0,0,0,0,0],"split_type":[0,0,0,0,0,0,0,0,0,0,0,0,0,0,0],"sum_hessian":[3.657E3,3.477E3,1.8E2,3.6E1,3.441E3,1.36E2,4.4E1,5E0,3.1E1,3.5E1,3.406E3,8E1,5.6E1,1.9E1,2.5E1],"tree_param":{"num_deleted":"0","num_feature":"2026","num_nodes":"15","size_leaf_vector":"0"}},{"base_weights":[-4.3610327E-2,-1.5160866E-1,4.4915207E-2,-1.9562748E-1,7.8858E-2,9.022979E-3,3.9290726E-1,1.4859048E-1,-2.2025336E-1,5.1656853E-2,9.462379E-1,-7.829261E-3,7.608286E-1,9.1225356E-1,2.7232268E-1],"categories":[],"categories_nodes":[],"categories_segments":[],"categories_sizes":[],"default_left":[1,1,1,0,1,1,0,0,0,0,0,0,0,0,0],"id":23,"left_children":[1,3,5,7,9,11,13,-1,-1,-1,-1,-1,-1,-1,-1],"loss_changes":[3.4979523E1,1.6734173E1,2.5114267E1,1.1764446E1,6.2034597E0,2.3115324E1,1.1525103E1,0E0,0E0,0E0,0E0,0E0,0E0,0E0,0E0],"parents":[2147483647,0,0,1,1,2,2,3,3,4,4,5,5,6,6],"right_children":[2,4,6,8,10,12,14,-1,-1,-1,-1,-1,-1,-1,-1],"split_conditions":[-2.7800263E-3,2.5E0,4.5E0,3.5E0,1.05E1,1.5E0,2.5E0,1.4859048E-2,-2.2025337E-2,5.1656854E-3,9.46238E-2,-7.829261E-4,7.608286E-2,9.1225356E-2,2.7232269E-2],"split_indices":[2019,14,9,262,9,262,161,0,0,0,0,0,0,0,0],"split_type":[0,0,0,0,0,0,0,0,0,0,0,0,0,0,0],"sum_hessian":[3.657E3,1.647E3,2.01E3,1.383E3,2.64E2,1.823E3,1.87E2,9.2E1,1.291E3,2.57E2,7E0,1.784E3,3.9E1,3.4E1,1.53E2],"tree_param":{"num_deleted":"0","num_feature":"2026","num_nodes":"15","size_leaf_vector":"0"}},{"base_weights":[-3.9171007E-2,6.603603E-1,-5.2208148E-2,-1.4683351E-1,7.004917E-1,6.775519E-1,-6.5217406E-2,3.0883333E-2,-3.3999202E-1,5.3421694E-1,9.2296195E-1,3.1921715E-3,7.617899E-1,-9.38965E-2,2.3725092E-1],"categories":[],"categories_nodes":[],"categories_segments":[],"categories_sizes":[],"default_left":[0,0,0,0,1,0,1,0,0,0,0,0,0,0,0],"id":24,"left_children":[1,3,5,7,9,11,13,-1,-1,-1,-1,-1,-1,-1,-1],"loss_changes":[3.3395035E1,2.2732468E0,3.4145332E1,1.4781016E-1,1.8743744E0,3.5763874E0,3.0643326E1,0E0,0E0,0E0,0E0,0E0,0E0,0E0,0E0],"parents":[2147483647,0,0,1,1,2,2,3,3,4,4,5,5,6,6],"right_children":[2,4,6,8,10,12,14,-1,-1,-1,-1,-1,-1,-1,-1],"split_conditions":[8.000001E0,3E0,1.0000001E1,6E0,2.0530164E-2,2.000001E0,3.5E0,3.0883334E-3,-3.39992E-2,5.3421695E-2,9.22962E-2,3.1921716E-4,7.617899E-2,-9.38965E-3,2.3725092E-2],"split_indices":[807,298,585,0,2018,539,64,0,0,0,0,0,0,0,0],"split_type":[0,0,0,0,0,0,0,0,0,0,0,0,0,0,0],"sum_hessian":[3.657E3,6.6E1,3.591E3,3E0,6.3E1,6.2E1,3.529E3,2E0,1E0,3.8E1,2.5E1,7E0,5.5E1,3.224E3,3.05E2],"tree_param":{"num_deleted":"0","num_feature":"2026","num_nodes":"15","size_leaf_vector":"0"}},{"base_weights":[-3.5197694E-2,7.036992E-2,-1.1469798E-1,2.4583472E-1,-1.8353315E-2,-1.5822935E-1,1.2977129E-1,8.2876164E-1,1.9112906E-1,8.4875166E-1,-3.437731E-2,-1.676237E-1,1.1257919E0,4.3077117E-1,6.469174E-2],"categories":[],"categories_nodes":[],"categories_segments":[],"categories_sizes":[],"default_left":[1,0,1,0,0,1,0,0,0,0,0,0,0,0,0],"id":25,"left_children":[1,3,5,7,9,11,13,-1,-1,-1,-1,-1,-1,-1,-1],"loss_changes":[3.0708405E1,2.44771E1,2.223056E1,1.667921E1,1.4548913E1,2.1563526E1,6.162237E0,0E0,0E0,0E0,0E0,0E0,0E0,0E0,0E0],"parents":[2147483647,0,0,1,1,2,2,3,3,4,4,5,5,6,6],"right_children":[2,4,6,8,10,12,14,-1,-1,-1,-1,-1,-1,-1,-1],"split_conditions":[-2.688773E-3,2.5E0,2.5E0,2.4E1,2.000001E0,2.5E0,6.000001E0,8.287617E-2,1.9112905E-2,8.487517E-2,-3.4377312E-3,-1.676237E-2,1.1257919E-1,4.307712E-2,6.469174E-3],"split_indices":[2017,33,14,262,639,262,21,0,0,0,0,0,0,0,0],"split_type":[0,0,0,0,0,0,0,0,0,0,0,0,0,0,0],"sum_hessian":[3.657E3,1.571E3,2.086E3,5.27E2,1.044E3,1.771E3,3.15E2,4.4E1,4.83E2,1.8E1,1.026E3,1.759E3,1.2E1,5.5E1,2.6E2],"tree_param":{"num_deleted":"0","num_feature":"2026","num_nodes":"15","size_leaf_vector":"0"}},{"base_weights":[-3.158804E-2,-9.0968005E-2,9.865057E-2,-1.6225691E-1,4.5039386E-2,1.0715754E0,8.217519E-2,-9.416837E-2,-2.6729158E-1,3.1959605E-1,-1.3366266E-3,-4.0187817E-2,1.204735E0,-1.2360356E-1,1.5453061E-1],"categories":[],"categories_nodes":[],"categories_segments":[],"categories_sizes":[],"default_left":[1,1,0,1,0,0,0,0,0,0,0,0,0,0,0],"id":26,"left_children":[1,3,5,7,9,11,13,-1,-1,-1,-1,-1,-1,-1,-1],"loss_changes":[2.829835E1,2.4372902E1,1.828152E1,1.176791E1,1.1014337E1,2.8612118E0,1.6814129E1,0E0,0E0,0E0,0E0,0E0,0E0,0E0,0E0],"parents":[2147483647,0,0,1,1,2,2,3,3,4,4,5,5,6,6],"right_children":[2,4,6,8,10,12,14,-1,-1,-1,-1,-1,-1,-1,-1],"split_conditions":[3.4081838E-3,1.5E0,4.000001E0,2.322656E-3,6.000001E0,2.000001E0,2.6E1,-9.416837E-3,-2.6729157E-2,3.1959604E-2,-1.3366266E-4,-4.0187817E-3,1.20473504E-1,-1.2360356E-2,1.5453062E-2],"split_indices":[2019,14,1401,2017,303,303,5,0,0,0,0,0,0,0,0],"split_type":[0,0,0,0,0,0,0,0,0,0,0,0,0,0,0],"sum_hessian":[3.657E3,2.512E3,1.145E3,1.648E3,8.64E2,1.8E1,1.127E3,1.001E3,6.47E2,1.24E2,7.4E2,2E0,1.6E1,2.93E2,8.34E2],"tree_param":{"num_deleted":"0","num_feature":"2026","num_nodes":"15","size_leaf_vector":"0"}},{"base_weights":[-2.8397735E-2,1.6778938E-1,-6.481602E-2,7.519785E-1,1.2605995E-1,-1.8829527E-1,1.0963206E-3,-3.139577E-1,8.866168E-1,-1.4795531E-2,2.3360358E-1,-2.5013274E-1,5.0153606E-2,9.988922E-2,-1.11556046E-1],"categories":[],"categories_nodes":[],"categories_segments":[],"categories_sizes":[],"default_left":[0,1,0,0,1,1,0,0,0,0,0,0,0,0,0],"id":27,"left_children":[1,3,5,7,9,11,13,-1,-1,-1,-1,-1,-1,-1,-1],"loss_changes":[2.6146545E1,1.387373E1,2.5116564E1,5.731962E0,8.122843E0,1.5848755E1,2.2414333E1,0E0,0E0,0E0,0E0,0E0,0E0,0E0,0E0],"parents":[2147483647,0,0,1,1,2,2,3,3,4,4,5,5,6,6],"right_children":[2,4,6,8,10,12,14,-1,-1,-1,-1,-1,-1,-1,-1],"split_conditions":[2.6E1,-2.6820324E-2,2.7E1,2E0,1.5E0,2.5E0,1.55E1,-3.139577E-2,8.8661686E-2,-1.4795531E-3,2.3360359E-2,-2.5013274E-2,5.0153607E-3,9.988922E-3,-1.1155604E-2],"split_indices":[82,2017,5,681,9,64,9,0,0,0,0,0,0,0,0],"split_type":[0,0,0,0,0,0,0,0,0,0,0,0,0,0,0],"sum_hessian":[3.657E3,5.72E2,3.085E3,3.7E1,5.35E2,1.073E3,2.012E3,4E0,3.3E1,2.32E2,3.03E2,8.52E2,2.21E2,1.072E3,9.4E2],"tree_param":{"num_deleted":"0","num_feature":"2026","num_nodes":"15","size_leaf_vector":"0"}},{"base_weights":[-2.5542112E-2,7.624082E-1,-3.4244094E-2,-5.456532E-2,8.806777E-1,8.881524E-1,-4.1942604E-2,-4.202605E-1,4.512167E-1,9.6426713E-1,1.8628746E-1,-3.8642004E-1,9.9299407E-1,8.178496E-1,-5.039333E-2],"categories":[],"categories_nodes":[],"categories_segments":[],"categories_sizes":[],"default_left":[0,0,0,1,1,0,0,0,0,0,0,0,0,0,0],"id":28,"left_children":[1,3,5,7,9,11,13,-1,-1,-1,-1,-1,-1,-1,-1],"loss_changes":[2.510802E1,3.9129772E0,2.5736057E1,1.2994008E0,1.8519001E0,4.392561E0,2.6125683E1,0E0,0E0,0E0,0E0,0E0,0E0,0E0,0E0],"parents":[2147483647,0,0,1,1,2,2,3,3,4,4,5,5,6,6],"right_children":[2,4,6,8,10,12,14,-1,-1,-1,-1,-1,-1,-1,-1],"split_conditions":[4.000001E0,4.000001E0,6.000001E0,3E0,7.3012495E-3,2.000001E0,1.5E0,-4.202605E-2,4.512167E-2,9.642672E-2,1.8628746E-2,-3.8642004E-2,9.929941E-2,8.1784956E-2,-5.0393334E-3],"split_indices":[716,800,800,9,2025,721,243,0,0,0,0,0,0,0,0],"split_type":[0,0,0,0,0,0,0,0,0,0,0,0,0,0,0],"sum_hessian":[3.657E3,3.9E1,3.618E3,5E0,3.4E1,2.9E1,3.589E3,3E0,2E0,3E1,4E0,2E0,2.7E1,3.4E1,3.555E3],"tree_param":{"num_deleted":"0","num_feature":"2026","num_nodes":"15","size_leaf_vector":"0"}},{"base_weights":[-2.291804E-2,8.134144E-1,-3.0988878E-2,3.7990335E-1,9.716227E-1,8.262837E-1,-3.86153E-2,8.524608E-1,1.8017273E-1,1.6749552E-1,1.1168138E0,1.2631867E0,6.534234E-1,9.935297E-2,-8.67654E-2],"categories":[],"categories_nodes":[],"categories_segments":[],"categories_sizes":[],"default_left":[0,1,0,0,0,0,0,0,0,0,0,0,0,0,0],"id":29,"left_children":[1,3,5,7,9,11,13,-1,-1,-1,-1,-1,-1,-1,-1],"loss_changes":[2.4716354E1,2.031353E0,2.372534E1,8.8463604E-1,2.731741E0,1.5913448E0,2.387759E1,0E0,0E0,0E0,0E0,0E0,0E0,0E0,0E0],"parents":[2147483647,0,0,1,1,2,2,3,3,4,4,5,5,6,6],"right_children":[2,4,6,8,10,12,14,-1,-1,-1,-1,-1,-1,-1,-1],"split_conditions":[4.000001E0,-9.579363E-5,6.000001E0,1.5E0,2.000001E0,1.0000001E1,7E0,8.524608E-2,1.8017273E-2,1.6749552E-2,1.1168138E-1,1.2631868E-1,6.5342344E-2,9.935297E-3,-8.67654E-3],"split_indices":[367,2024,639,24,10,26,149,0,0,0,0,0,0,0,0],"split_type":[0,0,0,0,0,0,0,0,0,0,0,0,0,0,0],"sum_hessian":[3.657E3,3.4E1,3.623E3,1E1,2.4E1,3.1E1,3.592E3,2E0,8E0,4E0,2E1,7E0,2.4E1,9.29E2,2.663E3],"tree_param":{"num_deleted":"0","num_feature":"2026","num_nodes":"15","size_leaf_vector":"0"}},{"base_weights":[-2.0510161E-2,2.5318557E-1,-4.441686E-2,-2.8009373E-1,3.3343834E-1,-5.838032E-2,4.2167515E-1,7.2290844E-1,-4.1537705E-1,-4.5897487E-1,3.8466313E-1,5.845549E-1,-6.814599E-2,9.718189E-1,2.8574505E-1],"categories":[],"categories_nodes":[],"categories_segments":[],"categories_sizes":[],"default_left":[0,0,1,0,0,0,0,0,0,0,0,0,0,0,0],"id":30,"left_children":[1,3,5,7,9,11,13,-1,-1,-1,-1,-1,-1,-1,-1],"loss_changes":[2.3946127E1,1.2675753E1,2.1924908E1,5.5921693E0,1.0567898E1,2.05586E1,7.0508556E0,0E0,0E0,0E0,0E0,0E0,0E0,0E0,0E0],"parents":[2147483647,0,0,1,1,2,2,3,3,4,4,5,5,6,6],"right_children":[2,4,6,8,10,12,14,-1,-1,-1,-1,-1,-1,-1,-1],"split_conditions":[2.4E1,6.000001E0,1.5E0,2.5E0,1.5E0,1.0000001E1,4.000001E0,7.2290845E-2,-4.1537706E-2,-4.5897488E-2,3.8466316E-2,5.8455493E-2,-6.814599E-3,9.7181894E-2,2.8574506E-2],"split_indices":[262,117,82,1086,1088,585,21,0,0,0,0,0,0,0,0],"split_type":[0,0,0,0,0,0,0,0,0,0,0,0,0,0,0],"sum_hessian":[3.657E3,2.93E2,3.364E3,3.8E1,2.55E2,3.267E3,9.7E1,4E0,3.4E1,1.5E1,2.4E2,4.8E1,3.219E3,1.8E1,7.9E1],"tree_param":{"num_deleted":"0","num_feature":"2026","num_nodes":"15","size_leaf_vector":"0"}},{"base_weights":[-1.8404273E-2,-4.186603E-2,2.4339965E-1,6.731188E-1,-5.003452E-2,2.4461055E-3,4.1451752E-1,-4.5406222E-2,7.833622E-1,8.412534E-1,-5.7322755E-2,-7.6415196E-2,6.387947E-1,5.612957E-1,9.823859E-2],"categories":[],"categories_nodes":[],"categories_segments":[],"categories_sizes":[],"default_left":[1,0,1,0,0,1,1,0,0,0,0,0,0,0,0],"id":31,"left_children":[1,3,5,7,9,11,13,-1,-1,-1,-1,-1,-1,-1,-1],"loss_changes":[2.2479015E1,1.9645567E1,1.2409655E1,3.0456486E0,2.1621166E1,6.3719068E0,8.11528E0,0E0,0E0,0E0,0E0,0E0,0E0,0E0,0E0],"parents":[2147483647,0,0,1,1,2,2,3,3,4,4,5,5,6,6],"right_children":[2,4,6,8,10,12,14,-1,-1,-1,-1,-1,-1,-1,-1],"split_conditions":[1.5E0,4.000001E0,1.5E0,4.000001E0,4.000001E0,1.1589208E-2,1.5E0,-4.5406222E-3,7.8336224E-2,8.412534E-2,-5.7322755E-3,-7.64152E-3,6.3879475E-2,5.612957E-2,9.823859E-3],"split_indices":[45,716,9,800,800,2019,26,0,0,0,0,0,0,0,0],"split_type":[0,0,0,0,0,0,0,0,0,0,0,0,0,0,0],"sum_hessian":[3.657E3,3.357E3,3E2,3.7E1,3.32E3,1.25E2,1.75E2,5E0,3.2E1,2.6E1,3.294E3,1.12E2,1.3E1,1.19E2,5.6E1],"tree_param":{"num_deleted":"0","num_feature":"2026","num_nodes":"15","size_leaf_vector":"0"}},{"base_weights":[-1.6488835E-2,5.5043536E-1,-2.7058832E-2,1.0942268E-1,6.1698174E-1,7.3357E-1,-3.4317702E-2,-1.5705343E-1,3.13249E-1,5.248889E-1,1.0065386E0,3.4482107E-1,8.811811E-1,7.3231673E-1,-4.170036E-2],"categories":[],"categories_nodes":[],"categories_segments":[],"categories_sizes":[],"default_left":[0,0,0,0,1,1,0,0,0,0,0,0,0,0,0],"id":32,"left_children":[1,3,5,7,9,11,13,-1,-1,-1,-1,-1,-1,-1,-1],"loss_changes":[2.1935047E1,1.8987904E0,1.9857706E1,5.923452E-1,1.5524521E0,1.6471939E0,2.0173763E1,0E0,0E0,0E0,0E0,0E0,0E0,0E0,0E0],"parents":[2147483647,0,0,1,1,2,2,3,3,4,4,5,5,6,6],"right_children":[2,4,6,8,10,12,14,-1,-1,-1,-1,-1,-1,-1,-1],"split_conditions":[8.000001E0,5E0,4.000001E0,4.000001E0,4.8469135E-4,-9.579363E-5,1.5E0,-1.5705343E-2,3.13249E-2,5.248889E-2,1.00653864E-1,3.4482107E-2,8.811811E-2,7.3231675E-2,-4.170036E-3],"split_indices":[807,1090,367,165,2017,2024,243,0,0,0,0,0,0,0,0],"split_type":[0,0,0,0,0,0,0,0,0,0,0,0,0,0,0],"sum_hessian":[3.657E3,6.6E1,3.591E3,9E0,5.7E1,3.3E1,3.558E3,4E0,5E0,4.8E1,9E0,1E1,2.3E1,3.3E1,3.525E3],"tree_param":{"num_deleted":"0","num_feature":"2026","num_nodes":"15","size_leaf_vector":"0"}},{"base_weights":[-1.4741418E-2,1.613534E-1,-4.6222694E-2,6.7948097E-1,1.09836146E-1,4.0095776E-1,-5.894588E-2,-1.2022877E-1,8.579594E-1,-4.9814826E-1,1.5330683E-1,3.279626E-1,1.5178864E0,7.019177E-1,-6.5533556E-2],"categories":[],"categories_nodes":[],"categories_segments":[],"categories_sizes":[],"default_left":[0,0,0,0,0,1,0,0,0,0,0,0,0,0,0],"id":33,"left_children":[1,3,5,7,9,11,13,-1,-1,-1,-1,-1,-1,-1,-1],"loss_changes":[2.0286276E1,1.473971E1,1.7684029E1,7.2397003E0,1.3449697E1,6.5137997E0,1.5178204E1,0E0,0E0,0E0,0E0,0E0,0E0,0E0,0E0],"parents":[2147483647,0,0,1,1,2,2,3,3,4,4,5,5,6,6],"right_children":[2,4,6,8,10,12,14,-1,-1,-1,-1,-1,-1,-1,-1],"split_conditions":[1.8E1,6.000001E0,1.0000001E1,6.000001E0,4.000001E0,1.7296534E-4,2.000001E0,-1.2022877E-2,8.579594E-2,-4.9814828E-2,1.53306825E-2,3.279626E-2,1.5178864E-1,7.019177E-2,-6.5533556E-3],"split_indices":[1118,1423,1387,280,1022,2020,639,0,0,0,0,0,0,0,0],"split_type":[0,0,0,0,0,0,0,0,0,0,0,0,0,0,0],"sum_hessian":[3.657E3,5.54E2,3.103E3,4.9E1,5.05E2,8.5E1,3.018E3,9E0,4E1,3.3E1,4.72E2,8.1E1,4E0,2.5E1,2.993E3],"tree_param":{"num_deleted":"0","num_feature":"2026","num_nodes":"15","size_leaf_vector":"0"}},{"base_weights":[-1.3188678E-2,-1.0977064E-1,3.8719524E-2,-1.6589035E-1,7.634198E-2,1.19079985E-1,-6.744728E-2,-1.8067396E-1,4.5901963E-1,3.0269402E-1,-4.539491E-2,1.10304385E-1,1.2883682E0,-9.546026E-2,2.695622E-1],"categories":[],"categories_nodes":[],"categories_segments":[],"categories_sizes":[],"default_left":[0,1,0,1,0,1,1,0,0,0,0,0,0,0,0],"id":34,"left_children":[1,3,5,7,9,11,13,-1,-1,-1,-1,-1,-1,-1,-1],"loss_changes":[1.8343254E1,1.3371291E1,2.0313272E1,9.164299E0,8.197694E0,1.3761826E1,9.71183E0,0E0,0E0,0E0,0E0,0E0,0E0,0E0,0E0],"parents":[2147483647,0,0,1,1,2,2,3,3,4,4,5,5,6,6],"right_children":[2,4,6,8,10,12,14,-1,-1,-1,-1,-1,-1,-1,-1],"split_conditions":[2.7E1,2.5E0,1.8E1,2.5E0,9E0,2.5E0,1.8539128E-4,-1.8067395E-2,4.5901965E-2,3.0269403E-2,-4.539491E-3,1.1030438E-2,1.2883683E-1,-9.546026E-3,2.6956221E-2],"split_indices":[5,64,9,45,118,262,2023,0,0,0,0,0,0,0,0],"split_type":[0,0,0,0,0,0,0,0,0,0,0,0,0,0,0],"sum_hessian":[3.657E3,1.278E3,2.379E3,9.82E2,2.96E2,1.354E3,1.025E3,9.6E2,2.2E1,1.03E2,1.93E2,1.345E3,9E0,9.47E2,7.8E1],"tree_param":{"num_deleted":"0","num_feature":"2026","num_nodes":"15","size_leaf_vector":"0"}},{"base_weights":[-1.181217E-2,4.0754974E-1,-2.3228873E-2,-8.7340385E-2,5.9000725E-1,2.1041161E-1,-4.3457806E-2,-3.6599055E-1,5.106256E-1,2.2468087E-1,7.6037866E-1,4.3200538E-1,1.5132787E-2,-6.771527E-2,1.6505651E-1],"categories":[],"categories_nodes":[],"categories_segments":[],"categories_sizes":[],"default_left":[0,0,0,1,0,1,1,0,0,0,0,0,0,0,0],"id":35,"left_children":[1,3,5,7,9,11,13,-1,-1,-1,-1,-1,-1,-1,-1],"loss_changes":[1.7522984E1,8.810284E0,1.6844215E1,4.685714E0,4.2482815E0,1.2282873E1,1.6596455E1,0E0,0E0,0E0,0E0,0E0,0E0,0E0,0E0],"parents":[2147483647,0,0,1,1,2,2,3,3,4,4,5,5,6,6],"right_children":[2,4,6,8,10,12,14,-1,-1,-1,-1,-1,-1,-1,-1],"split_conditions":[4.000001E0,4.000001E0,2.4E1,2.0919068E-2,3.5E0,1.5E0,1.5E0,-3.6599055E-2,5.106256E-2,2.2468088E-2,7.603787E-2,4.3200538E-2,1.5132787E-3,-6.771527E-3,1.6505651E-2],"split_indices":[421,61,262,2018,77,48,96,0,0,0,0,0,0,0,0],"split_type":[0,0,0,0,0,0,0,0,0,0,0,0,0,0,0],"sum_hessian":[3.657E3,9.6E1,3.561E3,2.6E1,7E1,2.83E2,3.278E3,1.8E1,8E0,2.3E1,4.7E1,1.32E2,1.51E2,2.937E3,3.41E2],"tree_param":{"num_deleted":"0","num_feature":"2026","num_nodes":"15","size_leaf_vector":"0"}},{"base_weights":[-1.0585188E-2,3.4097037E-1,-2.3429403E-2,-2.6437792E-1,4.2902303E-1,1.3377425E-1,-5.286417E-2,-4.548646E-1,4.6841994E-1,3.2049328E-2,5.140491E-1,5.0193924E-1,8.8317834E-2,-6.296097E-2,4.470532E-1],"categories":[],"categories_nodes":[],"categories_segments":[],"categories_sizes":[],"default_left":[1,0,0,1,0,1,1,0,0,0,0,0,0,0,0],"id":36,"left_children":[1,3,5,7,9,11,13,-1,-1,-1,-1,-1,-1,-1,-1],"loss_changes":[1.6525524E1,6.9894495E0,1.6341274E1,2.5860672E0,3.7976246E0,9.277321E0,1.5039603E1,0E0,0E0,0E0,0E0,0E0,0E0,0E0,0E0],"parents":[2147483647,0,0,1,1,2,2,3,3,4,4,5,5,6,6],"right_children":[2,4,6,8,10,12,14,-1,-1,-1,-1,-1,-1,-1,-1],"split_conditions":[-2.8931495E-4,2.5E0,2.6E1,3.5E0,5.5E0,-2.8358353E-4,2.5E0,-4.548646E-2,4.6841994E-2,3.204933E-3,5.1404912E-2,5.0193924E-2,8.831783E-3,-6.296097E-3,4.470532E-2],"split_indices":[2024,79,82,50,20,2023,45,0,0,0,0,0,0,0,0],"split_type":[0,0,0,0,0,0,0,0,0,0,0,0,0,0,0],"sum_hessian":[3.657E3,1.28E2,3.529E3,1.6E1,1.12E2,5.56E2,2.973E3,1.3E1,3E0,2E1,9.2E1,6E1,4.96E2,2.915E3,5.8E1],"tree_param":{"num_deleted":"0","num_feature":"2026","num_nodes":"15","size_leaf_vector":"0"}},{"base_weights":[-9.4847325E-3,4.732809E-1,-1.8486908E-2,-2.0680898E-1,5.083915E-1,4.932306E-1,-2.7614307E-2,2.8543234E-2,-2.9477414E-1,1.227407E0,4.6540058E-1,-5.1802494E-2,5.8502877E-1,5.561762E-1,-3.5651725E-2],"categories":[],"categories_nodes":[],"categories_segments":[],"categories_sizes":[],"default_left":[0,0,0,0,0,0,0,0,0,0,0,0,0,0,0],"id":37,"left_children":[1,3,5,7,9,11,13,-1,-1,-1,-1,-1,-1,-1,-1],"loss_changes":[1.5906201E1,1.7049904E0,1.6790594E1,9.122498E-2,1.4070759E0,3.1823864E0,1.6583185E1,0E0,0E0,0E0,0E0,0E0,0E0,0E0,0E0],"parents":[2147483647,0,0,1,1,2,2,3,3,4,4,5,5,6,6],"right_children":[2,4,6,8,10,12,14,-1,-1,-1,-1,-1,-1,-1,-1],"split_conditions":[8.000001E0,3E0,1.0000001E1,3E0,2.000001E0,2.000001E0,4.000001E0,2.8543235E-3,-2.9477416E-2,1.227407E-1,4.654006E-2,-5.1802495E-3,5.850288E-2,5.561762E-2,-3.5651724E-3],"split_indices":[807,298,585,0,890,17,1401,0,0,0,0,0,0,0,0],"split_type":[0,0,0,0,0,0,0,0,0,0,0,0,0,0,0],"sum_hessian":[3.657E3,6.6E1,3.591E3,3E0,6.3E1,6.2E1,3.529E3,1E0,2E0,2E0,6.1E1,9E0,5.3E1,4.7E1,3.482E3],"tree_param":{"num_deleted":"0","num_feature":"2026","num_nodes":"15","size_leaf_vector":"0"}},{"base_weights":[-8.46845E-3,6.831567E-1,-1.456813E-2,1.0748845E0,5.304775E-1,6.5175277E-1,-2.1054816E-2,2.1147364E-1,6.9670016E-1,-1.34987E-1,7.0352453E-1,5.989716E-1,-2.785087E-2],"categories":[],"categories_nodes":[],"categories_segments":[],"categories_sizes":[],"default_left":[0,0,0,0,0,0,0,0,0,0,0,0,0],"id":38,"left_children":[1,3,5,-1,7,9,11,-1,-1,-1,-1,-1,-1],"loss_changes":[1.5441928E1,1.3436756E0,1.5690395E1,0E0,1.178308E0,1.5205469E0,1.5156626E1,0E0,0E0,0E0,0E0,0E0,0E0],"parents":[2147483647,0,0,1,1,2,2,4,4,5,5,6,6],"right_children":[2,4,6,-1,8,10,12,-1,-1,-1,-1,-1,-1],"split_conditions":[6.000001E0,1.0000001E1,4.000001E0,1.0748845E-1,1.0000001E1,2.000001E0,8.000001E0,2.1147365E-2,6.9670014E-2,-1.34987E-2,7.035246E-2,5.9897162E-2,-2.785087E-3],"split_indices":[639,26,367,0,2,182,243,0,0,0,0,0,0],"split_type":[0,0,0,0,0,0,0,0,0,0,0,0,0],"sum_hessian":[3.657E3,3.1E1,3.626E3,7E0,2.4E1,3.4E1,3.592E3,9E0,1.5E1,2E0,3.2E1,3.8E1,3.554E3],"tree_param":{"num_deleted":"0","num_feature":"2026","num_nodes":"13","size_leaf_vector":"0"}},{"base_weights":[-7.5362385E-3,-9.9433705E-2,3.582791E-2,-1.07592344E-1,7.7219605E-1,4.721175E-1,2.280568E-2,-1.628787E-1,1.2286836E-2,1.2277088E0,3.36516E-1,2.830543E-2,6.798598E-1,4.0268773E-1,7.076593E-3],"categories":[],"categories_nodes":[],"categories_segments":[],"categories_sizes":[],"default_left":[1,1,0,0,0,0,0,0,0,0,0,0,0,0,0],"id":39,"left_children":[1,3,5,7,9,11,13,-1,-1,-1,-1,-1,-1,-1,-1],"loss_changes":[1.4580894E1,8.424647E0,1.411335E1,7.709997E0,1.7698927E0,6.619049E0,1.4427251E1,0E0,0E0,0E0,0E0,0E0,0E0,0E0,0E0],"parents":[2147483647,0,0,1,1,2,2,3,3,4,4,5,5,6,6],"right_children":[2,4,6,8,10,12,14,-1,-1,-1,-1,-1,-1,-1,-1],"split_conditions":[-6.4509986E-3,1.5E0,4.000001E0,7.5E0,1.5E0,1.5E0,4.000001E0,-1.628787E-2,1.2286836E-3,1.2277088E-1,3.36516E-2,2.830543E-3,6.798598E-2,4.0268775E-2,7.0765935E-4],"split_indices":[2019,303,1387,48,309,9,368,0,0,0,0,0,0,0,0],"split_type":[0,0,0,0,0,0,0,0,0,0,0,0,0,0,0],"sum_hessian":[3.657E3,1.172E3,2.485E3,1.162E3,1E1,7.1E1,2.414E3,7.95E2,3.67E2,4E0,6E0,2.3E1,4.8E1,9.5E1,2.319E3],"tree_param":{"num_deleted":"0","num_feature":"2026","num_nodes":"15","size_leaf_vector":"0"}},{"base_weights":[-6.713411E-3,-9.0840794E-2,3.8499042E-2,6.2873465E-1,-1.0103217E-1,3.0294536E-2,8.1015176E-1,9.0522605E-1,1.6996713E-1,5.22771E-1,-1.1200932E-1,4.2178088E-1,1.4918619E-2,9.624289E-1,1.6753592E-1],"categories":[],"categories_nodes":[],"categories_segments":[],"categories_sizes":[],"default_left":[0,0,1,1,0,1,1,0,0,0,0,0,0,0,0],"id":40,"left_children":[1,3,5,7,9,11,13,-1,-1,-1,-1,-1,-1,-1,-1],"loss_changes":[1.3917086E1,9.443023E0,1.5043305E1,2.1293573E0,8.700197E0,1.4175557E1,2.2851505E0,0E0,0E0,0E0,0E0,0E0,0E0,0E0,0E0],"parents":[2147483647,0,0,1,1,2,2,3,3,4,4,5,5,6,6],"right_children":[2,4,6,8,10,12,14,-1,-1,-1,-1,-1,-1,-1,-1],"split_conditions":[2.7E1,4.000001E0,-9.536743E-7,1.5E0,1.5E0,-2.8909143E-4,1.9959016E-3,9.052261E-2,1.6996713E-2,5.22771E-2,-1.1200932E-2,4.217809E-2,1.4918619E-3,9.62429E-2,1.6753592E-2],"split_indices":[5,1401,1632,54,404,2024,2021,0,0,0,0,0,0,0,0],"split_type":[0,0,0,0,0,0,0,0,0,0,0,0,0,0,0],"sum_hessian":[3.657E3,1.278E3,2.379E3,1.7E1,1.261E3,2.355E3,2.4E1,1E1,7E0,2.1E1,1.24E3,8.8E1,2.267E3,1.9E1,5E0],"tree_param":{"num_deleted":"0","num_feature":"2026","num_nodes":"15","size_leaf_vector":"0"}},{"base_weights":[-5.958622E-3,-2.4752727E-2,1.881686E-1,-1.4915715E-1,1.2636426E-2,9.290995E-1,1.5410021E-1,6.8479496E-1,-1.5879859E-1,2.2013131E-1,-1.9047854E-2,2.24939E-1,1.2953066E0,2.7366427E-1,-6.2718794E-2],"categories":[],"categories_nodes":[],"categories_segments":[],"categories_sizes":[],"default_left":[1,0,0,0,0,1,1,0,0,0,0,0,0,0,0],"id":41,"left_children":[1,3,5,7,9,11,13,-1,-1,-1,-1,-1,-1,-1,-1],"loss_changes":[1.33506775E1,1.5518875E1,8.010097E0,6.3079624E0,1.6873915E1,3.3187943E0,8.053528E0,0E0,0E0,0E0,0E0,0E0,0E0,0E0,0E0],"parents":[2147483647,0,0,1,1,2,2,3,3,4,4,5,5,6,6],"right_children":[2,4,6,8,10,12,14,-1,-1,-1,-1,-1,-1,-1,-1],"split_conditions":[3.5E0,2.5E0,1.5E0,4.000001E0,2.5E0,1.5E0,1.7475948E-2,6.84795E-2,-1.587986E-2,2.2013132E-2,-1.9047855E-3,2.24939E-2,1.2953065E-1,2.7366428E-2,-6.2718797E-3],"split_indices":[64,92,1104,1401,1118,9,2017,0,0,0,0,0,0,0,0],"split_type":[0,0,0,0,0,0,0,0,0,0,0,0,0,0,0],"sum_hessian":[3.657E3,3.335E3,3.22E2,7.7E2,2.565E3,1.3E1,3.09E2,8E0,7.62E2,3.39E2,2.226E3,5E0,8E0,1.99E2,1.1E2],"tree_param":{"num_deleted":"0","num_feature":"2026","num_nodes":"15","size_leaf_vector":"0"}},{"base_weights":[-5.295557E-3,3.5762838E-1,-1.5177175E-2,-8.0733195E-2,5.1929224E-1,6.075236E-1,-2.0816159E-2,-3.203767E-1,4.3415123E-1,1.243075E0,4.3335727E-1,6.5690506E-1,-8.879852E-2,-3.8443707E-2,1.7631948E-1],"categories":[],"categories_nodes":[],"categories_segments":[],"categories_sizes":[],"default_left":[0,0,0,1,1,1,1,0,0,0,0,0,0,0,0],"id":42,"left_children":[1,3,5,7,9,11,13,-1,-1,-1,-1,-1,-1,-1,-1],"loss_changes":[1.3124024E1,6.916044E0,1.2520249E1,3.4705873E0,3.8773785E0,1.1586647E0,1.2277067E1,0E0,0E0,0E0,0E0,0E0,0E0,0E0,0E0],"parents":[2147483647,0,0,1,1,2,2,3,3,4,4,5,5,6,6],"right_children":[2,4,6,8,10,12,14,-1,-1,-1,-1,-1,-1,-1,-1],"split_conditions":[4.000001E0,4.000001E0,6.000001E0,2.0919068E-2,-9.250762E-3,1.5E0,1.5E0,-3.203767E-2,4.3415125E-2,1.24307506E-1,4.333573E-2,6.569051E-2,-8.8798525E-3,-3.8443708E-3,1.7631948E-2],"split_indices":[421,61,639,2018,2022,190,45,0,0,0,0,0,0,0,0],"split_type":[0,0,0,0,0,0,0,0,0,0,0,0,0,0,0],"sum_hessian":[3.657E3,9.6E1,3.561E3,2.6E1,7E1,3.1E1,3.53E3,1.8E1,8E0,6E0,6.4E1,2.9E1,2E0,3.241E3,2.89E2],"tree_param":{"num_deleted":"0","num_feature":"2026","num_nodes":"15","size_leaf_vector":"0"}},{"base_weights":[-4.697758E-3,-2.1706703E-1,1.1683005E-2,1.3380568E0,-2.402463E-1,2.2184313E-3,5.38034E-1,1.0669733E0,-2.5973314E-1,1.1736175E-1,-3.605635E-2,1.022192E0,1.6300143E-1],"categories":[],"categories_nodes":[],"categories_segments":[],"categories_sizes":[],"default_left":[0,0,1,0,0,0,0,0,0,0,0,0,0],"id":43,"left_children":[1,3,5,-1,7,9,11,-1,-1,-1,-1,-1,-1],"loss_changes":[1.2727879E1,9.7656765E0,1.69216E1,0E0,6.8747864E0,1.4715082E1,1.0727884E1,0E0,0E0,0E0,0E0,0E0,0E0],"parents":[2147483647,0,0,1,1,2,2,4,4,5,5,6,6],"right_children":[2,4,6,-1,8,10,12,-1,-1,-1,-1,-1,-1],"split_conditions":[6.000001E0,2.000001E0,1.5E0,1.3380568E-1,2.000001E0,7E0,2.5E0,1.06697336E-1,-2.5973314E-2,1.1736175E-2,-3.6056351E-3,1.022192E-1,1.6300144E-2],"split_indices":[117,1816,262,0,1555,149,33,0,0,0,0,0,0],"split_type":[0,0,0,0,0,0,0,0,0,0,0,0,0],"sum_hessian":[3.657E3,2.61E2,3.396E3,3E0,2.58E2,3.337E3,5.9E1,3E0,2.55E2,8.32E2,2.505E3,2.5E1,3.4E1],"tree_param":{"num_deleted":"0","num_feature":"2026","num_nodes":"13","size_leaf_vector":"0"}},{"base_weights":[-4.134706E-3,6.500984E-1,-9.178604E-3,8.350095E-1,8.344439E-2,5.659679E-1,-1.4772418E-2,2.7671343E-1,9.500961E-1,-2.1142396E-1,4.3116874E-1,-4.7951517E-1,6.789668E-1,6.3311875E-1,-2.0582218E-2],"categories":[],"categories_nodes":[],"categories_segments":[],"categories_sizes":[],"default_left":[0,1,0,1,0,0,0,0,0,0,0,0,0,0,0],"id":44,"left_children":[1,3,5,7,9,11,13,-1,-1,-1,-1,-1,-1,-1,-1],"loss_changes":[1.2076945E1,2.8641815E0,1.1690242E1,1.0863953E0,9.114226E-1,4.4604197E0,1.3552564E1,0E0,0E0,0E0,0E0,0E0,0E0,0E0,0E0],"parents":[2147483647,0,0,1,1,2,2,3,3,4,4,5,5,6,6],"right_children":[2,4,6,8,10,12,14,-1,-1,-1,-1,-1,-1,-1,-1],"split_conditions":[4.000001E0,2.1965263E-2,6.000001E0,-8.655036E-3,4E0,2.000001E0,4.000001E0,2.7671343E-2,9.500961E-2,-2.1142397E-2,4.3116875E-2,-4.7951516E-2,6.789669E-2,6.3311875E-2,-2.0582217E-3],"split_indices":[886,2022,800,2022,102,721,716,0,0,0,0,0,0,0,0],"split_type":[0,0,0,0,0,0,0,0,0,0,0,0,0,0,0],"sum_hessian":[3.657E3,2.7E1,3.63E3,2E1,7E0,3.4E1,3.596E3,4E0,1.6E1,4E0,3E0,3E0,3.1E1,3.1E1,3.565E3],"tree_param":{"num_deleted":"0","num_feature":"2026","num_nodes":"15","size_leaf_vector":"0"}},{"base_weights":[-3.6594982E-3,5.69066E-1,-9.189778E-3,-1.3293213E-1,6.1563957E-1,5.2141815E-1,-1.49579095E-2,2.5319862E-1,7.6221395E-1,1.2528602E0,4.020288E-1,4.0909287E-1,-2.2534596E-2],"categories":[],"categories_nodes":[],"categories_segments":[],"categories_sizes":[],"default_left":[0,0,0,0,1,0,0,0,0,0,0,0,0],"id":45,"left_children":[1,3,5,-1,7,9,11,-1,-1,-1,-1,-1,-1],"loss_changes":[1.1591331E1,1.2261486E0,1.1099473E1,0E0,1.5601177E0,2.9020433E0,1.1530678E1,0E0,0E0,0E0,0E0,0E0,0E0],"parents":[2147483647,0,0,1,1,2,2,4,4,5,5,6,6],"right_children":[2,4,6,-1,8,10,12,-1,-1,-1,-1,-1,-1],"split_conditions":[4.000001E0,2.000001E0,8.000001E0,-1.3293213E-2,-9.579363E-5,1.5E0,8.000001E0,2.5319863E-2,7.62214E-2,1.2528603E-1,4.0202882E-2,4.0909287E-2,-2.2534595E-3],"split_indices":[367,182,243,0,2024,187,807,0,0,0,0,0,0],"split_type":[0,0,0,0,0,0,0,0,0,0,0,0,0],"sum_hessian":[3.657E3,3.4E1,3.623E3,2E0,3.2E1,3.8E1,3.585E3,1E1,2.2E1,4E0,3.4E1,6.2E1,3.523E3],"tree_param":{"num_deleted":"0","num_feature":"2026","num_nodes":"13","size_leaf_vector":"0"}},{"base_weights":[-3.2136098E-3,4.3249022E-2,-6.8595424E-2,5.4523814E-1,3.2934867E-2,9.059367E-2,-1.13847226E-1,-1.952467E-1,6.946448E-1,1.4425057E-2,2.9764146E-1,2.5594592E-1,-3.5614766E-2,5.573946E-1,-1.2351954E-1],"categories":[],"categories_nodes":[],"categories_segments":[],"categories_sizes":[],"default_left":[1,0,0,0,1,0,0,0,0,0,0,0,0,0,0],"id":46,"left_children":[1,3,5,7,9,11,13,-1,-1,-1,-1,-1,-1,-1,-1],"loss_changes":[1.111528E1,1.1056913E1,1.0959776E1,4.8928633E0,1.0270312E1,7.041917E0,7.755925E0,0E0,0E0,0E0,0E0,0E0,0E0,0E0,0E0],"parents":[2147483647,0,0,1,1,2,2,3,3,4,4,5,5,6,6],"right_children":[2,4,6,8,10,12,14,-1,-1,-1,-1,-1,-1,-1,-1],"split_conditions":[2.322656E-3,6.000001E0,4.5E0,2.000001E0,3.5E0,4.5E0,4.000001E0,-1.952467E-2,6.946448E-2,1.4425057E-3,2.9764146E-2,2.5594592E-2,-3.5614767E-3,5.5739462E-2,-1.2351954E-2],"split_indices":[2017,1423,24,280,64,45,601,0,0,0,0,0,0,0,0],"split_type":[0,0,0,0,0,0,0,0,0,0,0,0,0,0,0],"sum_hessian":[3.657E3,2.138E3,1.519E3,4.2E1,2.096E3,3.36E2,1.183E3,7E0,3.5E1,1.96E3,1.36E2,1.45E2,1.91E2,1.6E1,1.167E3],"tree_param":{"num_deleted":"0","num_feature":"2026","num_nodes":"15","size_leaf_vector":"0"}},{"base_weights":[-2.852179E-3,-7.705899E-2,3.702739E-2,7.3886704E-1,-8.342294E-2,3.157258E-2,8.9496404E-1,1.2891765E0,-4.0889126E-1,-9.071656E-2,6.887523E-1,4.013566E-1,1.8790888E-2,-2.8846866E-1,1.0992205E0],"categories":[],"categories_nodes":[],"categories_segments":[],"categories_sizes":[],"default_left":[0,0,1,1,1,0,0,0,0,0,0,0,0,0,0],"id":47,"left_children":[1,3,5,7,9,11,13,-1,-1,-1,-1,-1,-1,-1,-1],"loss_changes":[1.0828104E1,6.702851E0,1.11098585E1,6.8433557E0,7.215069E0,1.1175276E1,3.9429474E0,0E0,0E0,0E0,0E0,0E0,0E0,0E0,0E0],"parents":[2147483647,0,0,1,1,2,2,3,3,4,4,5,5,6,6],"right_children":[2,4,6,8,10,12,14,-1,-1,-1,-1,-1,-1,-1,-1],"split_conditions":[2.7E1,6.000001E0,2.5E0,-5.466963E-3,1.25E1,2.5E0,2.000001E0,1.2891765E-1,-4.0889125E-2,-9.0716565E-3,6.887523E-2,4.0135663E-2,1.8790888E-3,-2.8846866E-2,1.0992205E-1],"split_indices":[5,1900,262,2025,9,60,181,0,0,0,0,0,0,0,0],"split_type":[0,0,0,0,0,0,0,0,0,0,0,0,0,0,0],"sum_hessian":[3.657E3,1.278E3,2.379E3,9E0,1.269E3,2.365E3,1.4E1,6E0,3E0,1.258E3,1.1E1,7.8E1,2.287E3,2E0,1.2E1],"tree_param":{"num_deleted":"0","num_feature":"2026","num_nodes":"15","size_leaf_vector":"0"}},{"base_weights":[-2.4929016E-3,-2.0663069E-1,1.10099455E-2,1.2376394E0,-2.1849754E-1,2.155306E-1,-6.6625704E-3,-2.4642386E-1,3.4973696E-1,-4.9051413E-1,2.5848094E-1,-4.7385123E-2,9.6448004E-2],"categories":[],"categories_nodes":[],"categories_segments":[],"categories_sizes":[],"default_left":[0,0,0,0,1,0,1,0,0,0,0,0,0],"id":48,"left_children":[1,3,5,-1,7,9,11,-1,-1,-1,-1,-1,-1],"loss_changes":[1.0085338E1,4.160963E0,1.2406039E1,0E0,3.6725073E0,8.405475E0,1.3273174E1,0E0,0E0,0E0,0E0,0E0,0E0],"parents":[2147483647,0,0,1,1,2,2,4,4,5,5,6,6],"right_children":[2,4,6,-1,8,10,12,-1,-1,-1,-1,-1,-1],"split_conditions":[6.000001E0,2.000001E0,2.4E1,1.2376394E-1,6.5E0,1.5E0,1.5E0,-2.4642386E-2,3.4973696E-2,-4.9051415E-2,2.5848094E-2,-4.7385124E-3,9.644801E-3],"split_indices":[938,150,262,0,64,1088,14,0,0,0,0,0,0],"split_type":[0,0,0,0,0,0,0,0,0,0,0,0,0],"sum_hessian":[3.657E3,2.26E2,3.431E3,1E0,2.25E2,2.72E2,3.159E3,2.15E2,1E1,1.5E1,2.57E2,2.265E3,8.94E2],"tree_param":{"num_deleted":"0","num_feature":"2026","num_nodes":"13","size_leaf_vector":"0"}},{"base_weights":[-2.211956E-3,-3.563278E-2,7.984315E-2,-8.161708E-2,5.281078E-2,-3.7574962E-1,9.856128E-2,6.3280046E-1,-8.873418E-2,-2.1947512E-1,8.562416E-2,-4.372187E-1,5.690879E-1,7.5120056E-1,8.272017E-2],"categories":[],"categories_nodes":[],"categories_segments":[],"categories_sizes":[],"default_left":[1,1,0,0,0,1,0,0,0,0,0,0,0,0,0],"id":49,"left_children":[1,3,5,7,9,11,13,-1,-1,-1,-1,-1,-1,-1,-1],"loss_changes":[1.003436E1,1.057855E1,9.06802E0,8.755866E0,7.970605E0,2.6881037E0,1.0462484E1,0E0,0E0,0E0,0E0,0E0,0E0,0E0,0E0],"parents":[2147483647,0,0,1,1,2,2,3,3,4,4,5,5,6,6],"right_children":[2,4,6,8,10,12,14,-1,-1,-1,-1,-1,-1,-1,-1],"split_conditions":[4.247263E-3,1.5E0,4.000001E0,2.5E0,4.000001E0,1.5E0,2.000001E0,6.3280046E-2,-8.873418E-3,-2.1947512E-2,8.562416E-3,-4.372187E-2,5.6908794E-2,7.5120054E-2,8.272017E-3],"split_indices":[2019,14,1446,221,938,1133,295,0,0,0,0,0,0,0,0],"split_type":[0,0,0,0,0,0,0,0,0,0,0,0,0,0,0],"sum_hessian":[3.657E3,2.599E3,1.058E3,1.71E3,8.89E2,4.1E1,1.017E3,1.6E1,1.694E3,9.5E1,7.94E2,3.9E1,2E0,2.3E1,9.94E2],"tree_param":{"num_deleted":"0","num_feature":"2026","num_nodes":"15","size_leaf_vector":"0"}}]},"name":"gbtree"},"learner_model_param":{"base_score":"5E-1","boost_from_average":"1","num_class":"0","num_feature":"2026","num_target":"1"},"objective":{"name":"reg:squarederror","reg_loss_param":{"scale_pos_weight":"1"}}},"version":[1,7,7]}