{"learner":{"attributes":{"niter":"49"},"feature_names":[],"feature_types":[],"gradient_booster":{"model":{"gbtree_model_param":{"num_parallel_tree":"1","num_trees":"50","size_leaf_vector":"0"},"tree_info":[0,0,0,0,0,0,0,0,0,0,0,0,0,0,0,0,0,0,0,0,0,0,0,0,0,0,0,0,0,0,0,0,0,0,0,0,0,0,0,0,0,0,0,0,0,0,0,0,0,0],"trees":[{"base_weights":[-4.9986333E-1,1.1072553E0,-6.349513E-1,1.9006343E0,8.5833955E-1,-9.364811E-1,-1.9729412E-1,2.0010922E0,7.5369614E-1,5.2325964E-1,1.3473978E0,-7.084606E-1,-1.0738232E0,4.7841474E-1,-3.233109E-1],"categories":[],"categories_nodes":[],"categories_segments":[],"categories_sizes":[],"default_left":[0,0,1,1,1,0,1,0,0,0,0,0,0,0,0],"id":0,"left_children":[1,3,5,7,9,11,13,-1,-1,-1,-1,-1,-1,-1,-1],"loss_changes":[7.948636E2,5.4454224E1,4.4520276E2,6.2114563E0,3.501941E1,6.1810303E1,1.17492294E2,0E0,0E0,0E0,0E0,0E0,0E0,0E0,0E0],"parents":[2147483647,0,0,1,1,2,2,3,3,4,4,5,5,6,6],"right_children":[2,4,6,8,10,12,14,-1,-1,-1,-1,-1,-1,-1,-1],"split_conditions":[1.6E1,1.0000001E1,1.5E0,1.1616343E-4,2.5E0,2.000001E0,-2.1570886E-2,2.0010923E-1,7.536962E-2,5.2325964E-2,1.3473979E-1,-7.0846066E-2,-1.0738232E-1,4.7841474E-2,-3.233109E-2],"split_indices":[2,625,23,2060,23,23,2057,0,0,0,0,0,0,0,0],"split_type":[0,0,0,0,0,0,0,0,0,0,0,0,0,0,0],"sum_hessian":[3.657E3,2.83E2,3.374E3,6.6E1,2.17E2,1.997E3,1.377E3,6E1,6E0,1.3E2,8.7E1,7.53E2,1.244E3,2.16E2,1.161E3],"tree_param":{"num_deleted":"0","num_feature":"2066","num_nodes":"15","size_leaf_vector":"0"}},{"base_weights":[-4.49795E-1,9.981585E-1,-5.7150435E-1,1.7146825E0,7.733637E-1,-7.72319E-1,-1.756724E-2,7.9784703E-1,1.8254763E0,4.7133312E-1,1.2141892E0,-5.755944E-1,-9.6652716E-1,-3.80682E-1,2.0188636E-1],"categories":[],"categories_nodes":[],"categories_segments":[],"categories_sizes":[],"default_left":[0,0,1,0,1,0,1,0,0,0,0,0,0,0,0],"id":1,"left_children":[1,3,5,7,9,11,13,-1,-1,-1,-1,-1,-1,-1,-1],"loss_changes":[6.452178E2,4.441806E1,3.754171E2,5.3493805E0,2.845285E1,9.4078735E1,7.171532E1,0E0,0E0,0E0,0E0,0E0,0E0,0E0,0E0],"parents":[2147483647,0,0,1,1,2,2,3,3,4,4,5,5,6,6],"right_children":[2,4,6,8,10,12,14,-1,-1,-1,-1,-1,-1,-1,-1],"split_conditions":[1.6E1,1.0000001E1,2.5E0,2.000001E0,2.5E0,4.000001E0,1.5E0,7.9784706E-2,1.8254763E-1,4.713331E-2,1.21418916E-1,-5.755944E-2,-9.665272E-2,-3.80682E-2,2.0188635E-2],"split_indices":[2,625,23,579,23,23,26,0,0,0,0,0,0,0,0],"split_type":[0,0,0,0,0,0,0,0,0,0,0,0,0,0,0],"sum_hessian":[3.657E3,2.83E2,3.374E3,6.6E1,2.17E2,2.476E3,8.98E2,8E0,5.8E1,1.3E2,8.7E1,1.232E3,1.244E3,3.38E2,5.6E2],"tree_param":{"num_deleted":"0","num_feature":"2066","num_nodes":"15","size_leaf_vector":"0"}},{"base_weights":[-4.0474477E-1,8.9985985E-1,-5.144049E-1,1.5471296E0,6.9680053E-1,-6.9514936E-1,-1.5830405E-2,1.636501E0,5.4730463E-1,3.046443E-1,9.861276E-1,-2.8913364E-1,-7.7696085E-1,6.402965E-1,-1.285816E-1],"categories":[],"categories_nodes":[],"categories_segments":[],"categories_sizes":[],"default_left":[0,0,1,1,1,1,1,0,0,0,0,0,0,0,0],"id":2,"left_children":[1,3,5,7,9,11,13,-1,-1,-1,-1,-1,-1,-1,-1],"loss_changes":[5.237878E2,3.6249283E1,3.0412573E2,5.0911713E0,2.4434174E1,8.2053345E1,6.658954E1,0E0,0E0,0E0,0E0,0E0,0E0,0E0,0E0],"parents":[2147483647,0,0,1,1,2,2,3,3,4,4,5,5,6,6],"right_children":[2,4,6,8,10,12,14,-1,-1,-1,-1,-1,-1,-1,-1],"split_conditions":[1.6E1,1.0000001E1,2.5E0,1.1616343E-4,1.5E0,-1.5395854E-2,-2.3620415E-2,1.636501E-1,5.4730464E-2,3.046443E-2,9.861276E-2,-2.8913364E-2,-7.7696085E-2,6.402966E-2,-1.285816E-2],"split_indices":[2,625,23,2060,23,2057,2057,0,0,0,0,0,0,0,0],"split_type":[0,0,0,0,0,0,0,0,0,0,0,0,0,0,0],"sum_hessian":[3.657E3,2.83E2,3.374E3,6.6E1,2.17E2,2.476E3,8.98E2,6E1,6E0,9.3E1,1.24E2,4.16E2,2.06E3,1.31E2,7.67E2],"tree_param":{"num_deleted":"0","num_feature":"2066","num_nodes":"15","size_leaf_vector":"0"}},{"base_weights":[-3.6419046E-1,8.110973E-1,-4.6298084E-1,1.395676E0,6.2771255E-1,-6.911826E-1,-1.3176884E-1,1.4433422E0,-1.0231582E-1,3.7507972E-1,9.966579E-1,-3.5877526E-2,-7.3303604E-1,-3.96053E-1,8.811647E-2],"categories":[],"categories_nodes":[],"categories_segments":[],"categories_sizes":[],"default_left":[0,0,1,1,1,1,1,0,0,0,0,0,0,0,0],"id":3,"left_children":[1,3,5,7,9,11,13,-1,-1,-1,-1,-1,-1,-1,-1],"loss_changes":[4.2509534E2,2.9569519E1,2.550022E2,4.931717E0,1.9945465E1,5.477234E1,8.011351E1,0E0,0E0,0E0,0E0,0E0,0E0,0E0,0E0],"parents":[2147483647,0,0,1,1,2,2,3,3,4,4,5,5,6,6],"right_children":[2,4,6,8,10,12,14,-1,-1,-1,-1,-1,-1,-1,-1],"split_conditions":[1.6E1,1.0000001E1,1.5E0,1.5E0,2.5E0,-2.025857E-4,1.5E0,1.4433423E-1,-1.0231582E-2,3.7507974E-2,9.966579E-2,-3.5877526E-3,-7.33036E-2,-3.96053E-2,8.811647E-3],"split_indices":[2,625,23,123,23,2060,26,0,0,0,0,0,0,0,0],"split_type":[0,0,0,0,0,0,0,0,0,0,0,0,0,0,0],"sum_hessian":[3.657E3,2.83E2,3.374E3,6.6E1,2.17E2,1.997E3,1.377E3,6.4E1,2E0,1.3E2,8.7E1,1.2E2,1.877E3,6.25E2,7.52E2],"tree_param":{"num_deleted":"0","num_feature":"2066","num_nodes":"15","size_leaf_vector":"0"}},{"base_weights":[-3.277267E-1,7.309428E-1,-4.1671467E-1,3.5794994E-1,9.826364E-1,-5.660504E-1,-4.788816E-3,2.987451E-1,1.9409996E0,1.4463625E0,8.078339E-1,-3.9960945E-1,-7.3043245E-1,3.377688E-1,-1.7520468E-1],"categories":[],"categories_nodes":[],"categories_segments":[],"categories_sizes":[],"default_left":[0,1,1,1,0,0,0,0,0,0,0,0,0,0,0],"id":4,"left_children":[1,3,5,7,9,11,13,-1,-1,-1,-1,-1,-1,-1,-1],"loss_changes":[3.4492053E2,2.6310165E1,2.0761127E2,1.0292148E1,1.25308075E1,6.747858E1,5.2540325E1,0E0,0E0,0E0,0E0,0E0,0E0,0E0,0E0],"parents":[2147483647,0,0,1,1,2,2,3,3,4,4,5,5,6,6],"right_children":[2,4,6,8,10,12,14,-1,-1,-1,-1,-1,-1,-1,-1],"split_conditions":[1.6E1,1.5E0,2.5E0,3.5E0,1.0000001E1,4.000001E0,2.2E1,2.987451E-2,1.9409996E-1,1.4463626E-1,8.078339E-2,-3.9960947E-2,-7.304325E-2,3.377688E-2,-1.7520469E-2],"split_indices":[2,23,23,302,625,23,85,0,0,0,0,0,0,0,0],"split_type":[0,0,0,0,0,0,0,0,0,0,0,0,0,0,0],"sum_hessian":[3.657E3,2.83E2,3.374E3,1.15E2,1.68E2,2.476E3,8.98E2,1.12E2,3E0,4.4E1,1.24E2,1.232E3,1.244E3,2.98E2,6E2],"tree_param":{"num_deleted":"0","num_feature":"2066","num_nodes":"15","size_leaf_vector":"0"}},{"base_weights":[-2.9485762E-1,6.5943086E-1,-3.7507185E-1,3.2408574E-1,8.8570666E-1,-5.615641E-1,-1.0439946E-1,-3.301445E-1,4.4761932E-1,-3.70519E-1,9.342212E-1,3.968262E-1,-5.858627E-1,2.2725265E-1,-2.6599854E-1],"categories":[],"categories_nodes":[],"categories_segments":[],"categories_sizes":[],"default_left":[0,1,1,0,0,1,1,0,0,0,0,0,0,0,0],"id":5,"left_children":[1,3,5,7,9,11,13,-1,-1,-1,-1,-1,-1,-1,-1],"loss_changes":[2.802582E2,2.1262993E1,1.7030563E2,9.522827E0,1.0645889E1,4.6760986E1,7.391391E1,0E0,0E0,0E0,0E0,0E0,0E0,0E0,0E0],"parents":[2147483647,0,0,1,1,2,2,3,3,4,4,5,5,6,6],"right_children":[2,4,6,8,10,12,14,-1,-1,-1,-1,-1,-1,-1,-1],"split_conditions":[1.6E1,1.5E0,1.5E0,4.000001E0,2E0,-3.872696E-4,-1.1495136E-2,-3.301445E-2,4.4761933E-2,-3.70519E-2,9.342212E-2,3.9682623E-2,-5.858627E-2,2.2725265E-2,-2.6599854E-2],"split_indices":[2,23,23,142,1335,2060,2057,0,0,0,0,0,0,0,0],"split_type":[0,0,0,0,0,0,0,0,0,0,0,0,0,0,0],"sum_hessian":[3.657E3,2.83E2,3.374E3,1.15E2,1.68E2,1.997E3,1.377E3,1.8E1,9.7E1,6E0,1.62E2,4.9E1,1.948E3,4.51E2,9.26E2],"tree_param":{"num_deleted":"0","num_feature":"2066","num_nodes":"15","size_leaf_vector":"0"}},{"base_weights":[-2.6535946E-1,5.937276E-1,-3.375714E-1,1.0794579E0,4.4172E-1,-4.615669E-1,4.4467505E-3,2.8899014E-1,1.1817418E0,1.0878882E0,3.079291E-1,-1.6999604E-1,-5.383894E-1,-5.7960933E-1,9.1713816E-2],"categories":[],"categories_nodes":[],"categories_segments":[],"categories_sizes":[],"default_left":[0,0,1,0,0,1,0,0,0,0,0,0,0,0,0],"id":6,"left_children":[1,3,5,7,9,11,13,-1,-1,-1,-1,-1,-1,-1,-1],"loss_changes":[2.2712949E2,2.0492233E1,1.4313138E2,5.0755844E0,1.8511425E1,5.5391296E1,4.587417E1,0E0,0E0,0E0,0E0,0E0,0E0,0E0,0E0],"parents":[2147483647,0,0,1,1,2,2,3,3,4,4,5,5,6,6],"right_children":[2,4,6,8,10,12,14,-1,-1,-1,-1,-1,-1,-1,-1],"split_conditions":[1.6E1,1.0000001E1,2.5E0,2.000001E0,2.2E1,-1.3240542E-2,6.000001E0,2.8899014E-2,1.1817419E-1,1.08788826E-1,3.079291E-2,-1.6999604E-2,-5.383894E-2,-5.7960935E-2,9.171382E-3],"split_indices":[2,625,23,579,302,2057,34,0,0,0,0,0,0,0,0],"split_type":[0,0,0,0,0,0,0,0,0,0,0,0,0,0,0],"sum_hessian":[3.657E3,2.83E2,3.374E3,6.6E1,2.17E2,2.476E3,8.98E2,8E0,5.8E1,3.6E1,1.81E2,5.17E2,1.959E3,1.16E2,7.82E2],"tree_param":{"num_deleted":"0","num_feature":"2066","num_nodes":"15","size_leaf_vector":"0"}},{"base_weights":[-2.3877786E-1,5.353642E-1,-3.0384973E-1,6.8031406E-1,1.1482652E-1,-4.6060777E-1,-6.778952E-2,3.6737075E-1,8.763914E-1,6.779331E-1,-6.5011114E-2,-3.324552E-1,-6.290963E-1,-1.315599E-1,5.741289E-1],"categories":[],"categories_nodes":[],"categories_segments":[],"categories_sizes":[],"default_left":[0,0,1,0,1,0,1,0,0,0,0,0,0,0,0],"id":7,"left_children":[1,3,5,7,9,11,13,-1,-1,-1,-1,-1,-1,-1,-1],"loss_changes":[1.8443398E2,1.7233635E1,1.248584E2,1.2625229E1,7.5378876E0,4.3579926E1,5.525643E1,0E0,0E0,0E0,0E0,0E0,0E0,0E0,0E0],"parents":[2147483647,0,0,1,1,2,2,3,3,4,4,5,5,6,6],"right_children":[2,4,6,8,10,12,14,-1,-1,-1,-1,-1,-1,-1,-1],"split_conditions":[1.6E1,1.5E1,1.5E0,2.5E0,-2.9531034E-4,3.6E1,5.5E0,3.6737077E-2,8.7639146E-2,6.779331E-2,-6.5011117E-3,-3.324552E-2,-6.290963E-2,-1.3155989E-2,5.7412893E-2],"split_indices":[2,49,26,26,2064,23,49,0,0,0,0,0,0,0,0],"split_type":[0,0,0,0,0,0,0,0,0,0,0,0,0,0,0],"sum_hessian":[3.657E3,2.83E2,3.374E3,2.1E2,7.3E1,2.027E3,1.347E3,8.2E1,1.28E2,1.7E1,5.6E1,1.153E3,8.74E2,1.226E3,1.21E2],"tree_param":{"num_deleted":"0","num_feature":"2066","num_nodes":"15","size_leaf_vector":"0"}},{"base_weights":[-2.1486351E-1,4.8248154E-1,-2.7348015E-1,9.123679E-1,3.481473E-1,-1.3724299E-1,-5.0645036E-1,2.0151645E-1,1.005339E0,9.2528236E-1,2.2890475E-1,5.644752E-1,-1.9028056E-1,1.3667486E0,-5.166246E-1],"categories":[],"categories_nodes":[],"categories_segments":[],"categories_sizes":[],"default_left":[0,0,0,0,0,1,0,0,0,0,0,0,0,0,0],"id":8,"left_children":[1,3,5,7,9,11,13,-1,-1,-1,-1,-1,-1,-1,-1],"loss_changes":[1.4965642E2,1.6082916E1,1.0705026E2,4.2253456E0,1.4790749E1,7.9417755E1,2.4433899E1,0E0,0E0,0E0,0E0,0E0,0E0,0E0,0E0],"parents":[2147483647,0,0,1,1,2,2,3,3,4,4,5,5,6,6],"right_children":[2,4,6,8,10,12,14,-1,-1,-1,-1,-1,-1,-1,-1],"split_conditions":[1.6E1,1.0000001E1,5.6E1,2.000001E0,2.2E1,-2.037053E-4,2.000001E0,2.0151645E-2,1.005339E-1,9.252824E-2,2.2890477E-2,5.6447517E-2,-1.9028056E-2,1.3667487E-1,-5.1662464E-2],"split_indices":[2,625,23,579,302,2060,283,0,0,0,0,0,0,0,0],"split_type":[0,0,0,0,0,0,0,0,0,0,0,0,0,0,0],"sum_hessian":[3.657E3,2.83E2,3.374E3,6.6E1,2.17E2,2.13E3,1.244E3,8E0,5.8E1,3.6E1,1.81E2,1.49E2,1.981E3,6E0,1.238E3],"tree_param":{"num_deleted":"0","num_feature":"2066","num_nodes":"15","size_leaf_vector":"0"}},{"base_weights":[-1.9327913E-1,1.3573505E-1,-3.0420268E-1,8.265482E-1,5.3609833E-2,-3.5968262E-1,1.6498217E-1,-7.3194396E-1,9.006537E-1,1.9721141E-1,-2.9578492E-1,1.2395052E0,-3.6741272E-1,5.442991E-1,-5.977855E-2],"categories":[],"categories_nodes":[],"categories_segments":[],"categories_sizes":[],"default_left":[1,0,1,0,0,0,0,0,0,0,0,0,0,0,0],"id":9,"left_children":[1,3,5,7,9,11,13,-1,-1,-1,-1,-1,-1,-1,-1],"loss_changes":[1.3354152E2,5.232042E1,7.127838E1,1.1977516E1,4.150176E1,3.0704956E1,2.4756645E1,0E0,0E0,0E0,0E0,0E0,0E0,0E0,0E0],"parents":[2147483647,0,0,1,1,2,2,3,3,4,4,5,5,6,6],"right_children":[2,4,6,8,10,12,14,-1,-1,-1,-1,-1,-1,-1,-1],"split_conditions":[-1.3967794E-2,2.4E1,4.5E0,2.5E0,4E1,2.000001E0,3.5E0,-7.31944E-2,9.0065375E-2,1.9721141E-2,-2.9578492E-2,1.2395052E-1,-3.674127E-2,5.4429915E-2,-5.977855E-3],"split_indices":[2057,302,23,762,23,283,85,0,0,0,0,0,0,0,0],"split_type":[0,0,0,0,0,0,0,0,0,0,0,0,0,0,0],"sum_hessian":[3.657E3,9.22E2,2.735E3,9.7E1,8.25E2,2.446E3,2.89E2,4E0,9.3E1,5.85E2,2.4E2,1.1E1,2.435E3,1.07E2,1.82E2],"tree_param":{"num_deleted":"0","num_feature":"2066","num_nodes":"15","size_leaf_vector":"0"}},{"base_weights":[-1.7391223E-1,-2.7868202E-1,1.3063137E-1,6.2533325E-1,-3.0208007E-1,-9.1548204E-2,3.4055513E-1,1.2933176E0,4.6201518E-1,-2.0005621E-1,-4.5507154E-1,1.2478936E0,-1.1520964E-1,9.219718E-1,2.4609487E-1],"categories":[],"categories_nodes":[],"categories_segments":[],"categories_sizes":[],"default_left":[1,1,1,0,0,0,1,0,0,0,0,0,0,0,0],"id":10,"left_children":[1,3,5,7,9,11,13,-1,-1,-1,-1,-1,-1,-1,-1],"loss_changes":[1.1675212E2,5.776512E1,4.373358E1,6.929947E0,4.1334656E1,1.4595831E1,2.6244919E1,0E0,0E0,0E0,0E0,0E0,0E0,0E0,0E0],"parents":[2147483647,0,0,1,1,2,2,3,3,4,4,5,5,6,6],"right_children":[2,4,6,8,10,12,14,-1,-1,-1,-1,-1,-1,-1,-1],"split_conditions":[2.5E0,-3.881295E-4,2.5E0,6.000001E0,3.6E1,2.000001E0,-2.0466818E-4,1.2933175E-1,4.620152E-2,-2.0005621E-2,-4.5507155E-2,1.2478936E-1,-1.1520964E-2,9.219718E-2,2.4609488E-2],"split_indices":[26,2060,23,302,23,283,2060,0,0,0,0,0,0,0,0],"split_type":[0,0,0,0,0,0,0,0,0,0,0,0,0,0,0],"sum_hessian":[3.657E3,2.721E3,9.36E2,6.8E1,2.653E3,4.55E2,4.81E2,1.2E1,5.6E1,1.593E3,1.06E3,7E0,4.48E2,6.6E1,4.15E2],"tree_param":{"num_deleted":"0","num_feature":"2066","num_nodes":"15","size_leaf_vector":"0"}},{"base_weights":[-1.5642802E-1,4.2475796E-1,-2.052874E-1,7.966485E-1,3.0851293E-1,1.6089366E-1,-2.663521E-1,6.2271126E-2,8.81288E-1,2.7043754E-1,1.6087701E0,1.221854E0,1.1481587E-1,9.775804E-1,-2.823686E-1],"categories":[],"categories_nodes":[],"categories_segments":[],"categories_sizes":[],"default_left":[0,0,0,0,1,1,0,0,0,0,0,0,0,0,0],"id":11,"left_children":[1,3,5,7,9,11,13,-1,-1,-1,-1,-1,-1,-1,-1],"loss_changes":[1.03961174E2,1.203167E1,7.551033E1,4.109661E0,1.0357626E1,2.3471996E1,5.7914566E1,0E0,0E0,0E0,0E0,0E0,0E0,0E0,0E0],"parents":[2147483647,0,0,1,1,2,2,3,3,4,4,5,5,6,6],"right_children":[2,4,6,8,10,12,14,-1,-1,-1,-1,-1,-1,-1,-1],"split_conditions":[1.6E1,1.0000001E1,1.8E1,3E0,1.5E0,-3.7410366E-4,8.000001E0,6.227113E-3,8.81288E-2,2.7043754E-2,1.6087702E-1,1.221854E-1,1.1481587E-2,9.775805E-2,-2.823686E-2],"split_indices":[2,625,1158,44,103,2060,847,0,0,0,0,0,0,0,0],"split_type":[0,0,0,0,0,0,0,0,0,0,0,0,0,0,0],"sum_hessian":[3.657E3,2.83E2,3.374E3,6.6E1,2.17E2,4.82E2,2.892E3,7E0,5.9E1,2.12E2,5E0,1.9E1,4.63E2,3.6E1,2.856E3],"tree_param":{"num_deleted":"0","num_feature":"2066","num_nodes":"15","size_leaf_vector":"0"}},{"base_weights":[-1.4065251E-1,-2.757135E-1,4.716622E-2,2.6511896E-1,-3.1422508E-1,1.2060634E0,2.0831328E-2,5.163356E-1,-1.5383288E-1,1.003578E0,-3.2408458E-1,1.7356284E0,1.0044862E0,-5.0880942E-2,4.490068E-1],"categories":[],"categories_nodes":[],"categories_segments":[],"categories_sizes":[],"default_left":[1,0,0,1,0,0,1,0,0,0,0,0,0,0,0],"id":12,"left_children":[1,3,5,7,9,11,13,-1,-1,-1,-1,-1,-1,-1,-1],"loss_changes":[9.280545E1,4.4405945E1,4.6700127E1,1.50246E1,2.6142136E1,1.8860245E0,4.6019592E1,0E0,0E0,0E0,0E0,0E0,0E0,0E0,0E0],"parents":[2147483647,0,0,1,1,2,2,3,3,4,4,5,5,6,6],"right_children":[2,4,6,8,10,12,14,-1,-1,-1,-1,-1,-1,-1,-1],"split_conditions":[1.5E0,1.4000001E1,8.000001E0,1.5E0,2.000001E0,2.5E0,4.5E0,5.1633563E-2,-1.5383288E-2,1.0035779E-1,-3.2408457E-2,1.7356284E-1,1.0044862E-1,-5.088094E-3,4.490068E-2],"split_indices":[26,302,283,88,679,85,49,0,0,0,0,0,0,0,0],"split_type":[0,0,0,0,0,0,0,0,0,0,0,0,0,0,0],"sum_hessian":[3.657E3,2.127E3,1.53E3,1.41E2,1.986E3,3.3E1,1.497E3,8.8E1,5.3E1,1.4E1,1.972E3,7E0,2.6E1,1.283E3,2.14E2],"tree_param":{"num_deleted":"0","num_feature":"2066","num_nodes":"15","size_leaf_vector":"0"}},{"base_weights":[-1.2647298E-1,1.2818536E-1,-2.1233672E-1,6.8788004E-1,6.162572E-2,-2.8325495E-1,4.006543E-2,7.477295E-1,-9.055131E-1,1.7341496E-1,-2.1044949E-1,2.0275588E-1,-3.052294E-1,-3.9347142E-2,5.431687E-1],"categories":[],"categories_nodes":[],"categories_segments":[],"categories_sizes":[],"default_left":[1,0,1,1,0,0,1,0,0,0,0,0,0,0,0],"id":13,"left_children":[1,3,5,7,9,11,13,-1,-1,-1,-1,-1,-1,-1,-1],"loss_changes":[8.001274E1,3.4342205E1,4.898551E1,1.0022709E1,2.5159351E1,2.2873978E1,2.4032963E1,0E0,0E0,0E0,0E0,0E0,0E0,0E0,0E0],"parents":[2147483647,0,0,1,1,2,2,3,3,4,4,5,5,6,6],"right_children":[2,4,6,8,10,12,14,-1,-1,-1,-1,-1,-1,-1,-1],"split_conditions":[-1.3967794E-2,2.4E1,2.5E0,1.5E0,4E1,6.000001E0,5.5E0,7.477295E-2,-9.055131E-2,1.7341496E-2,-2.104495E-2,2.027559E-2,-3.052294E-2,-3.9347145E-3,5.4316875E-2],"split_indices":[2057,302,3,76,23,2,49,0,0,0,0,0,0,0,0],"split_type":[0,0,0,0,0,0,0,0,0,0,0,0,0,0,0],"sum_hessian":[3.657E3,9.22E2,2.735E3,9.7E1,8.25E2,2.135E3,6E2,9.4E1,3E0,5.85E2,2.4E2,9.2E1,2.043E3,5.19E2,8.1E1],"tree_param":{"num_deleted":"0","num_feature":"2066","num_nodes":"15","size_leaf_vector":"0"}},{"base_weights":[-1.1382003E-1,-2.3219475E-1,4.8042584E-2,-2.6118305E-1,2.8804442E-1,-2.0867325E-1,1.7388105E-1,1.04395024E-1,-2.95382E-1,5.783008E-1,5.311011E-2,-3.3030665E-1,1.2072016E-1,6.7485446E-1,1.14375174E-1],"categories":[],"categories_nodes":[],"categories_segments":[],"categories_sizes":[],"default_left":[1,1,0,0,0,1,1,0,0,0,0,0,0,0,0],"id":14,"left_children":[1,3,5,7,9,11,13,-1,-1,-1,-1,-1,-1,-1,-1],"loss_changes":[7.010005E1,3.1941078E1,4.9979393E1,2.5060623E1,7.606699E0,2.0433083E1,3.0866484E1,0E0,0E0,0E0,0E0,0E0,0E0,0E0,0E0],"parents":[2147483647,0,0,1,1,2,2,3,3,4,4,5,5,6,6],"right_children":[2,4,6,8,10,12,14,-1,-1,-1,-1,-1,-1,-1,-1],"split_conditions":[1.5E0,2.2759452E-2,3.2E1,1.2000001E1,2.000001E0,3.5E0,-2.030944E-4,1.0439503E-2,-2.95382E-2,5.7830077E-2,5.3110113E-3,-3.3030666E-2,1.20720165E-2,6.7485444E-2,1.1437518E-2],"split_indices":[23,2059,967,31,23,26,2060,0,0,0,0,0,0,0,0],"split_type":[0,0,0,0,0,0,0,0,0,0,0,0,0,0,0],"sum_hessian":[3.657E3,2.112E3,1.545E3,2.001E3,1.11E2,5.08E2,1.037E3,1.71E2,1.83E3,4.9E1,6.2E1,3.71E2,1.37E2,1.09E2,9.28E2],"tree_param":{"num_deleted":"0","num_feature":"2066","num_nodes":"15","size_leaf_vector":"0"}},{"base_weights":[-1.02410145E-1,3.5199457E-1,-1.4061712E-1,6.7916363E-1,2.4982794E-1,1.2271464E0,-1.52014E-1,7.22733E-1,-4.9122667E-1,2.168422E-1,1.3791838E0,2.809599E-1,1.2891238E0,8.7908804E-1,-1.6632786E-1],"categories":[],"categories_nodes":[],"categories_segments":[],"categories_sizes":[],"default_left":[0,0,0,1,1,0,0,0,0,0,0,0,0,0,0],"id":15,"left_children":[1,3,5,7,9,11,13,-1,-1,-1,-1,-1,-1,-1,-1],"loss_changes":[6.3557602E1,9.323242E0,5.2796852E1,3.7715645E0,7.82201E0,1.279789E0,4.9559517E1,0E0,0E0,0E0,0E0,0E0,0E0,0E0,0E0],"parents":[2147483647,0,0,1,1,2,2,3,3,4,4,5,5,6,6],"right_children":[2,4,6,8,10,12,14,-1,-1,-1,-1,-1,-1,-1,-1],"split_conditions":[1.6E1,1.0000001E1,1.5E0,1.5E0,1.5E0,2.000001E0,8.000001E0,7.227331E-2,-4.912267E-2,2.168422E-2,1.3791838E-1,2.809599E-2,1.2891237E-1,8.7908804E-2,-1.6632786E-2],"split_indices":[2,625,283,123,103,821,847,0,0,0,0,0,0,0,0],"split_type":[0,0,0,0,0,0,0,0,0,0,0,0,0,0,0],"sum_hessian":[3.657E3,2.83E2,3.374E3,6.6E1,2.17E2,2.7E1,3.347E3,6.4E1,2E0,2.12E2,5E0,2E0,2.5E1,4.5E1,3.302E3],"tree_param":{"num_deleted":"0","num_feature":"2066","num_nodes":"15","size_leaf_vector":"0"}},{"base_weights":[-9.205676E-2,2.0781949E-1,-1.4564544E-1,-5.318054E-1,2.5862464E-1,9.8268485E-1,-1.5846169E-1,9.0027586E-2,-6.591729E-1,1.831626E-1,6.7755616E-1,1.4668831E0,7.586592E-1,1.0364971E0,-1.6861291E-1],"categories":[],"categories_nodes":[],"categories_segments":[],"categories_sizes":[],"default_left":[0,0,0,0,1,0,0,0,0,0,0,0,0,0,0],"id":16,"left_children":[1,3,5,7,9,11,13,-1,-1,-1,-1,-1,-1,-1,-1],"loss_changes":[5.8814228E1,2.0992632E1,4.5042587E1,2.910592E0,1.6314877E1,2.6836815E0,3.7414757E1,0E0,0E0,0E0,0E0,0E0,0E0,0E0,0E0],"parents":[2147483647,0,0,1,1,2,2,3,3,4,4,5,5,6,6],"right_children":[2,4,6,8,10,12,14,-1,-1,-1,-1,-1,-1,-1,-1],"split_conditions":[1.8E1,4.000001E0,8.000001E0,2.000001E0,5.5E0,3E0,2.000001E0,9.002759E-3,-6.591729E-2,1.831626E-2,6.775562E-2,1.4668831E-1,7.586592E-2,1.0364971E-1,-1.6861292E-2],"split_indices":[1158,1062,283,820,26,85,679,0,0,0,0,0,0,0,0],"split_type":[0,0,0,0,0,0,0,0,0,0,0,0,0,0,0],"sum_hessian":[3.657E3,5.54E2,3.103E3,3.5E1,5.19E2,3.4E1,3.069E3,6E0,2.9E1,4.41E2,7.8E1,9E0,2.5E1,2.5E1,3.044E3],"tree_param":{"num_deleted":"0","num_feature":"2066","num_nodes":"15","size_leaf_vector":"0"}},{"base_weights":[-8.2758546E-2,-1.5378863E-1,1.236733E-1,2.370583E-1,-1.8354343E-1,4.406325E-1,3.038229E-2,4.5292357E-1,-6.067303E-2,-5.6578808E-2,-2.581883E-1,8.856343E-1,3.3580086E-1,-1.741624E-1,1.3906348E-1],"categories":[],"categories_nodes":[],"categories_segments":[],"categories_sizes":[],"default_left":[1,0,0,1,1,0,0,0,0,0,0,0,0,0,0],"id":17,"left_children":[1,3,5,7,9,11,13,-1,-1,-1,-1,-1,-1,-1,-1],"loss_changes":[5.36558E1,3.1699211E1,2.7693184E1,1.24315605E1,2.3962845E1,9.639111E0,1.6141085E1,0E0,0E0,0E0,0E0,0E0,0E0,0E0,0E0],"parents":[2147483647,0,0,1,1,2,2,3,3,4,4,5,5,6,6],"right_children":[2,4,6,8,10,12,14,-1,-1,-1,-1,-1,-1,-1,-1],"split_conditions":[2.5E0,1.4000001E1,2E1,1.5E0,-2.688773E-3,1.5E0,2.65E1,4.529236E-2,-6.067303E-3,-5.657881E-3,-2.581883E-2,8.8563435E-2,3.3580087E-2,-1.741624E-2,1.3906348E-2],"split_indices":[26,302,32,88,2057,31,967,0,0,0,0,0,0,0,0],"split_type":[0,0,0,0,0,0,0,0,0,0,0,0,0,0,0],"sum_hessian":[3.657E3,2.721E3,9.36E2,1.92E2,2.529E3,2.12E2,7.24E2,1.11E2,8.1E1,9.37E2,1.592E3,3.9E1,1.73E2,2.51E2,4.73E2],"tree_param":{"num_deleted":"0","num_feature":"2066","num_nodes":"15","size_leaf_vector":"0"}},{"base_weights":[-7.444814E-2,1.1374719E-2,-2.2957033E-1,4.6735242E-1,-2.7240684E-2,1.0308373E0,-2.3619583E-1,-1.4884487E-1,5.43406E-1,-2.015687E-1,5.0436843E-2,6.807972E-2,-2.625011E-1],"categories":[],"categories_nodes":[],"categories_segments":[],"categories_sizes":[],"default_left":[0,1,0,0,0,0,0,0,0,0,0,0,0],"id":18,"left_children":[1,3,5,7,9,-1,11,-1,-1,-1,-1,-1,-1],"loss_changes":[4.8701683E1,4.149662E1,1.1124619E1,8.703865E0,2.9435558E1,0E0,1.03991165E1,0E0,0E0,0E0,0E0,0E0,0E0],"parents":[2147483647,0,0,1,1,2,2,3,3,4,4,6,6],"right_children":[2,4,6,8,10,-1,12,-1,-1,-1,-1,-1,-1],"split_conditions":[5.6E1,-2.224675E-4,2.000001E0,4.000001E0,2.65E1,1.0308373E-1,1.2000001E1,-1.4884487E-2,5.43406E-2,-2.015687E-2,5.0436845E-3,6.8079717E-3,-2.625011E-2],"split_indices":[23,2060,283,1116,967,0,31,0,0,0,0,0,0],"split_type":[0,0,0,0,0,0,0,0,0,0,0,0,0],"sum_hessian":[3.657E3,2.355E3,1.302E3,1.83E2,2.172E3,6E0,1.296E3,2E1,1.63E2,6.69E2,1.503E3,1.03E2,1.193E3],"tree_param":{"num_deleted":"0","num_feature":"2066","num_nodes":"13","size_leaf_vector":"0"}},{"base_weights":[-6.6973805E-2,7.016427E-3,-2.3421645E-1,7.336804E-1,-1.2085949E-2,4.9276298E-1,-2.505555E-1,1.4382418E-1,8.2591045E-1,1.0063729E0,-2.4160886E-2,6.0087425E-1,-5.9857E-2,-3.119688E-1,-9.2733294E-2],"categories":[],"categories_nodes":[],"categories_segments":[],"categories_sizes":[],"default_left":[0,0,0,0,0,1,1,0,0,0,0,0,0,0,0],"id":19,"left_children":[1,3,5,7,9,11,13,-1,-1,-1,-1,-1,-1,-1,-1],"loss_changes":[4.526691E1,3.5224987E1,1.3450748E1,3.4173737E0,3.0436844E1,1.5295777E0,1.0613304E1,0E0,0E0,0E0,0E0,0E0,0E0,0E0,0E0],"parents":[2147483647,0,0,1,1,2,2,3,3,4,4,5,5,6,6],"right_children":[2,4,6,8,10,12,14,-1,-1,-1,-1,-1,-1,-1,-1],"split_conditions":[5E1,8.000001E0,4.000001E0,5E0,6.000001E0,-3.6509405E-3,1.5E0,1.4382417E-2,8.259105E-2,1.00637294E-1,-2.4160887E-3,6.0087424E-2,-5.9857E-3,-3.1196881E-2,-9.27333E-3],"split_indices":[26,847,2,1130,679,2062,3,0,0,0,0,0,0,0,0],"split_type":[0,0,0,0,0,0,0,0,0,0,0,0,0,0,0],"sum_hessian":[3.657E3,2.536E3,1.121E3,6.4E1,2.472E3,2.4E1,1.097E3,9E0,5.5E1,2.8E1,2.444E3,2E1,4E0,7.89E2,3.08E2],"tree_param":{"num_deleted":"0","num_feature":"2066","num_nodes":"15","size_leaf_vector":"0"}},{"base_weights":[-6.021934E-2,-9.152699E-2,3.2075685E-1,8.6664855E-1,-1.0209828E-1,5.9403074E-1,7.670525E-2,1.2060597E-1,9.534232E-1,1.9475727E-1,-1.3785377E-1,-4.9464077E-1,6.5947706E-1,-1.0769903E-1,6.981695E-1],"categories":[],"categories_nodes":[],"categories_segments":[],"categories_sizes":[],"default_left":[1,0,0,0,0,0,1,0,0,0,0,0,0,0,0],"id":20,"left_children":[1,3,5,7,9,11,13,-1,-1,-1,-1,-1,-1,-1,-1],"loss_changes":[4.366004E1,3.4335144E1,1.8495073E1,2.280302E0,3.5531403E1,9.659889E0,1.703609E1,0E0,0E0,0E0,0E0,0E0,0E0,0E0,0E0],"parents":[2147483647,0,0,1,1,2,2,3,3,4,4,5,5,6,6],"right_children":[2,4,6,8,10,12,14,-1,-1,-1,-1,-1,-1,-1,-1],"split_conditions":[4.5E0,4.000001E0,2.2E1,4.000001E0,1.2000001E1,2E0,4.8241303E-3,1.2060597E-2,9.534232E-2,1.9475726E-2,-1.3785377E-2,-4.9464077E-2,6.5947704E-2,-1.0769903E-2,6.9816954E-2],"split_indices":[49,283,85,201,31,19,2059,0,0,0,0,0,0,0,0],"split_type":[0,0,0,0,0,0,0,0,0,0,0,0,0,0,0],"sum_hessian":[3.657E3,3.38E3,2.77E2,3.6E1,3.344E3,1.3E2,1.47E2,4E0,3.2E1,3.59E2,2.985E3,7E0,1.23E2,1.14E2,3.3E1],"tree_param":{"num_deleted":"0","num_feature":"2066","num_nodes":"15","size_leaf_vector":"0"}},{"base_weights":[-5.4145847E-2,1.8625595E-1,-9.711261E-2,-4.811005E-1,2.293668E-1,2.4551179E-1,-1.2487528E-1,-6.172341E-1,3.8488127E-2,9.712857E-2,4.0903455E-1,-4.318783E-1,3.6743364E-1,-1.7841236E-1,6.5931976E-2],"categories":[],"categories_nodes":[],"categories_segments":[],"categories_sizes":[],"default_left":[0,0,0,1,1,0,1,0,0,0,0,0,0,0,0],"id":21,"left_children":[1,3,5,7,9,11,13,-1,-1,-1,-1,-1,-1,-1,-1],"loss_changes":[3.780262E1,1.6077866E1,2.955642E1,2.4286952E0,1.2362438E1,1.9401844E1,2.9350006E1,0E0,0E0,0E0,0E0,0E0,0E0,0E0,0E0],"parents":[2147483647,0,0,1,1,2,2,3,3,4,4,5,5,6,6],"right_children":[2,4,6,8,10,12,14,-1,-1,-1,-1,-1,-1,-1,-1],"split_conditions":[1.8E1,1.5E0,2.4E1,2.5E0,2.8837593E-3,6.000001E0,2.5E0,-6.172341E-2,3.8488128E-3,9.712857E-3,4.0903457E-2,-4.318783E-2,3.6743365E-2,-1.7841237E-2,6.5931976E-3],"split_indices":[1158,1062,302,206,2059,34,3,0,0,0,0,0,0,0,0],"split_type":[0,0,0,0,0,0,0,0,0,0,0,0,0,0,0],"sum_hessian":[3.657E3,5.54E2,3.103E3,3.3E1,5.21E2,2.32E2,2.871E3,2.6E1,7E0,3.01E2,2.2E2,3.5E1,1.97E2,2.242E3,6.29E2],"tree_param":{"num_deleted":"0","num_feature":"2066","num_nodes":"15","size_leaf_vector":"0"}},{"base_weights":[-4.873808E-2,-8.104155E-2,2.4560799E-1,-9.4478086E-2,6.102001E-1,1.4114897E-1,6.062479E-1,-2.2488753E-1,-2.9199328E-2,-6.2688506E-1,7.2765374E-1,1.0211381E0,1.0839791E-1,3.1517527E-1,1.0200756E0],"categories":[],"categories_nodes":[],"categories_segments":[],"categories_sizes":[],"default_left":[1,1,1,0,0,0,0,0,0,0,0,0,0,0,0],"id":22,"left_children":[1,3,5,7,9,11,13,-1,-1,-1,-1,-1,-1,-1,-1],"loss_changes":[3.480163E1,3.0679825E1,1.3551727E1,2.7532883E1,9.610067E0,8.016714E0,9.435263E0,0E0,0E0,0E0,0E0,0E0,0E0,0E0,0E0],"parents":[2147483647,0,0,1,1,2,2,3,3,4,4,5,5,6,6],"right_children":[2,4,6,8,10,12,14,-1,-1,-1,-1,-1,-1,-1,-1],"split_conditions":[4.5E0,1.5E0,5.5E0,3.2E1,2.000001E0,2.000001E0,6.5E0,-2.2488754E-2,-2.9199328E-3,-6.268851E-2,7.276537E-2,1.02113806E-1,1.0839791E-2,3.1517528E-2,1.0200756E-1],"split_indices":[26,302,49,45,30,1499,3,0,0,0,0,0,0,0,0],"split_type":[0,0,0,0,0,0,0,0,0,0,0,0,0,0,0],"sum_hessian":[3.657E3,3.296E3,3.61E2,3.234E3,6.2E1,2.81E2,8E1,1.078E3,2.156E3,5E0,5.7E1,9E0,2.72E2,4.8E1,3.2E1],"tree_param":{"num_deleted":"0","num_feature":"2066","num_nodes":"15","size_leaf_vector":"0"}},{"base_weights":[-4.3801084E-2,6.4854443E-1,-5.6702908E-2,1.259431E-1,7.274663E-1,-9.9911526E-2,1.4124574E-1,-2.6891896E-1,2.5827348E-1,-1.6414435E-1,7.79084E-1,8.5500854E-1,-1.07709944E-1,4.0433422E-1,-1.9190263E-2],"categories":[],"categories_nodes":[],"categories_segments":[],"categories_sizes":[],"default_left":[0,0,1,0,0,0,0,0,0,0,0,0,0,0,0],"id":23,"left_children":[1,3,5,7,9,11,13,-1,-1,-1,-1,-1,-1,-1,-1],"loss_changes":[3.2711926E1,2.671774E0,3.0736809E1,5.919771E-1,2.7972145E0,2.20529E1,2.719027E1,0E0,0E0,0E0,0E0,0E0,0E0,0E0,0E0],"parents":[2147483647,0,0,1,1,2,2,3,3,4,4,5,5,6,6],"right_children":[2,4,6,8,10,12,14,-1,-1,-1,-1,-1,-1,-1,-1],"split_conditions":[8.000001E0,5E0,3.5E0,1.5E0,2.000001E0,6.000001E0,2.2E1,-2.6891897E-2,2.5827348E-2,-1.6414436E-2,7.7908404E-2,8.550086E-2,-1.0770994E-2,4.043342E-2,-1.9190264E-3],"split_indices":[847,1130,23,15,676,679,85,0,0,0,0,0,0,0,0],"split_type":[0,0,0,0,0,0,0,0,0,0,0,0,0,0,0],"sum_hessian":[3.657E3,6.6E1,3.591E3,9E0,5.7E1,2.948E3,6.43E2,2E0,7E0,3E0,5.4E1,2.3E1,2.925E3,2.43E2,4E2],"tree_param":{"num_deleted":"0","num_feature":"2066","num_nodes":"15","size_leaf_vector":"0"}},{"base_weights":[-3.93735E-2,2.7703017E-1,-6.598661E-2,-2.5318694E-1,3.2472435E-1,8.986914E-1,-7.40347E-2,-1.0983681E-2,-1.1713626E0,2.3086219E-1,6.160552E-1,1.5281223E0,7.620348E-1,-8.4791645E-2,6.0942084E-1],"categories":[],"categories_nodes":[],"categories_segments":[],"categories_sizes":[],"default_left":[0,0,0,1,0,0,1,0,0,0,0,0,0,0,0],"id":24,"left_children":[1,3,5,7,9,11,13,-1,-1,-1,-1,-1,-1,-1,-1],"loss_changes":[3.0820423E1,7.264082E0,2.6269402E1,5.3243775E0,6.9948044E0,1.2439632E0,2.4665821E1,0E0,0E0,0E0,0E0,0E0,0E0,0E0,0E0],"parents":[2147483647,0,0,1,1,2,2,3,3,4,4,5,5,6,6],"right_children":[2,4,6,8,10,12,14,-1,-1,-1,-1,-1,-1,-1,-1],"split_conditions":[1.6E1,8.000001E0,1.5E0,6.3449615E-3,1.5E0,8.000001E0,9.5E0,-1.0983682E-3,-1.1713626E-1,2.3086218E-2,6.160552E-2,1.5281223E-1,7.620348E-2,-8.479165E-3,6.0942084E-2],"split_indices":[2,58,283,2059,2,33,26,0,0,0,0,0,0,0,0],"split_type":[0,0,0,0,0,0,0,0,0,0,0,0,0,0,0],"sum_hessian":[3.657E3,2.83E2,3.374E3,2.3E1,2.6E2,2.7E1,3.347E3,1.9E1,4E0,1.98E2,6.2E1,3E0,2.4E1,3.296E3,5.1E1],"tree_param":{"num_deleted":"0","num_feature":"2066","num_nodes":"15","size_leaf_vector":"0"}},{"base_weights":[-3.536836E-2,-9.49769E-2,9.537478E-2,-1.5734288E-1,6.969483E-2,6.1007988E-2,5.525496E-1,-2.6134145E-1,-8.3578594E-2,4.896566E-2,6.6961324E-1,-1.7306338E-1,1.1754966E-1,6.6688305E-1,-2.2525874E-1],"categories":[],"categories_nodes":[],"categories_segments":[],"categories_sizes":[],"default_left":[1,1,1,0,1,0,1,0,0,0,0,0,0,0,0],"id":25,"left_children":[1,3,5,7,9,11,13,-1,-1,-1,-1,-1,-1,-1,-1],"loss_changes":[2.8517344E1,2.5819263E1,1.7971817E1,1.3963085E1,8.56036E0,1.4141862E1,7.2645817E0,0E0,0E0,0E0,0E0,0E0,0E0,0E0,0E0],"parents":[2147483647,0,0,1,1,2,2,3,3,4,4,5,5,6,6],"right_children":[2,4,6,8,10,12,14,-1,-1,-1,-1,-1,-1,-1,-1],"split_conditions":[3.4081838E-3,2.5E0,4.5E0,6.5E0,9.5E0,3.5E0,2.5E0,-2.6134146E-2,-8.357859E-3,4.896566E-3,6.6961326E-2,-1.7306339E-2,1.1754966E-2,6.668831E-2,-2.2525875E-2],"split_indices":[2059,3,49,0,104,132,967,0,0,0,0,0,0,0,0],"split_type":[0,0,0,0,0,0,0,0,0,0,0,0,0,0,0],"sum_hessian":[3.657E3,2.512E3,1.145E3,1.822E3,6.9E2,1.066E3,7.9E1,7.55E2,1.067E3,6.68E2,2.2E1,2.07E2,8.59E2,6.9E1,1E1],"tree_param":{"num_deleted":"0","num_feature":"2066","num_nodes":"15","size_leaf_vector":"0"}},{"base_weights":[-3.1810753E-2,1.6779345E-1,-6.886241E-2,1.2524678E-2,3.313651E-1,8.5842603E-1,-7.641085E-2,-1.420757E-2,7.7581453E-1,-2.8312352E-1,4.35393E-1,5.425863E-1,1.108233E0,6.781995E-1,-8.43525E-2],"categories":[],"categories_nodes":[],"categories_segments":[],"categories_sizes":[],"default_left":[0,1,0,1,0,0,0,0,0,0,0,0,0,0,0],"id":26,"left_children":[1,3,5,7,9,11,13,-1,-1,-1,-1,-1,-1,-1,-1],"loss_changes":[2.70649E1,1.4548655E1,2.1666325E1,6.0303364E0,1.7958055E1,1.3711605E0,1.8407303E1,0E0,0E0,0E0,0E0,0E0,0E0,0E0,0E0],"parents":[2147483647,0,0,1,1,2,2,3,3,4,4,5,5,6,6],"right_children":[2,4,6,8,10,12,14,-1,-1,-1,-1,-1,-1,-1,-1],"split_conditions":[2.6E1,2.5E0,6.000001E0,1.5E0,6.000001E0,4.000001E0,4.000001E0,-1.420757E-3,7.758146E-2,-2.8312353E-2,4.35393E-2,5.4258633E-2,1.10823296E-1,6.781995E-2,-8.43525E-3],"split_indices":[122,23,679,302,34,321,283,0,0,0,0,0,0,0,0],"split_type":[0,0,0,0,0,0,0,0,0,0,0,0,0,0,0],"sum_hessian":[3.657E3,5.72E2,3.085E3,2.94E2,2.78E2,2.4E1,3.061E3,2.85E2,9E0,4E1,2.38E2,1.2E1,1.2E1,3.1E1,3.03E3],"tree_param":{"num_deleted":"0","num_feature":"2066","num_nodes":"15","size_leaf_vector":"0"}},{"base_weights":[-2.8543333E-2,2.0114829E-1,-5.8639377E-2,6.0546774E-1,1.3283885E-1,5.63436E-1,-6.9774844E-2,8.353388E-1,-5.153404E-1,8.9345014E-1,9.068724E-2,6.9032185E-2,6.4274615E-1,9.019088E-1,-7.683185E-2],"categories":[],"categories_nodes":[],"categories_segments":[],"categories_sizes":[],"default_left":[0,0,0,1,0,0,0,0,0,0,0,0,0,0,0],"id":27,"left_children":[1,3,5,7,9,11,13,-1,-1,-1,-1,-1,-1,-1,-1],"loss_changes":[2.529885E1,1.1629955E1,2.2448486E1,1.6146605E1,1.1589173E1,2.19067E0,2.1868244E1,0E0,0E0,0E0,0E0,0E0,0E0,0E0,0E0],"parents":[2147483647,0,0,1,1,2,2,3,3,4,4,5,5,6,6],"right_children":[2,4,6,8,10,12,14,-1,-1,-1,-1,-1,-1,-1,-1],"split_conditions":[1.2000001E1,2.4E1,4.000001E0,1.5E0,2.000001E0,5E0,2.5E0,8.3533876E-2,-5.1534038E-2,8.9345016E-2,9.068724E-3,6.9032186E-3,6.427462E-2,9.019088E-2,-7.683185E-3],"split_indices":[31,302,847,15,408,1130,679,0,0,0,0,0,0,0,0],"split_type":[0,0,0,0,0,0,0,0,0,0,0,0,0,0,0],"sum_hessian":[3.657E3,4.23E2,3.234E3,6E1,3.63E2,5.6E1,3.178E3,5E1,1E1,1.8E1,3.45E2,8E0,4.8E1,2.2E1,3.156E3],"tree_param":{"num_deleted":"0","num_feature":"2066","num_nodes":"15","size_leaf_vector":"0"}},{"base_weights":[-2.5611341E-2,3.4748342E-2,-1.3473015E-1,-2.8264105E-1,7.104786E-2,-1.3998826E-1,8.587713E-1,1.1392486E0,-3.0525577E-1,5.4798704E-2,7.410421E-1,-1.6257638E-1,8.291836E-2,1.3707194E0,1.3213034E-1],"categories":[],"categories_nodes":[],"categories_segments":[],"categories_sizes":[],"default_left":[0,0,1,0,1,1,1,0,0,0,0,0,0,0,0],"id":28,"left_children":[1,3,5,7,9,11,13,-1,-1,-1,-1,-1,-1,-1,-1],"loss_changes":[2.4097647E1,2.716375E1,6.927025E0,8.129423E0,2.2985062E1,6.543928E0,2.4229035E0,0E0,0E0,0E0,0E0,0E0,0E0,0E0,0E0],"parents":[2147483647,0,0,1,1,2,2,3,3,4,4,5,5,6,6],"right_children":[2,4,6,8,10,12,14,-1,-1,-1,-1,-1,-1,-1,-1],"split_conditions":[5.6E1,6.000001E0,2.2884972E-4,2.000001E0,1.5E0,1.8023886E-4,3.3995464E-5,1.1392486E-1,-3.0525578E-2,5.4798704E-3,7.410421E-2,-1.6257638E-2,8.291836E-3,1.3707195E-1,1.3213034E-2],"split_indices":[23,34,2064,1856,302,2063,2063,0,0,0,0,0,0,0,0],"split_type":[0,0,0,0,0,0,0,0,0,0,0,0,0,0,0],"sum_hessian":[3.657E3,2.355E3,1.302E3,2.41E2,2.114E3,1.296E3,6E0,3E0,2.38E2,2.065E3,4.9E1,1.177E3,1.19E2,3E0,3E0],"tree_param":{"num_deleted":"0","num_feature":"2066","num_nodes":"15","size_leaf_vector":"0"}},{"base_weights":[-2.296674E-2,2.844528E-2,-1.3919608E-1,-7.966592E-2,9.883621E-2,-1.4482747E-1,1.1478213E0,-1.2242126E-1,2.6079756E-1,1.6787292E-1,-4.5964673E-2,-1.6085051E-1,2.4993575E-1,1.4310863E0,7.380724E-3],"categories":[],"categories_nodes":[],"categories_segments":[],"categories_sizes":[],"default_left":[0,0,1,1,0,1,0,0,0,0,0,0,0,0,0],"id":29,"left_children":[1,3,5,7,9,11,13,-1,-1,-1,-1,-1,-1,-1,-1],"loss_changes":[2.186265E1,1.9314568E1,8.298149E0,1.4603113E1,1.5372454E1,7.111891E0,1.604672E0,0E0,0E0,0E0,0E0,0E0,0E0,0E0,0E0],"parents":[2147483647,0,0,1,1,2,2,3,3,4,4,5,5,6,6],"right_children":[2,4,6,8,10,12,14,-1,-1,-1,-1,-1,-1,-1,-1],"split_conditions":[5E1,5.5E0,2.5E0,5.5E0,5.6E1,2.0698011E-4,7.5E0,-1.2242126E-2,2.6079757E-2,1.6787292E-2,-4.5964676E-3,-1.6085051E-2,2.4993574E-2,1.4310864E-1,7.380724E-4],"split_indices":[26,15,302,49,23,2064,1,0,0,0,0,0,0,0,0],"split_type":[0,0,0,0,0,0,0,0,0,0,0,0,0,0,0],"sum_hessian":[3.657E3,2.536E3,1.121E3,1E3,1.536E3,1.117E3,4E0,8.89E2,1.11E2,1.04E3,4.96E2,1.074E3,4.3E1,3E0,1E0],"tree_param":{"num_deleted":"0","num_feature":"2066","num_nodes":"15","size_leaf_vector":"0"}},{"base_weights":[-2.0621192E-2,1.5017048E-1,-5.232664E-2,1.24621436E-1,9.31009E-1,-1.6199948E-1,6.2133353E-3,-2.7118826E-1,1.677388E-1,1.1802161E0,-2.3626989E-1,-2.1643831E-1,4.7902837E-2,2.9394314E-1,-2.2374567E-2],"categories":[],"categories_nodes":[],"categories_segments":[],"categories_sizes":[],"default_left":[0,1,0,0,1,1,0,0,0,0,0,0,0,0,0],"id":30,"left_children":[1,3,5,7,9,11,13,-1,-1,-1,-1,-1,-1,-1,-1],"loss_changes":[1.9816023E1,1.131514E1,1.9813887E1,9.534332E0,5.514945E0,1.2282787E1,1.6564692E1,0E0,0E0,0E0,0E0,0E0,0E0,0E0,0E0],"parents":[2147483647,0,0,1,1,2,2,3,3,4,4,5,5,6,6],"right_children":[2,4,6,8,10,12,14,-1,-1,-1,-1,-1,-1,-1,-1],"split_conditions":[2.6E1,1.15E1,2.7E1,6.000001E0,2E0,2.5E0,1.5E0,-2.7118826E-2,1.677388E-2,1.1802161E-1,-2.3626989E-2,-2.164383E-2,4.7902837E-3,2.9394314E-2,-2.2374566E-3],"split_indices":[122,49,45,157,52,104,31,0,0,0,0,0,0,0,0],"split_type":[0,0,0,0,0,0,0,0,0,0,0,0,0,0,0],"sum_hessian":[3.657E3,5.72E2,3.085E3,5.55E2,1.7E1,1.073E3,2.012E3,5.4E1,5.01E2,1.4E1,3E0,8.52E2,2.21E2,1.81E2,1.831E3],"tree_param":{"num_deleted":"0","num_feature":"2066","num_nodes":"15","size_leaf_vector":"0"}},{"base_weights":[-1.8533282E-2,-6.7151636E-2,8.809539E-2,-1.1757132E-1,6.5963015E-2,3.0018637E-1,3.7665926E-2,-2.0879574E-1,-5.288664E-2,6.5395236E-1,5.105667E-2,8.781715E-1,2.2824815E-1,7.1078426E-1,1.7452983E-2],"categories":[],"categories_nodes":[],"categories_segments":[],"categories_sizes":[],"default_left":[1,1,0,0,0,0,0,0,0,0,0,0,0,0,0],"id":31,"left_children":[1,3,5,7,9,11,13,-1,-1,-1,-1,-1,-1,-1,-1],"loss_changes":[1.896939E1,1.6874E1,1.2245892E1,1.0746157E1,6.0230684E0,8.946989E0,1.260008E1,0E0,0E0,0E0,0E0,0E0,0E0,0E0,0E0],"parents":[2147483647,0,0,1,1,2,2,3,3,4,4,5,5,6,6],"right_children":[2,4,6,8,10,12,14,-1,-1,-1,-1,-1,-1,-1,-1],"split_conditions":[3.4081838E-3,2.5E0,7E0,6.5E0,1.8E1,6.000001E0,4.000001E0,-2.0879574E-2,-5.288664E-3,6.5395236E-2,5.105667E-3,8.7817155E-2,2.2824815E-2,7.107843E-2,1.7452984E-3],"split_indices":[2059,3,1158,0,852,1463,461,0,0,0,0,0,0,0,0],"split_type":[0,0,0,0,0,0,0,0,0,0,0,0,0,0,0],"sum_hessian":[3.657E3,2.512E3,1.145E3,1.822E3,6.9E2,2.19E2,9.26E2,7.55E2,1.067E3,1.6E1,6.74E2,2.3E1,1.96E2,2.6E1,9E2],"tree_param":{"num_deleted":"0","num_feature":"2066","num_nodes":"15","size_leaf_vector":"0"}},{"base_weights":[-1.661768E-2,2.2059302E-1,-3.7337836E-2,-2.8306893E-1,3.0565998E-1,-4.9357835E-2,3.6387336E-1,4.1595766E-1,-3.6542955E-1,-3.478126E-2,4.1456938E-1,2.9733545E-1,-6.278244E-2,2.261544E-1,8.031241E-1],"categories":[],"categories_nodes":[],"categories_segments":[],"categories_sizes":[],"default_left":[0,0,1,0,0,1,1,0,0,0,0,0,0,0,0],"id":32,"left_children":[1,3,5,7,9,11,13,-1,-1,-1,-1,-1,-1,-1,-1],"loss_changes":[1.7987465E1,1.2682946E1,1.6245869E1,2.6276104E0,9.357889E0,1.5228659E1,5.7467003E0,0E0,0E0,0E0,0E0,0E0,0E0,0E0,0E0],"parents":[2147483647,0,0,1,1,2,2,3,3,4,4,5,5,6,6],"right_children":[2,4,6,8,10,12,14,-1,-1,-1,-1,-1,-1,-1,-1],"split_conditions":[2.4E1,6.000001E0,1.5E0,4.000001E0,1.8E1,-2.7466938E-4,5.5E0,4.159577E-2,-3.6542956E-2,-3.478126E-3,4.1456938E-2,2.9733544E-2,-6.278244E-3,2.261544E-2,8.0312416E-2],"split_indices":[302,34,122,28,63,2064,49,0,0,0,0,0,0,0,0],"split_type":[0,0,0,0,0,0,0,0,0,0,0,0,0,0,0],"sum_hessian":[3.657E3,2.93E2,3.364E3,4.2E1,2.51E2,3.267E3,9.7E1,4E0,3.8E1,6.1E1,1.9E2,1.21E2,3.146E3,7.5E1,2.2E1],"tree_param":{"num_deleted":"0","num_feature":"2066","num_nodes":"15","size_leaf_vector":"0"}},{"base_weights":[-1.4909602E-2,6.6109306E-1,-2.1999685E-2,5.568072E-1,1.238018E0,4.8995844E-1,-3.1202417E-2,5.5313893E-2,6.2182915E-1,6.594108E-2,5.5814415E-1,4.9703538E-1,-4.040519E-2],"categories":[],"categories_nodes":[],"categories_segments":[],"categories_sizes":[],"default_left":[0,1,0,0,0,0,0,0,0,0,0,0,0],"id":33,"left_children":[1,3,5,7,-1,9,11,-1,-1,-1,-1,-1,-1],"loss_changes":[1.7547026E1,1.5969372E0,1.7075314E1,1.0742788E0,0E0,1.8135586E0,1.7316422E1,0E0,0E0,0E0,0E0,0E0,0E0],"parents":[2147483647,0,0,1,1,2,2,3,3,5,5,6,6],"right_children":[2,4,6,8,-1,10,12,-1,-1,-1,-1,-1,-1],"split_conditions":[1.5E0,1.0282762E-2,8.000001E0,4.000001E0,1.23801805E-1,5E0,1.0000001E1,5.5313893E-3,6.2182914E-2,6.594108E-3,5.5814415E-2,4.970354E-2,-4.0405192E-3],"split_indices":[283,2057,847,201,0,1130,625,0,0,0,0,0,0],"split_type":[0,0,0,0,0,0,0,0,0,0,0,0,0],"sum_hessian":[3.657E3,3.7E1,3.62E3,3.3E1,4E0,6.3E1,3.557E3,4E0,2.9E1,9E0,5.4E1,6E1,3.497E3],"tree_param":{"num_deleted":"0","num_feature":"2066","num_nodes":"13","size_leaf_vector":"0"}},{"base_weights":[-1.3336741E-2,3.7681806E-1,-2.4633875E-2,1.2465427E0,3.0041584E-1,6.857324E-1,-3.0669132E-2,2.5040632E-1,1.3880329E0,1.0595363E0,4.4585362E-1,1.2554213E-1,-5.717759E-2],"categories":[],"categories_nodes":[],"categories_segments":[],"categories_sizes":[],"default_left":[0,0,0,0,1,0,0,0,0,0,0,0,0],"id":34,"left_children":[1,3,5,-1,7,9,11,-1,-1,-1,-1,-1,-1],"loss_changes":[1.6132397E1,6.469756E0,1.5266471E1,0E0,4.8739824E0,2.2176304E0,1.4612199E1,0E0,0E0,0E0,0E0,0E0,0E0],"parents":[2147483647,0,0,1,1,2,2,4,4,5,5,6,6],"right_children":[2,4,6,-1,8,10,12,-1,-1,-1,-1,-1,-1],"split_conditions":[1.0000001E1,1.5E0,2.5E0,1.2465427E-1,1.8289872E-4,1.5E0,2.5E0,2.5040632E-2,1.3880329E-1,1.05953634E-1,4.4585362E-2,1.2554213E-2,-5.717759E-3],"split_indices":[1427,1581,679,0,2060,22,1158,0,0,0,0,0,0],"split_type":[0,0,0,0,0,0,0,0,0,0,0,0,0],"sum_hessian":[3.657E3,1.02E2,3.555E3,7E0,9.5E1,2.9E1,3.526E3,9.2E1,3E0,1E1,1.9E1,5.11E2,3.015E3],"tree_param":{"num_deleted":"0","num_feature":"2066","num_nodes":"13","size_leaf_vector":"0"}},{"base_weights":[-1.1881179E-2,-2.2060128E-2,3.9190274E-1,-1.0320719E-1,3.846375E-2,-1.8376617E-1,5.0036496E-1,-1.3576542E-1,1.02450155E-1,-8.141712E-3,2.150815E-1,-5.009559E-1,2.5030145E-1,-3.4108055E-1,5.6442565E-1],"categories":[],"categories_nodes":[],"categories_segments":[],"categories_sizes":[],"default_left":[1,0,0,1,1,0,0,0,0,0,0,0,0,0,0],"id":35,"left_children":[1,3,5,7,9,11,13,-1,-1,-1,-1,-1,-1,-1,-1],"loss_changes":[1.5043378E1,1.7532524E1,5.7114E0,1.0225061E1,1.6834866E1,2.1906166E0,4.2891884E0,0E0,0E0,0E0,0E0,0E0,0E0,0E0,0E0],"parents":[2147483647,0,0,1,1,2,2,3,3,4,4,5,5,6,6],"right_children":[2,4,6,8,10,12,14,-1,-1,-1,-1,-1,-1,-1,-1],"split_conditions":[8.5E0,6.5E0,1.5E0,1.5E0,2.5E0,4.000001E0,1.5E0,-1.3576542E-2,1.0245016E-2,-8.141712E-4,2.150815E-2,-5.0095588E-2,2.5030145E-2,-3.4108054E-2,5.6442566E-2],"split_indices":[26,0,34,136,23,1055,604,0,0,0,0,0,0,0,0],"split_type":[0,0,0,0,0,0,0,0,0,0,0,0,0,0,0],"sum_hessian":[3.657E3,3.568E3,8.9E1,1.524E3,2.044E3,1.4E1,7.5E1,1.316E3,2.08E2,1.618E3,4.26E2,8E0,6E0,5E0,7E1],"tree_param":{"num_deleted":"0","num_feature":"2066","num_nodes":"15","size_leaf_vector":"0"}},{"base_weights":[-1.0689056E-2,5.9660584E-1,-1.7059261E-2,2.9968238E-2,6.6238767E-1,1.599747E-1,-4.0400285E-2,1.903252E-1,-5.7702303E-2,1.010133E0,5.1653785E-1,3.2129318E-1,4.9873773E-2,6.8484724E-1,-4.6096377E-2],"categories":[],"categories_nodes":[],"categories_segments":[],"categories_sizes":[],"default_left":[0,0,0,0,0,1,0,0,0,0,0,0,0,0,0],"id":36,"left_children":[1,3,5,7,9,11,13,-1,-1,-1,-1,-1,-1,-1,-1],"loss_changes":[1.4161495E1,1.3965788E0,1.496899E1,8.127511E-2,1.2026615E0,7.479251E0,1.3251014E1,0E0,0E0,0E0,0E0,0E0,0E0,0E0,0E0],"parents":[2147483647,0,0,1,1,2,2,3,3,4,4,5,5,6,6],"right_children":[2,4,6,8,10,12,14,-1,-1,-1,-1,-1,-1,-1,-1],"split_conditions":[1.5E0,1.5E0,1.2000001E1,1.5E0,3E0,-1.0067077E-2,2.5E0,1.9032521E-2,-5.77023E-3,1.010133E-1,5.1653784E-2,3.2129318E-2,4.987377E-3,6.848472E-2,-4.609638E-3],"split_indices":[283,175,31,3,85,2057,679,0,0,0,0,0,0,0,0],"split_type":[0,0,0,0,0,0,0,0,0,0,0,0,0,0,0],"sum_hessian":[3.657E3,3.7E1,3.62E3,4E0,3.3E1,4.21E2,3.199E3,1E0,3E0,8E0,2.5E1,1.7E2,2.51E2,2.4E1,3.175E3],"tree_param":{"num_deleted":"0","num_feature":"2066","num_nodes":"15","size_leaf_vector":"0"}},{"base_weights":[-9.547179E-3,-9.331267E-2,3.5471987E-2,6.257021E-1,-1.0349409E-1,1.0305895E-1,-7.2853655E-2,7.822831E-1,-1.1790232E-1,-4.6797815E-1,-8.331076E-2,6.318219E-2,3.3863568E-1,-9.722045E-2,2.42065E-1],"categories":[],"categories_nodes":[],"categories_segments":[],"categories_sizes":[],"default_left":[0,0,0,1,0,0,1,0,0,0,0,0,0,0,0],"id":37,"left_children":[1,3,5,7,9,11,13,-1,-1,-1,-1,-1,-1,-1,-1],"loss_changes":[1.379782E1,9.427794E0,1.7432442E1,2.1880512E0,9.244917E0,1.3750262E1,7.0448394E0,0E0,0E0,0E0,0E0,0E0,0E0,0E0,0E0],"parents":[2147483647,0,0,1,1,2,2,3,3,4,4,5,5,6,6],"right_children":[2,4,6,8,10,12,14,-1,-1,-1,-1,-1,-1,-1,-1],"split_conditions":[2.7E1,4.000001E0,5E1,1.5E0,1.5E0,2.55E1,1.8539128E-4,7.822832E-2,-1.1790233E-2,-4.6797816E-2,-8.331076E-3,6.318219E-3,3.386357E-2,-9.722046E-3,2.42065E-2],"split_indices":[45,1441,23,1080,19,1,2063,0,0,0,0,0,0,0,0],"split_type":[0,0,0,0,0,0,0,0,0,0,0,0,0,0,0],"sum_hessian":[3.657E3,1.278E3,2.379E3,1.7E1,1.261E3,1.465E3,9.14E2,1.4E1,3E0,6.5E1,1.196E3,1.254E3,2.11E2,8.49E2,6.5E1],"tree_param":{"num_deleted":"0","num_feature":"2066","num_nodes":"15","size_leaf_vector":"0"}},{"base_weights":[-8.574422E-3,-1.6816941E-1,1.42061785E-2,-1.8029796E-1,9.643116E-1,4.133803E-3,4.8544145E-1,8.0149636E-2,-2.2571284E-1,-2.2798752E-2,1.7459211E-1,9.363622E-1,2.1198888E-1],"categories":[],"categories_nodes":[],"categories_segments":[],"categories_sizes":[],"default_left":[0,1,1,0,0,1,0,0,0,0,0,0,0],"id":38,"left_children":[1,3,5,7,-1,9,11,-1,-1,-1,-1,-1,-1],"loss_changes":[1.3301668E1,6.450923E0,1.5196154E1,5.3762608E0,0E0,1.4400972E1,8.062967E0,0E0,0E0,0E0,0E0,0E0,0E0],"parents":[2147483647,0,0,1,1,2,2,3,3,5,5,6,6],"right_children":[2,4,6,8,-1,10,12,-1,-1,-1,-1,-1,-1],"split_conditions":[2.5E0,2.5E0,1.5E0,2.5E0,9.643116E-2,3.5E0,2.5E0,8.014964E-3,-2.2571284E-2,-2.2798753E-3,1.7459212E-2,9.363622E-2,2.119889E-2],"split_indices":[30,397,302,470,0,26,80,0,0,0,0,0,0],"split_type":[0,0,0,0,0,0,0,0,0,0,0,0,0],"sum_hessian":[3.657E3,4.56E2,3.201E3,4.52E2,4E0,3.135E3,6.6E1,6.7E1,3.85E2,2.708E3,4.27E2,2.4E1,4.2E1],"tree_param":{"num_deleted":"0","num_feature":"2066","num_nodes":"13","size_leaf_vector":"0"}},{"base_weights":[-7.6590525E-3,-2.0700493E-1,9.502706E-3,1.0492833E0,-2.2379291E-1,2.5295222E-1,-1.0176185E-2,-2.397219E-1,9.631139E-1,-4.461336E-2,3.4821984E-1,1.0128249E-1,-4.6205603E-2],"categories":[],"categories_nodes":[],"categories_segments":[],"categories_sizes":[],"default_left":[0,0,0,0,1,0,0,0,0,0,0,0,0],"id":39,"left_children":[1,3,5,-1,7,9,11,-1,-1,-1,-1,-1,-1],"loss_changes":[1.2516446E1,6.351077E0,1.6142834E1,0E0,5.656969E0,7.1593227E0,1.2525917E1,0E0,0E0,0E0,0E0,0E0,0E0],"parents":[2147483647,0,0,1,1,2,2,4,4,5,5,6,6],"right_children":[2,4,6,-1,8,10,12,-1,-1,-1,-1,-1,-1],"split_conditions":[6.000001E0,2.000001E0,2.4E1,1.0492833E-1,1.5E0,1.8E1,7E0,-2.3972189E-2,9.631139E-2,-4.4613364E-3,3.4821983E-2,1.0128249E-2,-4.6205604E-3],"split_indices":[34,1856,302,0,852,63,189,0,0,0,0,0,0],"split_type":[0,0,0,0,0,0,0,0,0,0,0,0,0],"sum_hessian":[3.657E3,2.89E2,3.368E3,3E0,2.86E2,2.51E2,3.117E3,2.83E2,3E0,6.1E1,1.9E2,7.61E2,2.356E3],"tree_param":{"num_deleted":"0","num_feature":"2066","num_nodes":"13","size_leaf_vector":"0"}},{"base_weights":[-6.8348865E-3,1.23732194E-1,-3.2136686E-2,-5.979652E-3,2.6064602E-1,-1.2736501E-1,1.5005627E-2,-1.0836714E-1,1.5145878E-1,-3.105875E-1,3.042715E-1,8.2086824E-2,-1.62368E-1,-3.9586853E-2,1.2369122E-1],"categories":[],"categories_nodes":[],"categories_segments":[],"categories_sizes":[],"default_left":[0,1,0,1,0,0,0,0,0,0,0,0,0,0,0],"id":40,"left_children":[1,3,5,7,9,11,13,-1,-1,-1,-1,-1,-1,-1,-1],"loss_changes":[1.2088479E1,1.0550609E1,1.3761563E1,4.949049E0,7.296482E0,7.4547405E0,1.2174333E1,0E0,0E0,0E0,0E0,0E0,0E0,0E0,0E0],"parents":[2147483647,0,0,1,1,2,2,3,3,4,4,5,5,6,6],"right_children":[2,4,6,8,10,12,14,-1,-1,-1,-1,-1,-1,-1,-1],"split_conditions":[2E1,1.5E0,5.5E0,1.114865E-3,2.000001E0,6.000001E0,9.5E0,-1.0836714E-2,1.5145878E-2,-3.105875E-2,3.0427149E-2,8.208683E-3,-1.62368E-2,-3.9586853E-3,1.2369122E-2],"split_indices":[32,49,15,2062,269,202,88,0,0,0,0,0,0,0,0],"split_type":[0,0,0,0,0,0,0,0,0,0,0,0,0,0,0],"sum_hessian":[3.657E3,5.93E2,3.064E3,3.05E2,2.88E2,1.014E3,2.05E3,1.85E2,1.2E2,2E1,2.68E2,1.45E2,8.69E2,1.365E3,6.85E2],"tree_param":{"num_deleted":"0","num_feature":"2066","num_nodes":"15","size_leaf_vector":"0"}},{"base_weights":[-6.1502857E-3,4.121009E-2,-7.27935E-2,5.7055753E-1,3.033591E-2,-1.4678827E-1,1.386627E-2,-1.8207984E-1,7.219615E-1,2.1847042E-1,5.329741E-3,9.473856E-1,-1.5331288E-1,-4.1061845E-3,5.438415E-1],"categories":[],"categories_nodes":[],"categories_segments":[],"categories_sizes":[],"default_left":[1,0,1,0,0,0,1,0,0,0,0,0,0,0,0],"id":41,"left_children":[1,3,5,7,9,11,13,-1,-1,-1,-1,-1,-1,-1,-1],"loss_changes":[1.1548553E1,1.2295242E1,9.748837E0,5.0314016E0,9.864222E0,5.9992714E0,6.6792264E0,0E0,0E0,0E0,0E0,0E0,0E0,0E0,0E0],"parents":[2147483647,0,0,1,1,2,2,3,3,4,4,5,5,6,6],"right_children":[2,4,6,8,10,12,14,-1,-1,-1,-1,-1,-1,-1,-1],"split_conditions":[2.322656E-3,6.000001E0,1.5E0,2.000001E0,6.000001E0,2.000001E0,1.35E1,-1.8207984E-2,7.219615E-2,2.1847043E-2,5.3297414E-4,9.4738565E-2,-1.5331288E-2,-4.1061846E-4,5.438415E-2],"split_indices":[2057,1463,3,320,31,444,23,0,0,0,0,0,0,0,0],"split_type":[0,0,0,0,0,0,0,0,0,0,0,0,0,0,0],"sum_hessian":[3.657E3,2.138E3,1.519E3,4.2E1,2.096E3,8.19E2,7E2,7E0,3.5E1,2.45E2,1.851E3,4E0,8.15E2,6.78E2,2.2E1],"tree_param":{"num_deleted":"0","num_feature":"2066","num_nodes":"15","size_leaf_vector":"0"}},{"base_weights":[-5.477921E-3,3.9783722E-1,-1.2999256E-2,-5.682208E-1,4.2108387E-1,5.516048E-1,-1.8549606E-2,4.667943E-1,-1.1381939E-1,4.5326886E-1,1.0509669E0,4.0427402E-1,-2.5917728E-2],"categories":[],"categories_nodes":[],"categories_segments":[],"categories_sizes":[],"default_left":[0,0,0,0,1,1,0,0,0,0,0,0,0],"id":42,"left_children":[1,3,5,-1,7,9,11,-1,-1,-1,-1,-1,-1],"loss_changes":[1.11016E1,1.7439289E0,1.1266662E1,0E0,1.666873E0,1.2423134E0,1.1095129E1,0E0,0E0,0E0,0E0,0E0,0E0],"parents":[2147483647,0,0,1,1,2,2,4,4,5,5,6,6],"right_children":[2,4,6,-1,8,10,12,-1,-1,-1,-1,-1,-1],"split_conditions":[8.000001E0,2.000001E0,1.5E0,-5.682208E-2,1.5E0,1.0282762E-2,1.0000001E1,4.6679433E-2,-1.1381939E-2,4.5326885E-2,1.0509669E-1,4.04274E-2,-2.5917727E-3],"split_indices":[847,915,283,0,230,2057,625,0,0,0,0,0,0],"split_type":[0,0,0,0,0,0,0,0,0,0,0,0,0],"sum_hessian":[3.657E3,6.6E1,3.591E3,1E0,6.5E1,3.4E1,3.557E3,6E1,5E0,3E1,4E0,6E1,3.497E3],"tree_param":{"num_deleted":"0","num_feature":"2066","num_nodes":"13","size_leaf_vector":"0"}},{"base_weights":[-4.88455E-3,-3.0672917E-1,4.9994076E-3,1.7592853E-1,-3.747011E-1,4.2220805E-2,-7.9812154E-2,-3.1934753E-1,4.5550132E-1,-8.3537295E-2,-5.1905453E-1,-1.0713638E-1,7.8709014E-2,-9.019967E-2,4.0193522E-1],"categories":[],"categories_nodes":[],"categories_segments":[],"categories_sizes":[],"default_left":[0,0,0,0,0,0,1,0,0,0,0,0,0,0,0],"id":43,"left_children":[1,3,5,7,9,11,13,-1,-1,-1,-1,-1,-1,-1,-1],"loss_changes":[1.0914883E1,3.8715525E0,1.1187928E1,2.2224488E0,4.2437487E0,1.34312315E1,5.4457493E0,0E0,0E0,0E0,0E0,0E0,0E0,0E0,0E0],"parents":[2147483647,0,0,1,1,2,2,3,3,4,4,5,5,6,6],"right_children":[2,4,6,8,10,12,14,-1,-1,-1,-1,-1,-1,-1,-1],"split_conditions":[2.5E0,4.000001E0,5E1,4E0,2.5E0,2.5E0,1.5E0,-3.1934753E-2,4.5550134E-2,-8.35373E-3,-5.1905453E-2,-1.0713639E-2,7.870901E-3,-9.019967E-3,4.0193524E-2],"split_indices":[19,519,26,110,136,101,1047,0,0,0,0,0,0,0,0],"split_type":[0,0,0,0,0,0,0,0,0,0,0,0,0,0,0],"sum_hessian":[3.657E3,1.15E2,3.542E3,1.4E1,1.01E2,2.462E3,1.08E3,5E0,9E0,3.4E1,6.7E1,4.83E2,1.979E3,1.058E3,2.2E1],"tree_param":{"num_deleted":"0","num_feature":"2066","num_nodes":"15","size_leaf_vector":"0"}},{"base_weights":[-4.401103E-3,3.120087E-1,-1.3564717E-2,1.028364E0,2.4906236E-1,-7.682303E-2,3.5073232E-2,1.1450018E0,4.5230043E-1,2.0338018E-1,1.2489074E0,-1.0745449E-1,1.14338495E-1,2.2613013E-1,5.566992E-3],"categories":[],"categories_nodes":[],"categories_segments":[],"categories_sizes":[],"default_left":[0,0,0,0,1,1,0,0,0,0,0,0,0,0,0],"id":44,"left_children":[1,3,5,7,9,11,13,-1,-1,-1,-1,-1,-1,-1,-1],"loss_changes":[1.0610448E1,4.3883457E0,1.0943635E1,1.9640923E-2,4.1308064E0,9.064978E0,1.1335494E1,0E0,0E0,0E0,0E0,0E0,0E0,0E0,0E0],"parents":[2147483647,0,0,1,1,2,2,3,3,4,4,5,5,6,6],"right_children":[2,4,6,8,10,12,14,-1,-1,-1,-1,-1,-1,-1,-1],"split_conditions":[1.0000001E1,1.5E0,6.5E0,1.5E0,1.8289872E-4,3.5E0,2.5E0,1.1450018E-1,4.5230042E-2,2.033802E-2,1.24890745E-1,-1.074545E-2,1.143385E-2,2.2613013E-2,5.566992E-4],"split_indices":[1427,1581,0,278,2060,104,1158,0,0,0,0,0,0,0,0],"split_type":[0,0,0,0,0,0,0,0,0,0,0,0,0,0,0],"sum_hessian":[3.657E3,1.02E2,3.555E3,7E0,9.5E1,1.545E3,2.01E3,5E0,2E0,9.2E1,3E0,1.332E3,2.13E2,2.68E2,1.742E3],"tree_param":{"num_deleted":"0","num_feature":"2066","num_nodes":"15","size_leaf_vector":"0"}},{"base_weights":[-3.8711058E-3,-1.4390734E-1,1.6116537E-2,-1.5441144E-1,8.365446E-1,-6.656716E-2,6.0933933E-2,7.569618E-2,-1.9454849E-1,-1.08163916E-1,8.992093E-2,1.16196275E-1,-2.8145544E-2],"categories":[],"categories_nodes":[],"categories_segments":[],"categories_sizes":[],"default_left":[0,1,0,0,0,1,0,0,0,0,0,0,0],"id":45,"left_children":[1,3,5,7,-1,9,11,-1,-1,-1,-1,-1,-1],"loss_changes":[1.0241039E1,4.835704E0,1.1869605E1,4.1985636E0,0E0,7.3393073E0,1.0227804E1,0E0,0E0,0E0,0E0,0E0,0E0],"parents":[2147483647,0,0,1,1,2,2,3,3,5,5,6,6],"right_children":[2,4,6,8,-1,10,12,-1,-1,-1,-1,-1,-1],"split_conditions":[2.5E0,2.5E0,3.2E1,2.5E0,8.3654456E-2,2.5E0,5E1,7.569618E-3,-1.945485E-2,-1.0816392E-2,8.992094E-3,1.16196275E-2,-2.8145544E-3],"split_indices":[30,397,45,470,0,104,23,0,0,0,0,0,0],"split_type":[0,0,0,0,0,0,0,0,0,0,0,0,0],"sum_hessian":[3.657E3,4.56E2,3.201E3,4.52E2,4E0,1.125E3,2.076E3,6.7E1,3.85E2,8.89E2,2.36E2,1.281E3,7.95E2],"tree_param":{"num_deleted":"0","num_feature":"2066","num_nodes":"13","size_leaf_vector":"0"}},{"base_weights":[-3.4624694E-3,-8.773273E-3,5.026923E-1,-8.057021E-2,2.747187E-2,-7.984635E-2,6.606975E-1,-1.2937485E-1,6.2325172E-2,2.177119E-2,8.2763964E-1,3.1353626E-1,-3.287937E-1,3.368745E-1,8.3044374E-1],"categories":[],"categories_nodes":[],"categories_segments":[],"categories_sizes":[],"default_left":[1,0,0,1,1,1,1,0,0,0,0,0,0,0,0],"id":46,"left_children":[1,3,5,7,9,11,13,-1,-1,-1,-1,-1,-1,-1,-1],"loss_changes":[9.837438E0,9.425107E0,3.5504313E0,8.4814205E0,1.0961512E1,9.844728E-1,1.369277E0,0E0,0E0,0E0,0E0,0E0,0E0,0E0,0E0],"parents":[2147483647,0,0,1,1,2,2,3,3,4,4,5,5,6,6],"right_children":[2,4,6,8,10,12,14,-1,-1,-1,-1,-1,-1,-1,-1],"split_conditions":[-9.536743E-7,5.5E0,2.5E0,3.5E0,2.5E0,-1.5792537E-2,-7.6062042E-6,-1.2937485E-2,6.2325173E-3,2.177119E-3,8.276396E-2,3.1353626E-2,-3.287937E-2,3.3687454E-2,8.304437E-2],"split_indices":[1672,15,51,3,33,2057,2063,0,0,0,0,0,0,0,0],"split_type":[0,0,0,0,0,0,0,0,0,0,0,0,0,0,0],"sum_hessian":[3.657E3,3.62E3,3.7E1,1.214E3,2.406E3,8E0,2.9E1,9.05E2,3.09E2,2.39E3,1.6E1,3E0,5E0,1.1E1,1.8E1],"tree_param":{"num_deleted":"0","num_feature":"2066","num_nodes":"15","size_leaf_vector":"0"}},{"base_weights":[-3.063339E-3,4.0260905E-1,-9.1391355E-3,-5.22397E-1,4.6726424E-1,-1.7058345E-2,3.1128427E-1,-6.899551E-2,5.997421E-1,-2.6805314E-1,-5.803589E-3,3.7655178E-1,-3.8030124E-1],"categories":[],"categories_nodes":[],"categories_segments":[],"categories_sizes":[],"default_left":[0,0,1,0,0,0,1,0,0,0,0,0,0],"id":47,"left_children":[1,3,5,-1,7,9,11,-1,-1,-1,-1,-1,-1],"loss_changes":[9.0198555E0,3.4736452E0,9.152998E0,0E0,3.6645498E0,9.939215E0,4.0702133E0,0E0,0E0,0E0,0E0,0E0,0E0],"parents":[2147483647,0,0,1,1,2,2,4,4,5,5,6,6],"right_children":[2,4,6,-1,8,10,12,-1,-1,-1,-1,-1,-1],"split_conditions":[4.000001E0,2.000001E0,8.5E0,-5.2239697E-2,1.5E0,6.000001E0,4.5E0,-6.8995515E-3,5.9974212E-2,-2.6805315E-2,-5.803589E-4,3.765518E-2,-3.8030125E-2],"split_indices":[1323,1327,26,0,23,27,206,0,0,0,0,0,0],"split_type":[0,0,0,0,0,0,0,0,0,0,0,0,0],"sum_hessian":[3.657E3,5.3E1,3.604E3,3E0,5E1,3.518E3,8.6E1,1E1,4E1,1.5E2,3.368E3,7.9E1,7E0],"tree_param":{"num_deleted":"0","num_feature":"2066","num_nodes":"13","size_leaf_vector":"0"}},{"base_weights":[-2.7643638E-3,-1.6895433E-1,1.1541915E-2,9.580046E-1,-1.8407238E-1,2.132154E-1,-4.761247E-3,-1.980925E-1,8.573746E-1,-3.744647E-1,2.5199035E-1,2.9142126E-1,-1.4165401E-2],"categories":[],"categories_nodes":[],"categories_segments":[],"categories_sizes":[],"default_left":[0,0,0,0,1,0,1,0,0,0,0,0,0],"id":48,"left_children":[1,3,5,-1,7,9,11,-1,-1,-1,-1,-1,-1],"loss_changes":[8.699064E0,5.117195E0,1.1078002E1,0E0,4.3603897E0,5.836755E0,8.688838E0,0E0,0E0,0E0,0E0,0E0,0E0],"parents":[2147483647,0,0,1,1,2,2,4,4,5,5,6,6],"right_children":[2,4,6,-1,8,10,12,-1,-1,-1,-1,-1,-1],"split_conditions":[6.000001E0,2.000001E0,2.4E1,9.580046E-2,1.5E0,1.5E0,-3.0107144E-4,-1.9809252E-2,8.573746E-2,-3.744647E-2,2.5199035E-2,2.9142126E-2,-1.4165401E-3],"split_indices":[34,1856,302,0,852,1128,2064,0,0,0,0,0,0],"split_type":[0,0,0,0,0,0,0,0,0,0,0,0,0],"sum_hessian":[3.657E3,2.89E2,3.368E3,3E0,2.86E2,2.51E2,3.117E3,2.83E2,3E0,1.5E1,2.36E2,9.5E1,3.022E3],"tree_param":{"num_deleted":"0","num_feature":"2066","num_nodes":"13","size_leaf_vector":"0"}},{"base_weights":[-2.4394782E-3,5.204094E-1,-6.9063683E-3,8.466491E-1,3.2474056E-1,1.0581592E-1,-2.7733631E-2,3.5630867E-1,1.0759424E0,8.081807E-1,1.9926828E-1,-6.821133E-2,1.6816188E-1,-3.569538E-2,3.646741E-1],"categories":[],"categories_nodes":[],"categories_segments":[],"categories_sizes":[],"default_left":[0,0,0,0,0,0,1,0,0,0,0,0,0,0,0],"id":49,"left_children":[1,3,5,7,9,11,13,-1,-1,-1,-1,-1,-1,-1,-1],"loss_changes":[8.546885E0,1.7039423E0,8.520378E0,8.5338116E-1,1.1127803E0,6.1525126E0,9.582602E0,0E0,0E0,0E0,0E0,0E0,0E0,0E0,0E0],"parents":[2147483647,0,0,1,1,2,2,3,3,4,4,5,5,6,6],"right_children":[2,4,6,8,10,12,14,-1,-1,-1,-1,-1,-1,-1,-1],"split_conditions":[2.5E0,1.5E0,2.6E1,2.000001E0,2.5E0,4.5E0,2.5E0,3.5630867E-2,1.07594244E-1,8.081807E-2,1.992683E-2,-6.821133E-3,1.681619E-2,-3.5695382E-3,3.646741E-2],"split_indices":[679,22,122,321,24,176,85,0,0,0,0,0,0,0,0],"split_type":[0,0,0,0,0,0,0,0,0,0,0,0,0,0,0],"sum_hessian":[3.657E3,3E1,3.627E3,1E1,2E1,5.65E2,3.062E3,4E0,6E0,3E0,1.7E1,1.49E2,4.16E2,3.002E3,6E1],"tree_param":{"num_deleted":"0","num_feature":"2066","num_nodes":"15","size_leaf_vector":"0"}}]},"name":"gbtree"},"learner_model_param":{"base_score":"5E-1","boost_from_average":"1","num_class":"0","num_feature":"2066","num_target":"1"},"objective":{"name":"reg:squarederror","reg_loss_param":{"scale_pos_weight":"1"}}},"version":[1,7,7]}